{
    "seed": 17312235,
    "learning_rate": 0.01,
    "epochs": 1000,
    "output_filename": "CNN_D",
    "convolutional_layers": [
        {
            "kernel_count": 8,
            "kernel_dim": 3,
            "padding": 0,
            "pooling_dim": 2,
            "weights": [
                [
                    [
                        [
                            -0.3765048677821859,
                            0.8897696125042874,
                            0.8239394914031958
                        ],
                        [
                            -1.3704774299209583,
                            -0.7097920571336829,
                            0.3882911625962668
                        ],
                        [
                            0.48950261484392094,
                            -0.8805406966018754,
                            -1.0296224713546405
                        ]
                    ]
                ],
                [
                    [
                        [
                            0.6993796140290013,
                            -0.04728140913480465,
                            -0.6140295056562238
                        ],
                        [
                            -0.5051214935560058,
                            -1.2379055694361976,
                            -0.5182844740976892
                        ],
                        [
                            -0.05592377217533686,
                            0.5293662963034641,
                            1.428157369010767
                        ]
                    ]
                ],
                [
                    [
                        [
                            0.7861477905081856,
                            -0.24863544618660458,
                            -0.5965993917310466
                        ],
                        [
                            -0.11354637426003433,
                            -0.6481463705049885,
                            -0.19813383863553194
                        ],
                        [
                            -0.9832506280158594,
                            -0.6585115089974305,
                            0.49620819514241354
                        ]
                    ]
                ],
                [
                    [
                        [
                            -0.7458590359315305,
                            0.32447345931154165,
                            0.11069472591778204
                        ],
                        [
                            0.11141805404775096,
                            0.08707060761849159,
                            0.4601904587316164
                        ],
                        [
                            -0.12086882615093832,
                            0.48150339621573074,
                            0.2706468792192601
                        ]
                    ]
                ],
                [
                    [
                        [
                            0.060663831274217116,
                            -0.24358007499730328,
                            -0.7360668382099289
                        ],
                        [
                            -0.04185459542367467,
                            0.2035258670583711,
                            -0.23267532566565388
                        ],
                        [
                            0.18400561202426483,
                            0.9137878755614587,
                            -0.29239442320592485
                        ]
                    ]
                ],
                [
                    [
                        [
                            0.05739763888196152,
                            -0.27688965566741225,
                            0.38013749301121946
                        ],
                        [
                            0.7350506519309805,
                            1.1258944586240798,
                            -0.07502028121362248
                        ],
                        [
                            -1.7087792017871508,
                            -0.4146857544709582,
                            -0.7972775974092223
                        ]
                    ]
                ],
                [
                    [
                        [
                            -0.2981282791551753,
                            -0.5379016638292305,
                            -0.5515438584925059
                        ],
                        [
                            1.1718947152447678,
                            -0.22412082005155082,
                            -1.7843614561666807
                        ],
                        [
                            0.5063484654698335,
                            1.2569229392289907,
                            -0.3678098875690578
                        ]
                    ]
                ],
                [
                    [
                        [
                            -0.11360059057673591,
                            -0.4204557992117875,
                            0.19860567633805207
                        ],
                        [
                            -0.4065638770641374,
                            -0.48708410317307804,
                            1.0304042933342683
                        ],
                        [
                            -1.1179801872589992,
                            -0.370120735075851,
                            0.7886881773883498
                        ]
                    ]
                ]
            ],
            "biases": [
                -0.0003050111054632872,
                -0.014474838331304257,
                0.0019561650805488624,
                -0.008421282129927321,
                -0.006191478353758801,
                -0.007145440335128565,
                -0.005061573118314173,
                -0.010452092681538565
            ]
        },
        {
            "kernel_count": 8,
            "kernel_dim": 3,
            "padding": 0,
            "pooling_dim": 2,
            "weights": [
                [
                    [
                        [
                            0.3985894592314807,
                            0.21615700587949696,
                            0.12114671566372537
                        ],
                        [
                            0.23948252328460035,
                            0.22862517019470516,
                            0.2890124231167644
                        ],
                        [
                            0.0718833481219323,
                            0.06756615677246462,
                            0.11176410659975468
                        ]
                    ],
                    [
                        [
                            0.2639260484191638,
                            0.4574279971372251,
                            -0.2813598102250936
                        ],
                        [
                            -0.05813323510376203,
                            -0.1670793180739533,
                            -0.4993372657154917
                        ],
                        [
                            -0.3849178081857159,
                            -0.20889368636913336,
                            -0.516481194127732
                        ]
                    ],
                    [
                        [
                            0.09745411960360023,
                            -0.0549060824650836,
                            0.44961862083406895
                        ],
                        [
                            -0.2898216122058166,
                            -0.008256765795089707,
                            0.07077071757344712
                        ],
                        [
                            -0.04417095994966132,
                            -0.08600585203058088,
                            -0.08443672666377035
                        ]
                    ],
                    [
                        [
                            -0.08910124296253252,
                            0.17512790522118984,
                            -0.018966978851089358
                        ],
                        [
                            -0.3963648734328072,
                            -0.5374806779621795,
                            -0.645478518803752
                        ],
                        [
                            0.4306738401844104,
                            0.18006614341698762,
                            -0.08710284543270336
                        ]
                    ],
                    [
                        [
                            0.06319183194054719,
                            -0.456035692264692,
                            -0.3600051168367939
                        ],
                        [
                            0.48451017168656363,
                            0.5308983538581659,
                            -0.015090412058220988
                        ],
                        [
                            -0.126332078847648,
                            -0.1157134434577284,
                            0.800862661725721
                        ]
                    ],
                    [
                        [
                            0.26470793081033833,
                            0.2655037708035783,
                            0.06518313772639964
                        ],
                        [
                            0.20658394239312305,
                            -0.10517079950387491,
                            -0.08991755700189014
                        ],
                        [
                            0.43543823170525864,
                            -0.33317198565271183,
                            -0.49160827216504516
                        ]
                    ],
                    [
                        [
                            -0.12165759187061449,
                            -0.30402072334534025,
                            -0.4260271048195553
                        ],
                        [
                            0.22415863054649612,
                            0.5338765521942007,
                            0.4986572455364081
                        ],
                        [
                            0.4052224539116082,
                            0.4346647882893717,
                            0.5691458258086668
                        ]
                    ],
                    [
                        [
                            -0.930816848321398,
                            -0.6865149015098768,
                            -0.008204449110038654
                        ],
                        [
                            -0.8380423018419603,
                            -0.72094686302141,
                            -0.7154060802174188
                        ],
                        [
                            0.19269611253126437,
                            0.5222257670109659,
                            -0.25291902496447033
                        ]
                    ]
                ],
                [
                    [
                        [
                            -0.1312971914118544,
                            -0.4790134801113565,
                            -0.15106312867984134
                        ],
                        [
                            0.45360423297841385,
                            -0.060131105899251386,
                            -0.054135817235949305
                        ],
                        [
                            -0.0903152417410717,
                            -0.06941159586325292,
                            -0.4663757650920768
                        ]
                    ],
                    [
                        [
                            0.3340209089068192,
                            0.188513198740892,
                            -0.5682795457771076
                        ],
                        [
                            0.08960078344571025,
                            0.4439636760762454,
                            -1.4499631396714616
                        ],
                        [
                            -0.7395847275856898,
                            -0.6256726279598442,
                            -2.1407688862205876
                        ]
                    ],
                    [
                        [
                            0.11593542497818854,
                            -0.09814939537404804,
                            -0.2545038509718006
                        ],
                        [
                            0.10284919954586831,
                            0.07034120693866291,
                            -0.2629920409624305
                        ],
                        [
                            0.06329125375015149,
                            -0.022431677717070712,
                            0.1214492508753243
                        ]
                    ],
                    [
                        [
                            -0.2772523466281584,
                            0.21192528601845317,
                            0.021329504783074188
                        ],
                        [
                            -0.21109447988592256,
                            0.33791351686081345,
                            0.5268648258681902
                        ],
                        [
                            -0.533824110028295,
                            0.767208709489432,
                            -0.030567117108620135
                        ]
                    ],
                    [
                        [
                            0.22248778716543494,
                            -0.31468717685544934,
                            0.1813708714417317
                        ],
                        [
                            -0.3222615310470945,
                            -0.04362157953247132,
                            -0.09605237625272738
                        ],
                        [
                            -0.7124466315860983,
                            0.016662028555007008,
                            0.04872838739986701
                        ]
                    ],
                    [
                        [
                            0.11223270538479461,
                            0.015248003101322113,
                            -0.45894981455683237
                        ],
                        [
                            0.5389926890143935,
                            -0.08473194144631087,
                            0.033545642786309504
                        ],
                        [
                            -0.02767380227115085,
                            -0.005013638663775676,
                            -0.2457131166435832
                        ]
                    ],
                    [
                        [
                            0.029031755561500377,
                            -1.3176871294032375,
                            -0.31513805518809845
                        ],
                        [
                            -0.5789896895098673,
                            -0.8825924534309231,
                            0.012436784752457396
                        ],
                        [
                            -0.438801014688312,
                            0.15368413782775764,
                            0.3636549010962057
                        ]
                    ],
                    [
                        [
                            0.15423837705034682,
                            -0.44092036184197747,
                            -0.8283652533609934
                        ],
                        [
                            -0.13304824510620802,
                            0.31671562489824806,
                            -0.27744304969365025
                        ],
                        [
                            0.760050159687091,
                            0.7987628595318675,
                            -0.5160854751492397
                        ]
                    ]
                ],
                [
                    [
                        [
                            -0.2167750887750292,
                            -0.4494456714202356,
                            -0.3620541971859819
                        ],
                        [
                            0.23272768902351695,
                            0.3077384068681677,
                            0.4411022505029032
                        ],
                        [
                            0.78370373932013,
                            0.4030654678359102,
                            -0.13745466898353492
                        ]
                    ],
                    [
                        [
                            -0.2083576383255341,
                            -0.11029316727237772,
                            0.5796570310611421
                        ],
                        [
                            -0.579020436722811,
                            0.1951469907250253,
                            -0.14636997849811265
                        ],
                        [
                            -1.094401869539205,
                            -0.0983422883713877,
                            0.47168255589415176
                        ]
                    ],
                    [
                        [
                            -0.2062674930210816,
                            0.14833579739198816,
                            -0.11480500394740366
                        ],
                        [
                            -0.3480596737902833,
                            0.11433644446415248,
                            0.06924101728502945
                        ],
                        [
                            -0.4029091949579424,
                            -0.2012261083982441,
                            0.0872986085514255
                        ]
                    ],
                    [
                        [
                            0.3072276753759195,
                            -0.02400662213204372,
                            0.03608168161757013
                        ],
                        [
                            -0.3349437043171236,
                            0.764028686868127,
                            0.6608316489572668
                        ],
                        [
                            -0.8402271627152661,
                            -0.11813466338169602,
                            -0.7365131736531413
                        ]
                    ],
                    [
                        [
                            0.33717395277500634,
                            0.07942802289767081,
                            -0.024438755592727585
                        ],
                        [
                            -0.5972259107181944,
                            0.4667437103774099,
                            -0.05397736402380635
                        ],
                        [
                            -0.38291312659957477,
                            -0.22230914067384977,
                            -0.522234122704259
                        ]
                    ],
                    [
                        [
                            0.298883785516622,
                            -0.015248940262561723,
                            -0.4617355239682008
                        ],
                        [
                            0.34326717164956627,
                            0.08218451754697859,
                            0.18716645633245127
                        ],
                        [
                            -0.11869754251769249,
                            0.3519278205621119,
                            0.6788025926519379
                        ]
                    ],
                    [
                        [
                            0.48769467659384336,
                            0.11975571087370974,
                            -0.44381195995812106
                        ],
                        [
                            0.4260016197615252,
                            0.1457987346115656,
                            -0.31270541153141096
                        ],
                        [
                            -0.41497346963824383,
                            -0.4963153434891473,
                            -0.7926802829143831
                        ]
                    ],
                    [
                        [
                            0.1970459333895503,
                            0.1669023135750556,
                            0.026607617137247658
                        ],
                        [
                            0.05627862812542083,
                            0.23528302160334325,
                            0.09808048694883079
                        ],
                        [
                            -0.04104897322434877,
                            -0.7602154044810217,
                            -0.7567908401339395
                        ]
                    ]
                ],
                [
                    [
                        [
                            -0.3943070890293238,
                            0.05200660411719529,
                            -0.033333505008633545
                        ],
                        [
                            0.742923727083223,
                            -0.14167382369087303,
                            -0.446043652852053
                        ],
                        [
                            0.06262376938143627,
                            -0.9681162111947061,
                            0.03449939266901571
                        ]
                    ],
                    [
                        [
                            -0.8359589292664444,
                            -0.4397633298463366,
                            0.02530139338449439
                        ],
                        [
                            0.02683492148260789,
                            0.046929227826058906,
                            1.0478066072019543
                        ],
                        [
                            0.062298879764594264,
                            -0.10557716156280643,
                            0.41503378922968326
                        ]
                    ],
                    [
                        [
                            -0.14595394645878265,
                            0.12892814102646272,
                            0.4903208988990766
                        ],
                        [
                            0.8053603702084848,
                            0.25176817893815523,
                            0.027393576817634407
                        ],
                        [
                            0.3888107440042298,
                            0.3123114216103898,
                            0.10810059861329693
                        ]
                    ],
                    [
                        [
                            0.8984658134621539,
                            0.33611440199790243,
                            -0.6369070567156462
                        ],
                        [
                            -0.2761867616187832,
                            -0.5462081524352024,
                            -0.6348157595614365
                        ],
                        [
                            -0.94411424728911,
                            -0.2170098194435108,
                            0.29653931812093215
                        ]
                    ],
                    [
                        [
                            0.3894238804916444,
                            -0.14011312014930916,
                            -0.8009755021231835
                        ],
                        [
                            0.10326116022939598,
                            -0.8238872903171689,
                            -0.017386455068104743
                        ],
                        [
                            -0.794821659038809,
                            -0.525487361647933,
                            0.3058298942799329
                        ]
                    ],
                    [
                        [
                            -0.1967387160663893,
                            0.24838429995704106,
                            -0.2876924281519153
                        ],
                        [
                            0.3145852113125481,
                            0.2901539364125617,
                            -0.3311441990724279
                        ],
                        [
                            -0.016697236123450046,
                            -0.3689330440808239,
                            -0.14437065447136285
                        ]
                    ],
                    [
                        [
                            0.5339030252373721,
                            0.2081396840722786,
                            -0.5220255466942391
                        ],
                        [
                            0.4985241953218355,
                            -0.44082017531829654,
                            -0.9522612700534253
                        ],
                        [
                            -0.6843270062720285,
                            -0.8807870391478977,
                            -0.22368317330217835
                        ]
                    ],
                    [
                        [
                            0.7802067729930114,
                            1.0626541510829501,
                            -0.114022848512278
                        ],
                        [
                            0.1360695909856213,
                            -0.577596839994493,
                            -0.4913731828967385
                        ],
                        [
                            -0.5915208038572671,
                            0.08463013621260293,
                            0.13091172792185649
                        ]
                    ]
                ],
                [
                    [
                        [
                            -0.04362452456710178,
                            0.18189996188063348,
                            0.14695952213633642
                        ],
                        [
                            0.22600738692776756,
                            -0.1175455368063785,
                            0.3373808379679579
                        ],
                        [
                            -0.2819216134002944,
                            0.01896091674029319,
                            -0.036697091257630696
                        ]
                    ],
                    [
                        [
                            0.08276368229863287,
                            -0.12143697480021028,
                            -0.6316061609359349
                        ],
                        [
                            0.6760299146032889,
                            -0.0724604066348098,
                            -0.3492476294982406
                        ],
                        [
                            0.24058673678271172,
                            0.1206560656328538,
                            0.47252666935741755
                        ]
                    ],
                    [
                        [
                            0.04831467407266898,
                            0.03909535484299102,
                            -0.1277568291831021
                        ],
                        [
                            0.22010781968185059,
                            -0.2922876395595253,
                            -0.5459421908951322
                        ],
                        [
                            0.13526848357229296,
                            0.17982173697169002,
                            -0.36338914603886663
                        ]
                    ],
                    [
                        [
                            -0.8282416254367527,
                            -0.8357591843488634,
                            -0.25297118080221487
                        ],
                        [
                            -0.17548566493486673,
                            0.0797146181443974,
                            -0.5843206384487905
                        ],
                        [
                            0.5194032717985377,
                            -0.12037297268354193,
                            0.45365496716067666
                        ]
                    ],
                    [
                        [
                            -0.6513550805791464,
                            -0.7497879846345435,
                            -0.5187763026021803
                        ],
                        [
                            -0.14917881806222208,
                            -0.2025993729367193,
                            0.5174735798447496
                        ],
                        [
                            0.1480120039717683,
                            0.3044914135799761,
                            0.24776910032394156
                        ]
                    ],
                    [
                        [
                            -0.1674888630262513,
                            -0.17041671336436337,
                            -0.12758987846228537
                        ],
                        [
                            -0.3945959367206145,
                            -0.16989685475953914,
                            0.08223971807015068
                        ],
                        [
                            -0.8662094069557851,
                            -0.2777089287921814,
                            0.404281811082002
                        ]
                    ],
                    [
                        [
                            -0.3185724200319194,
                            -0.5058898563023586,
                            -0.5492153977434117
                        ],
                        [
                            -1.0370649991282146,
                            -0.22325795021352984,
                            0.5963210363925134
                        ],
                        [
                            0.12496531602973066,
                            0.19891843985673804,
                            0.016101301503664612
                        ]
                    ],
                    [
                        [
                            -0.3682921669931832,
                            -0.5950083415024369,
                            0.15231612328769095
                        ],
                        [
                            -0.13078098700731583,
                            -0.43464497977940625,
                            -0.45524314605857014
                        ],
                        [
                            0.30330538808627655,
                            0.20490341584508914,
                            -0.35667629281969726
                        ]
                    ]
                ],
                [
                    [
                        [
                            -0.211076674661417,
                            0.2793744874516998,
                            -0.7811812558899919
                        ],
                        [
                            0.31400269112166557,
                            -0.19437161417952778,
                            -0.5187797268742182
                        ],
                        [
                            -0.46448009966180176,
                            -0.4746131607497368,
                            -0.9408106608920359
                        ]
                    ],
                    [
                        [
                            -0.4342787611400382,
                            -0.4223780665781766,
                            -0.11262058592382967
                        ],
                        [
                            0.0009131789293346964,
                            0.009251882534031966,
                            -0.14392886629037466
                        ],
                        [
                            -0.2849856972275618,
                            0.1889815545365914,
                            -0.5630528966463898
                        ]
                    ],
                    [
                        [
                            -0.1862730335135496,
                            0.04744403034032206,
                            -0.08530769834268238
                        ],
                        [
                            -0.17770699682728278,
                            0.03917147805496836,
                            0.04210293362126405
                        ],
                        [
                            0.515300825701126,
                            0.006932107909565133,
                            -0.29287272098035394
                        ]
                    ],
                    [
                        [
                            -0.3941516250046997,
                            -0.4460880784638543,
                            0.12002058029084382
                        ],
                        [
                            -0.48560520262117207,
                            -0.12975279582490395,
                            0.7378498710938698
                        ],
                        [
                            -0.7043848656051164,
                            0.5200654052205896,
                            0.09943254869318192
                        ]
                    ],
                    [
                        [
                            0.08300989112265533,
                            -0.05436535763881514,
                            0.019324104823591752
                        ],
                        [
                            -0.0417565457640189,
                            -0.42670019304159534,
                            -0.3889619307581104
                        ],
                        [
                            -0.671790060099592,
                            -0.23259296649226144,
                            0.28053616198813974
                        ]
                    ],
                    [
                        [
                            0.137253493612567,
                            -0.032265878915714835,
                            -0.06535830814808061
                        ],
                        [
                            0.0853328475521353,
                            -0.10721454922663948,
                            -0.13686570869494735
                        ],
                        [
                            -0.077644185593927,
                            -0.027724822435401312,
                            -0.7192855028169995
                        ]
                    ],
                    [
                        [
                            0.0893520567086732,
                            0.007211325847718006,
                            0.06297208791805706
                        ],
                        [
                            -0.14042941423539634,
                            -0.2138499071459657,
                            -0.47874935291630744
                        ],
                        [
                            -0.7257536046617831,
                            -0.7322224227024939,
                            0.17030183266432797
                        ]
                    ],
                    [
                        [
                            -0.6629961963222031,
                            0.029019563079829513,
                            0.08237893635764114
                        ],
                        [
                            -0.4553868191749384,
                            0.2933436827264877,
                            0.4025742837103208
                        ],
                        [
                            -0.018427205284269534,
                            0.26144035594618653,
                            0.4382354901009457
                        ]
                    ]
                ],
                [
                    [
                        [
                            -0.06544230456204826,
                            -0.24593654249817598,
                            -0.3608840382092291
                        ],
                        [
                            -0.28048232830783953,
                            -0.0073052037343627075,
                            -0.13864498173366518
                        ],
                        [
                            0.1441944378193431,
                            0.3704800809159809,
                            -0.15593991474295854
                        ]
                    ],
                    [
                        [
                            -0.08054814416504848,
                            0.23138431440421312,
                            0.1284412069573243
                        ],
                        [
                            0.39035396231801295,
                            0.13770322504859733,
                            0.15649827243664227
                        ],
                        [
                            0.3442299698423058,
                            -0.17838138077428625,
                            -0.41104201401019935
                        ]
                    ],
                    [
                        [
                            0.07211589286450466,
                            0.037596362211961096,
                            -0.01525315274181444
                        ],
                        [
                            -0.050139831903408746,
                            -0.24426626107584495,
                            -0.26670758068342043
                        ],
                        [
                            -0.31220458008066204,
                            0.22834243543832142,
                            -0.04129842129610546
                        ]
                    ],
                    [
                        [
                            -0.2502116949907599,
                            -0.6501097851752379,
                            -1.1135227746495697
                        ],
                        [
                            0.1343714046509471,
                            0.3378204414040634,
                            0.23720032940249952
                        ],
                        [
                            -0.2341940126018134,
                            -0.35839930665938957,
                            0.4543813507093382
                        ]
                    ],
                    [
                        [
                            -0.060155232603854435,
                            -0.12143571799560013,
                            -0.11670664177732057
                        ],
                        [
                            0.22293639313112318,
                            0.6855773585101196,
                            0.12544561259481107
                        ],
                        [
                            0.15079072123276926,
                            -0.37696960668803237,
                            -0.41995233417987715
                        ]
                    ],
                    [
                        [
                            -0.35192454026231024,
                            -0.1597371082600475,
                            -0.20622628695149192
                        ],
                        [
                            -0.19421193939118725,
                            0.5112898556995868,
                            0.10897426277047086
                        ],
                        [
                            0.6668146719005331,
                            0.03761969480363727,
                            0.14329871952389783
                        ]
                    ],
                    [
                        [
                            -0.028731945837828878,
                            -0.09177232906046279,
                            0.08989592319892056
                        ],
                        [
                            -0.12536428312343342,
                            0.011777202812264098,
                            0.5911417518604136
                        ],
                        [
                            -0.019918593053559065,
                            -0.1287413891878832,
                            -0.4938540599477631
                        ]
                    ],
                    [
                        [
                            -0.6848642460586728,
                            -0.9672409876675975,
                            -1.2507650062159668
                        ],
                        [
                            -0.14666126747917785,
                            -0.5236983371126936,
                            -0.3748799421276012
                        ],
                        [
                            -0.7220404902266283,
                            -0.7153757470497707,
                            -0.05739938597416873
                        ]
                    ]
                ],
                [
                    [
                        [
                            -0.097653240206615,
                            0.5736759794378172,
                            -0.10151883232285351
                        ],
                        [
                            -0.07602088888082081,
                            0.042513889391018043,
                            -0.6629207126561729
                        ],
                        [
                            -0.3410999717670889,
                            -0.34650239752990425,
                            -0.17982717902733217
                        ]
                    ],
                    [
                        [
                            0.24122687316578859,
                            -0.06576523277928766,
                            -0.18811874986044336
                        ],
                        [
                            0.17470663702610228,
                            0.8020351337658842,
                            0.06958428627299226
                        ],
                        [
                            0.07776210943686736,
                            0.39383893806511117,
                            0.376241096969093
                        ]
                    ],
                    [
                        [
                            -0.1277737994914745,
                            -0.42071536688398004,
                            -0.2232299765203379
                        ],
                        [
                            -0.018830633811040103,
                            0.2091197972840753,
                            -0.021484396106056514
                        ],
                        [
                            -0.193558785919351,
                            0.035832826865326954,
                            0.44068712698072265
                        ]
                    ],
                    [
                        [
                            -0.18698693488292756,
                            -0.09415560704004165,
                            -0.29984824290062756
                        ],
                        [
                            -0.47220753097341794,
                            0.37679253093404325,
                            0.5260590569761198
                        ],
                        [
                            0.922554941505645,
                            0.392277025503218,
                            -0.7609944036057206
                        ]
                    ],
                    [
                        [
                            -0.0888950693626587,
                            0.16190216337849916,
                            -0.07875170650499773
                        ],
                        [
                            0.03464374313480401,
                            0.22630769513302218,
                            -0.23260576540229008
                        ],
                        [
                            0.04182621012228437,
                            -0.03694682177365491,
                            -0.2637757549211647
                        ]
                    ],
                    [
                        [
                            -0.07252964729573136,
                            0.12121276586037291,
                            -0.0157841332649441
                        ],
                        [
                            -0.9309812279350389,
                            -0.08093190693915649,
                            -0.19462286237150447
                        ],
                        [
                            0.13114465283426646,
                            0.37806228138895975,
                            0.49668616184038555
                        ]
                    ],
                    [
                        [
                            -0.061181023035431895,
                            -0.11328427250429447,
                            0.0706483207801302
                        ],
                        [
                            0.035004472390110876,
                            -0.925719046834961,
                            -1.008640903130694
                        ],
                        [
                            -0.2122501288349011,
                            -0.851882268904485,
                            -0.37277979630984936
                        ]
                    ],
                    [
                        [
                            -0.2562588979956753,
                            -0.2856090142644952,
                            0.06893133169067525
                        ],
                        [
                            -0.6411061971144143,
                            0.23423032056304177,
                            0.07450276191524803
                        ],
                        [
                            0.00939857490522285,
                            -0.16644103361061563,
                            -0.29177901370437603
                        ]
                    ]
                ]
            ],
            "biases": [
                -0.010022028726848008,
                0.0010415379836679912,
                -0.016137321097742685,
                -0.005099124043126502,
                -0.016829388199668026,
                -0.0032714889087591243,
                -0.00774174152180687,
                -0.008902263005999458
            ]
        }
    ],
    "fully_connected_layers": [],
    "trained_epochs": 6,
    "output_layer": {
        "weights": [
            [
                -0.09174135134716689,
                0.22182793237058024,
                -0.5247913058009727,
                -0.028013367915511816,
                0.20219699721119105,
                -0.2597052356332267,
                -0.05607629092663164,
                0.3013761573746051,
                -0.06920705251259265,
                -0.5315437972689826
            ],
            [
                -0.2682224552053194,
                0.34949753253897786,
                -0.3202170058915456,
                0.19587964426497942,
                1.0476791819341313,
                -0.12953722392186667,
                -0.2120109065611361,
                0.638853506348406,
                -0.38962727152397,
                -0.7905672797116555
            ],
            [
                -0.19804985273397024,
                -0.06669816700587743,
                0.2874641346169497,
                0.06680744294442513,
                0.2929827771428552,
                -0.8048384944276527,
                -0.6088760773796502,
                -0.12704982489440017,
                -0.042092208820998525,
                0.29227505141223126
            ],
            [
                0.11701131419660185,
                -0.21175361878731055,
                0.35671962530719026,
                -0.1359458498087946,
                -0.2347818217686133,
                -0.889509008116828,
                -0.9021113532213396,
                0.24227300223007894,
                0.22888787474300265,
                0.5756395983386361
            ],
            [
                0.3599034616104074,
                -0.27512097559191806,
                -0.02589002809369855,
                0.0926511589520676,
                -0.14967142636551517,
                -0.7432222472305815,
                -0.12433402974696964,
                0.03002027979363984,
                0.20194418938700756,
                0.2735162111362535
            ],
            [
                -0.10850860777146315,
                -0.11713600328337226,
                -0.11940516522273943,
                0.11785169095200539,
                0.1251670805184523,
                -0.042104384508470684,
                -0.2340283874899735,
                0.5610554382244398,
                0.009997385316698549,
                -0.0634053396331189
            ],
            [
                0.16896210856597435,
                -0.22805584387195812,
                -0.14058183818862185,
                -0.6516545160905088,
                0.2764317169549653,
                -0.19624699828305253,
                -0.32857180642044703,
                0.7664675722286697,
                0.3317527102250158,
                -0.5068371186827882
            ],
            [
                0.16581139930792568,
                0.3586491764200659,
                0.44347239737931826,
                -0.5182356000727509,
                -0.8949432193671534,
                0.2483936099385989,
                -0.6523185944377509,
                -0.26258101321237715,
                0.34068329401465597,
                0.3338565283237747
            ],
            [
                0.40660312008986393,
                0.3495015409082758,
                0.11635494976790337,
                -0.15462122526092992,
                -0.2910051317130622,
                0.36442669089504676,
                -0.09335305074608313,
                0.006489835455194492,
                -0.7616096704991925,
                0.16925095195698403
            ],
            [
                0.4493498925338238,
                -0.4732758918766928,
                -0.07429890340760692,
                -0.04259761291117026,
                -0.11943734977312638,
                0.06614250615898619,
                0.6114523534253896,
                0.027456479413151623,
                0.10339002144701939,
                0.1594479559387156
            ],
            [
                -0.2751365474326059,
                -0.11560705520916567,
                0.10705167630763242,
                0.6706743640272758,
                -0.3943493491358901,
                0.3843461908586983,
                -0.3109512453736434,
                -0.11595052143262559,
                -0.12354359419389438,
                0.041687433753626775
            ],
            [
                -0.22518206453997922,
                -0.18797580349807488,
                -0.462620252407025,
                -0.047800932723287386,
                -0.18444213524103692,
                -0.029913923724666718,
                -0.10425818809861144,
                0.30306167886042973,
                0.4758535324567314,
                0.21215198281382136
            ],
            [
                -0.11440477112739275,
                0.2027198289891354,
                0.36890136808627433,
                -0.3425078566083702,
                0.013450363875209813,
                0.7313850878592182,
                -0.050120385870287144,
                -0.6598248772988342,
                -0.14560408909637196,
                -0.5438030540604153
            ],
            [
                -0.4053301608549351,
                0.12657358566683563,
                -0.7516566283496049,
                0.44355432651113075,
                -0.749918782072271,
                0.6037795866604737,
                0.7925038496107301,
                -0.5142116997787928,
                0.061319789781972014,
                -0.03502266825669195
            ],
            [
                -0.18932927544606087,
                -0.8351520690474376,
                -0.5614222113210555,
                0.43430051752046833,
                0.08733804681250056,
                0.6741167271008047,
                0.3060843669450915,
                -0.25695900472468763,
                0.2311162190186806,
                -0.48125441545102565
            ],
            [
                -0.4350042086377631,
                -0.0491420621036149,
                -0.01959993911938744,
                0.5767349673178658,
                -0.00343778122797208,
                0.4430417575190608,
                -0.17525413783775107,
                0.11026205872790895,
                -0.19005969616519797,
                0.05983232139759394
            ],
            [
                0.27576898072540035,
                -0.048597777398336164,
                -0.027120647064640492,
                0.16874532052571503,
                -0.02420163778875576,
                0.7277568872772903,
                0.07085784625821079,
                0.04839760462978188,
                -0.9364166519970479,
                0.4587335083237644
            ],
            [
                0.40171859016894956,
                -0.37499965293642634,
                -0.32095152270976157,
                0.2628482835448619,
                0.20246693692323048,
                0.15658010412596074,
                0.15412317204065654,
                -0.15205848706016012,
                -0.2514155853271705,
                0.007744827249653543
            ],
            [
                -0.16054486153881822,
                -0.13946798906730312,
                0.018457987464479155,
                0.8202116244807115,
                -0.7951346196483617,
                0.5454072751412381,
                0.47212654926450054,
                -0.5388622900913346,
                0.7592629918213062,
                -1.0777851401312561
            ],
            [
                -0.9641021323440881,
                0.23963999163205862,
                0.17999111559928088,
                0.1918071895494854,
                0.33867947741216964,
                -0.22178145886412828,
                -0.035832862019628535,
                -0.12062446230136552,
                0.616606383552651,
                -0.2060835858464723
            ],
            [
                -0.12120600535090548,
                0.16964448899452197,
                -0.3264102680125223,
                0.5344850048678637,
                -0.17837639060171373,
                0.07941372349826795,
                0.15289046632023484,
                0.11421919269672566,
                -0.26938726246487554,
                -0.14357818723777144
            ],
            [
                0.290536035921447,
                0.07456914856738404,
                0.19546523441101407,
                0.1809390020219864,
                -0.0861476404449134,
                0.2024388743125598,
                -0.44257123965475653,
                -0.4615209073543371,
                0.11884845632923256,
                0.11602009100410847
            ],
            [
                0.11158712023149756,
                0.13454005969339533,
                -0.17822154672304777,
                -0.09489855950137822,
                -0.6188292328990875,
                0.23300707435907334,
                0.08237527793456882,
                -0.32578810777135925,
                0.11276139931828402,
                0.07486243510680175
            ],
            [
                -0.3276505806459371,
                0.49163317875411244,
                0.6128361896354285,
                0.1842547995927141,
                -0.20560671564062183,
                0.2672217012596136,
                -0.22093012090744296,
                0.027873032370617765,
                0.3742529685549604,
                -0.9010430263069068
            ],
            [
                -0.3915845195552144,
                0.512645161474225,
                0.7407350702664265,
                -0.5932336830599709,
                0.7103401971865093,
                -0.6460904124522305,
                -0.1270363149171892,
                -0.2866628011208205,
                -0.3887604565568235,
                0.4045169996258107
            ],
            [
                -0.04676735551961438,
                -0.2740077818919523,
                -0.19302375529122026,
                -0.014680065536860989,
                -0.07461710793780828,
                0.18349506654428546,
                0.25436884778942415,
                -0.2545081174313,
                0.01179852801638464,
                -0.3545630039948849
            ],
            [
                -0.13697200149020894,
                0.026406552037525635,
                -0.08034217536908653,
                -0.26758046549688586,
                0.1198025548734313,
                0.23986191111694768,
                0.397329199873229,
                -0.07965864129117417,
                0.04888346025778622,
                -0.4936488401300368
            ],
            [
                -0.24579061741122754,
                0.44864553642516347,
                -0.07597092719139083,
                0.2457021190760548,
                0.7776515913182496,
                0.17279064242795786,
                0.09335999310687512,
                -0.31314328374502964,
                0.09459005853635327,
                -0.5543088153129547
            ],
            [
                -0.1851252782242637,
                0.2299675172446276,
                0.033864314737708234,
                -0.07253022858686958,
                0.6661778355804583,
                0.4281262694496757,
                -0.03280406222594714,
                -0.2897763072896229,
                0.11321891794334497,
                -0.5082808405272965
            ],
            [
                -0.2865068110439567,
                0.40875545292591237,
                0.12823281256845626,
                0.09908063836427573,
                0.6783717088977883,
                -0.41016771588353806,
                0.12866781953043685,
                -0.2992305610124626,
                0.34655657225631753,
                -0.22200886914249662
            ],
            [
                0.22509023234531916,
                -0.03454926518339973,
                -0.10086488651585211,
                -0.2629782356897058,
                -0.252298625224122,
                0.11247923631232955,
                0.14295866203607793,
                -0.08810122403829625,
                0.13444760672698758,
                0.16320352903213714
            ],
            [
                0.03803832927679923,
                -0.11730844583000374,
                0.09393420887947254,
                -0.09355075867997717,
                -0.12346045922230212,
                0.3030661426736357,
                0.05344591126563033,
                0.09987267288620831,
                0.027447238370838747,
                -0.3366806203423811
            ],
            [
                0.11103240648198037,
                0.39079953051657085,
                -0.22616196683494716,
                0.10945080898426372,
                -0.10153455072511233,
                0.20377423454569116,
                -0.11992071475227727,
                0.3849994562629005,
                -0.27475236386687724,
                -0.42362721062325515
            ],
            [
                -0.0315766196714591,
                0.19276366996875324,
                -0.01707590417552369,
                -0.29592855019025194,
                0.36169168052542433,
                -0.25103357480211014,
                -0.6685130282527016,
                0.42913445358601926,
                -0.42564849681645883,
                -0.3265928396796753
            ],
            [
                0.43127438585823535,
                -0.11966694356265964,
                0.07061267159911125,
                -0.39996118496737865,
                0.28168502403921547,
                0.13538270202602828,
                -0.3494644199077437,
                0.034074830039644746,
                0.14168360257207527,
                -0.04335316654502292
            ],
            [
                0.2986698087019269,
                -0.014990103909872945,
                -0.09074613367564076,
                -0.20526267426991107,
                0.16990911203316003,
                -0.12081118278566774,
                0.534336490874417,
                0.20023027232339322,
                -0.5669212512246015,
                0.1050951051748732
            ],
            [
                0.23270090287460524,
                -0.03280740597665366,
                -0.24026384706914067,
                0.31251970666745704,
                -0.004247612996919536,
                0.22807226212346385,
                0.19705400453022826,
                0.3044230427812356,
                -0.500690377635003,
                -0.17292567142445395
            ],
            [
                -0.27674020225227,
                0.6310356315438839,
                -0.40740008262581356,
                0.7007417028058003,
                -0.14747862386054783,
                0.020409627857926015,
                -0.0284207274393509,
                -0.19354256517092353,
                -0.4857808428745823,
                0.3705275565634284
            ],
            [
                0.3921085893657981,
                -0.11576352570903635,
                0.16292601506270282,
                -0.09890042573625174,
                0.10714626537547796,
                -0.18998406690871866,
                -0.3559561912014008,
                -0.11767878891004765,
                -0.5906767336292577,
                0.4467220509904711
            ],
            [
                0.1477963988769091,
                -0.16187460798765965,
                0.004917418529502927,
                -0.3950863294236405,
                0.16839906084534245,
                -0.2585309077046532,
                0.04773485631998755,
                0.30897815586104616,
                -0.2750430922262832,
                0.41990915336683116
            ],
            [
                0.2348095998389227,
                -0.2195360030260992,
                0.38481273442677255,
                0.22953818729218178,
                -0.15374234789674562,
                -0.13920611725040508,
                0.29556859022368603,
                0.001213850316933149,
                0.055954765085431006,
                -0.2736514456429115
            ],
            [
                0.32381914061935757,
                0.02346581898798639,
                0.36896844340515955,
                -0.368555501527129,
                -0.4795081288297081,
                -0.45804144164506894,
                0.5003235558188502,
                -0.1078854752231921,
                0.22354856024638478,
                -0.8346857685177351
            ],
            [
                -0.23559351712315155,
                0.2668032419747063,
                -0.08545955491709076,
                -0.4144961807012851,
                0.3362904754052671,
                -0.4241153271815175,
                -0.5159429098254791,
                0.3393967924158727,
                0.34905382909424426,
                0.5139458330499508
            ],
            [
                -0.2908097657320565,
                -0.09815374855077202,
                -0.45162209561379085,
                -0.380050746700965,
                0.42875923386248604,
                -0.12882032418819514,
                -0.30511258186962203,
                -0.051247756041648405,
                -0.16738939275370898,
                0.5759903824633512
            ],
            [
                0.11637463308208759,
                -0.11570328119968122,
                -0.20942828013287715,
                -0.2469623971889529,
                0.35854914045939973,
                -0.21367210847843554,
                -0.41321628310414293,
                0.08720922198114131,
                -0.055438326324867435,
                0.14960817359617792
            ],
            [
                0.24833124141936788,
                0.4743766857472972,
                0.39628563306539083,
                -0.08088391984905154,
                -0.13594695227374645,
                -0.3742461544050111,
                -0.38884477338720613,
                0.10094844662986029,
                -0.014453861797659801,
                -0.2390659618998828
            ],
            [
                -0.40853951075379524,
                0.4302836091739136,
                -0.056888492278125,
                -0.0473469808234284,
                0.27168900000120777,
                -0.04282731462964995,
                -0.1525445310913718,
                0.021428086204182847,
                -0.6619830256809319,
                -0.18643600468632104
            ],
            [
                -0.6366600212844992,
                0.43807237244382274,
                -0.4048205455134807,
                -0.33257441837925183,
                0.3445343243866146,
                -0.09610232239588701,
                0.17647636152154372,
                0.6967313735128486,
                -0.33154985201134607,
                0.3238011993693996
            ],
            [
                -0.8298556845615946,
                0.11723664162776543,
                -0.7622863138250727,
                -0.18797800304815085,
                0.5133554575621481,
                -0.09797057634456945,
                -0.17220173432244587,
                0.9567385957523579,
                -0.034274491369084406,
                0.31755971855548487
            ],
            [
                -0.45293923850708534,
                -0.2372782297556432,
                -0.16299483084350225,
                0.07420049386931091,
                0.5408262595184583,
                -0.07735840284231225,
                0.15489620313161476,
                -0.14543923643645223,
                -0.22359659542794721,
                0.3412250005020415
            ],
            [
                -0.28287378590378337,
                0.1043993600173918,
                0.5416376796381397,
                0.4227385067994673,
                -0.28259551625670554,
                -0.4449092601728313,
                -0.08007586257114112,
                0.23216548946287643,
                0.004959610182526094,
                -0.31870087463148594
            ],
            [
                -0.5732663565089959,
                -0.18683747486485666,
                0.5573892074700203,
                0.6876577007056391,
                -0.40582905730459395,
                -0.5595845347497113,
                -0.5046831270037399,
                0.7929700512485357,
                -0.2609568284555103,
                -0.2078725892502097
            ],
            [
                -0.0750287852662592,
                0.05749565196728544,
                0.1693900038486132,
                0.2871453656702544,
                -0.6003431028655806,
                -0.013659985109879796,
                -0.47365063745339914,
                0.5495533232696126,
                -0.38219384330165673,
                -0.14715808102496797
            ],
            [
                0.034223171014629634,
                -0.15126385155629146,
                -0.24210160931503874,
                -0.05588161818881561,
                -0.7172050843931286,
                0.5400003203640468,
                0.44179821724009977,
                -0.14514006995972303,
                -0.23247321246401423,
                0.17803151381000748
            ],
            [
                -0.45067033094880354,
                -0.16337348428946524,
                -0.7033478615973694,
                -0.8501739997454555,
                -0.07538848507852403,
                0.9295118190801434,
                0.5825390147344445,
                -0.21272168053757035,
                0.34826656299578995,
                0.08815923678773727
            ],
            [
                -0.3265152646338711,
                -0.0131471632867921,
                0.4157659148213394,
                0.6136357934730331,
                -0.3437700654401968,
                -0.12564450864484103,
                -0.18704497448252347,
                0.6570871042784296,
                -0.2585299871646743,
                -0.46835249941986906
            ],
            [
                -0.06354142185937971,
                0.424183452995777,
                0.4168975690548587,
                0.6322156709591281,
                -0.3287744053600756,
                -0.1132924675338293,
                -0.8362362184381662,
                0.678624300050006,
                -0.24449372219530308,
                -0.06381863554998506
            ],
            [
                -0.147325432421276,
                -0.2495667039501259,
                0.6082902656382209,
                0.3619902487182094,
                -1.1009468383330256,
                -0.10522003153675523,
                -0.35341571970916363,
                0.5673892719187523,
                -0.6185173006159247,
                -0.22166837734621633
            ],
            [
                0.2110042509956307,
                -0.42887216872586,
                0.001154237008279641,
                -0.20892983699137413,
                -0.7192650938349224,
                0.9407670081485069,
                0.01626204098566081,
                0.5096777102355895,
                0.0011774753165795808,
                0.17092703786715677
            ],
            [
                -0.2196449718310088,
                -0.3810412915233574,
                -0.9151106102663296,
                -0.6306986507906349,
                -0.3628242396649192,
                1.19359700935493,
                0.8204782698146408,
                -0.13045157070817884,
                -0.0919924608892974,
                0.3798281765261948
            ],
            [
                -0.667547537646221,
                -0.14122560400867418,
                0.13575366920995546,
                -0.04006676771434365,
                0.21426561870177166,
                0.5028326302587766,
                -0.37926724760020214,
                0.18846284121913437,
                0.026660297607331303,
                -0.1461541650426908
            ],
            [
                -0.8593354745890494,
                0.11183859060920104,
                0.31648466373645506,
                0.21610949632645132,
                0.8280266106648307,
                0.4634863946726383,
                -0.9451151885535414,
                0.5096067498542025,
                -0.04998964251499031,
                0.4890187374684677
            ],
            [
                -0.6831225370338989,
                -0.4613292364515866,
                -0.6235762465848184,
                0.5513069227110268,
                0.5507586797054687,
                0.17238893336514008,
                -0.5087567388462986,
                -0.30045874206075357,
                0.04407367851285672,
                0.859741588822749
            ],
            [
                -0.2934071541146896,
                -0.48652877566626557,
                -0.4796894097130937,
                0.21196093881265657,
                0.1535136554668586,
                0.004560588980550063,
                -0.2939137601806343,
                0.5229027261766689,
                0.48776949763657124,
                0.03372688002955227
            ],
            [
                -0.0021256794579283403,
                0.31967625076209927,
                0.13181562291112406,
                -0.3249119123195928,
                0.1860737561067004,
                0.25460355999542555,
                -0.10742208819937618,
                0.029677188019774026,
                0.3340215597589055,
                -0.03823653201751496
            ],
            [
                0.04551182299858241,
                -0.010064790907769303,
                -0.12586155127037152,
                -0.1986606713222685,
                0.6121955615363215,
                0.16810370171558167,
                0.18147576473800284,
                -0.22129257332500124,
                -0.13013687143022587,
                -0.05082064384552941
            ],
            [
                -0.18791983388854774,
                -0.2854382694433613,
                -0.26560899010418626,
                0.32213446309523047,
                0.2241302289583781,
                0.2566755664959895,
                -0.38150912982662877,
                0.11184626272841322,
                -0.44243422240340086,
                0.7402109481921572
            ],
            [
                -0.2235466619436869,
                -0.29773640704178356,
                -0.09122945458114905,
                0.40143851408184045,
                0.3383667377060662,
                0.16862480789058185,
                -0.0726681739988589,
                -0.41284423509358725,
                0.16156855398219377,
                0.5157803830018189
            ],
            [
                0.10639136615732014,
                -0.059932047290945596,
                -0.20166283574200072,
                0.05240113074807421,
                0.09079070917134463,
                -0.39314283439793907,
                0.4047629872203521,
                -0.03424948984960656,
                0.23018840278053002,
                -0.30946858583174813
            ],
            [
                0.24839057906443507,
                -0.09861540970193562,
                1.2473874588494862,
                -0.662869614688901,
                0.2133500015819836,
                -0.6599006920106905,
                0.14465307861729465,
                1.004170465258852,
                -0.4047644037290638,
                -0.8511408898053069
            ],
            [
                0.3345006093038127,
                0.18020149368116248,
                0.2661908620604401,
                0.1204844938545751,
                -0.06550361962102899,
                -0.08877929216518189,
                -0.29586902195833964,
                -0.42775423823106506,
                0.10418084637154626,
                -0.1826477994763343
            ],
            [
                0.18077408627242103,
                0.07948909368860382,
                0.20104610633954254,
                0.18827883991536365,
                -0.2475221709103912,
                0.21065245046237058,
                0.18043210930529835,
                -0.917219239133167,
                0.108041272304633,
                0.24229711738170598
            ],
            [
                0.44466987106527855,
                0.036523762918916805,
                0.06710336068579995,
                -0.040998973575011616,
                -0.42660937898134,
                0.08102119141953297,
                0.4064289874779802,
                -0.5950968012840682,
                0.11668064064210722,
                -0.3496246693308702
            ],
            [
                0.40815885138730923,
                0.10564459427945444,
                0.3294183137977247,
                -0.22200373441163462,
                -0.13442496422404254,
                -0.17358825008182666,
                0.3308413813085914,
                -0.4143511482147452,
                0.1359395754209679,
                -0.42593371067988745
            ],
            [
                -0.04043977692960728,
                0.465770733163379,
                0.5388205056696042,
                -0.5818918363944354,
                0.5437319629944933,
                -0.5043539014509462,
                -0.0007572315147037088,
                0.023462239179591404,
                -0.06855201348003968,
                -0.2580425353154197
            ],
            [
                0.08575591215221644,
                -0.3223760789642854,
                -0.2656631397713546,
                -0.3669907508729057,
                -0.1196225465988157,
                0.06272964485686769,
                -0.22625291380343823,
                -0.049682609919172685,
                0.37886790332141645,
                0.27931016102412165
            ],
            [
                0.04239049309289564,
                -0.08087227297833609,
                0.04449871099077004,
                -0.2704370063931912,
                0.3611434025871828,
                -0.3893845595799809,
                0.13476384651457268,
                -0.2615984017628975,
                0.5960096943829672,
                0.22557925247491206
            ],
            [
                0.21691879162065805,
                0.4561846232829451,
                -0.3113495604299338,
                -0.8618092838451425,
                0.4379198079814656,
                -0.18848638749609786,
                0.8944977685141949,
                -0.6659482611462226,
                0.3728090014907822,
                0.1802380565533283
            ],
            [
                -0.03468760075269321,
                0.5630677467128156,
                -0.9422241523574281,
                -0.7701676729383157,
                0.8532378837898469,
                0.2157030997147461,
                0.5345301706436583,
                -0.7039079650164778,
                -0.026900106755620854,
                -0.1182304372570236
            ],
            [
                -0.44246813608324104,
                0.29060840514906966,
                -0.4944907723187496,
                -0.10113178015520462,
                0.8896908354844583,
                0.6549518783684898,
                0.3292074636162259,
                -0.0038508113532984556,
                -0.010579408204256846,
                -0.41959628481667993
            ],
            [
                0.1533003888267191,
                -0.1563403772479118,
                0.343410948706776,
                0.0651618712942645,
                -0.11779658088870419,
                -0.553981524764143,
                0.011606051611526098,
                -0.4395559568858086,
                0.24022529126273073,
                -0.027592400198564383
            ],
            [
                0.03171676292656641,
                -0.4063199888363495,
                0.19784486348413824,
                0.747844564789673,
                0.1494846318588339,
                -0.3382103600612005,
                0.0880669402091998,
                -0.3331897740384714,
                -0.3795977444172188,
                0.2536435423531695
            ],
            [
                0.006744675905919417,
                0.07610680836024007,
                0.22921516215247684,
                0.06233706099946305,
                -0.10955928940999138,
                -0.1695071333833181,
                0.634271861793341,
                0.12550639760434656,
                -0.39296191764415767,
                -0.07229073815135671
            ],
            [
                -0.425859354850244,
                0.0339417197332178,
                0.35225960236895903,
                -0.18663345782505295,
                0.6486717176684453,
                0.07303134820749464,
                0.44421760613729433,
                -0.2951936554063187,
                -0.023772795668834387,
                -0.12257072688241306
            ],
            [
                -0.776412393496645,
                -0.13039665927270647,
                -0.2706001677551067,
                0.47352276307194496,
                0.2998410308626877,
                0.1218893701717993,
                0.18023543328258754,
                0.11589551479147757,
                0.13710312608944616,
                -0.187368669082034
            ],
            [
                0.17907810825061626,
                -0.124435967472078,
                0.5613213957421287,
                0.27916959466561425,
                0.01100589797042331,
                -0.039120027232455515,
                -0.1743488874284617,
                0.03783942685722706,
                -0.23064263548579728,
                -0.43762309508541025
            ],
            [
                0.11620063041812692,
                0.10213613633367134,
                0.6399953308407158,
                0.747155206916177,
                -0.6458931733957215,
                -0.32046021851704753,
                0.007866210204731652,
                0.5866026975447067,
                -0.6749560251004225,
                -0.8804365449200521
            ],
            [
                0.5588693307522699,
                -0.13013757051346,
                0.38751259108964253,
                0.06833229001241681,
                -0.3341766326210801,
                0.18301225952556982,
                -0.2100690039154515,
                0.6562756298372463,
                -0.8316250224339892,
                -0.3082409263813864
            ],
            [
                0.21851837791783382,
                0.11193857809247305,
                0.4158500543999426,
                -0.42888498847836437,
                -0.4551893404095336,
                -0.17430601625975228,
                0.06871165000679821,
                -0.12644173414015644,
                0.1348577344298893,
                -0.04632951599649298
            ],
            [
                -0.05658077161643839,
                -0.2714755902886927,
                -0.014895340169382543,
                0.4202470832910817,
                -0.03376362571172743,
                -0.7990413685737423,
                -0.46457051843186914,
                -0.32428130565664887,
                0.5161748421280289,
                0.12408128566258482
            ],
            [
                -0.36909773222851955,
                0.24557853856508485,
                0.07256133232042869,
                -0.1592921196889721,
                -0.008399229347702177,
                0.5402982923976783,
                -0.4571599472109635,
                0.47511035343344826,
                0.5744137319567111,
                -0.0033435602413177928
            ],
            [
                -0.4017397856452558,
                0.22581099017613815,
                0.13437141999966723,
                0.2980182239746391,
                -0.10182348355739554,
                0.3870442876340518,
                -0.6337892824271524,
                0.685270455157242,
                -0.0441135730808548,
                -0.35220545793051156
            ],
            [
                0.2598702611446924,
                0.3858685340580768,
                -0.15213525432926478,
                0.004439225412072944,
                -0.5819392956197101,
                -0.048622416606605136,
                -0.24543303573244674,
                0.491615683793064,
                -0.09118126069064306,
                -0.4366424579966202
            ],
            [
                0.3337088949134253,
                0.18854580438402274,
                -0.26255020090658243,
                -0.21027825559495086,
                0.05833565417083653,
                0.042244531442778635,
                -0.10314551850871112,
                0.05030631760752305,
                -0.3047881910994619,
                0.3011833852473043
            ],
            [
                0.2583113228321057,
                -0.7842301932722455,
                -0.04349066488671476,
                0.20469189070698515,
                0.35353947364223015,
                -0.320946715138825,
                0.18894928873052608,
                0.48110123945324657,
                0.13912206980235903,
                -0.11301656724500267
            ],
            [
                -0.5846290815040885,
                0.08431052197586185,
                -0.1466863523853122,
                -0.19507589830229802,
                0.2878864096553387,
                0.0578598149899143,
                -0.30012167795602235,
                0.2754136145783658,
                -0.4839674451551458,
                0.39126065644637964
            ],
            [
                -0.7729323491795622,
                0.2036100709534046,
                0.0854501209863206,
                0.2916594274077286,
                0.051650676447133316,
                0.5531522842266968,
                -0.5075428053238605,
                0.38193288116766166,
                -1.3180751683582135,
                0.38369663836466916
            ],
            [
                -0.021466876456660074,
                -0.004625207803709965,
                0.00749070569394478,
                0.3784489635668016,
                -0.09624040327148277,
                0.09444948486015721,
                -0.23641551221158694,
                0.335562694394877,
                -0.7752719459002697,
                0.33898349098840774
            ],
            [
                0.38338572431330253,
                -0.241608637736694,
                -0.3776467856270557,
                0.28595635631065586,
                -0.13205405647921054,
                0.11724172431123293,
                0.19877194650241525,
                -0.09238193933670694,
                0.15603941399093882,
                -0.030385575118392513
            ],
            [
                0.45197805127011287,
                -0.16229105206808683,
                0.08895513568358994,
                0.22019284967221178,
                0.03135538659902835,
                0.021956774136146256,
                0.13690290558613227,
                0.05417843724890195,
                0.19842829104545853,
                -0.39495241929496266
            ],
            [
                0.06048867591266165,
                0.20473286391300977,
                -0.3332555387128077,
                -0.17595406989264753,
                0.1210716549581406,
                -0.23624991217782465,
                -0.04707824488512705,
                0.07388441200898281,
                -0.05398589332964076,
                -0.01893941620377498
            ],
            [
                -0.10857862789590216,
                -0.2024835619308083,
                -0.23385804938049473,
                0.03714255647690291,
                0.3248554084565973,
                0.05783745518548343,
                -0.6143722115933797,
                0.30886564103668906,
                0.5610827364246816,
                0.06186716972071176
            ],
            [
                0.14846253556721792,
                -0.007734844681535813,
                -0.055096465665077136,
                0.05780222920441738,
                -0.2710853302353817,
                0.03795719194471396,
                -0.6746582912511287,
                -0.027321821843966865,
                0.09915717934293632,
                0.4322253985969791
            ],
            [
                0.07226402753334353,
                -0.055534952461919446,
                -0.09616647200308735,
                0.008759419803605851,
                0.031832342405380104,
                0.1734327515787097,
                -0.44239781680521484,
                -0.19241686677172157,
                0.13098189987584113,
                -0.11853986694842165
            ],
            [
                -0.0006716503418161716,
                0.29617970311088465,
                -0.40103000226631763,
                -0.2557821846100174,
                0.2998910837556544,
                0.3028401230738283,
                -0.2134506577828488,
                0.17860576375778717,
                0.12317175464556954,
                -0.058333117876429794
            ],
            [
                0.10012182662821685,
                0.0015003324164134784,
                0.2846850251415133,
                0.01946741130565459,
                0.3850857605155642,
                -0.38413918836368005,
                -0.3829766566465851,
                0.5048783040213205,
                -0.2525388841896759,
                -0.45802669718593897
            ],
            [
                0.04596638194151706,
                -0.03954707979256674,
                0.43353724357210943,
                0.13657942222439642,
                -0.06555321439983224,
                -0.05260185050623382,
                -0.36884726358275627,
                0.270229322356475,
                -0.22852870795399924,
                -0.14887244821114234
            ],
            [
                -0.12200114817001446,
                -0.10500389851157367,
                0.3496759537823175,
                -0.2918024643993631,
                -0.194663576006643,
                -0.10202926028077854,
                -0.10500413548514557,
                0.38257541094525055,
                0.011746036560086074,
                0.2037766838283916
            ],
            [
                0.13551113250725638,
                -0.03321062238393473,
                -0.5490195618094139,
                -0.4226312536204377,
                0.21428135881302351,
                0.06208219362393362,
                0.7524695122606163,
                0.3513357912804638,
                0.16738245209837205,
                -0.2245823712111845
            ],
            [
                -0.08330941793989696,
                0.05772190282559318,
                -0.021939789165910852,
                -0.241588553864166,
                0.01770315367881087,
                0.18503409805950108,
                0.6821595354955341,
                0.28452650248480615,
                -0.2532318936964129,
                -0.32534807404395855
            ],
            [
                -0.2943797056349111,
                -0.24447298709163628,
                0.8755954893922674,
                0.5560161629881475,
                -0.3970030376343036,
                0.4070391874912856,
                -0.18574814697692893,
                -0.08138091579684778,
                -0.04851624741679979,
                -0.609070035725264
            ],
            [
                -0.6064056750107589,
                -0.06358716761415158,
                0.628011706363296,
                0.23193367762474243,
                -0.3964666239290035,
                0.3386333512762169,
                -0.6083222525256864,
                0.9876659498982912,
                0.3318824530284223,
                -0.16696806248937313
            ],
            [
                -0.27010407726776814,
                -0.2549832319573006,
                0.42693212532704716,
                -0.20924097768890548,
                0.3393272971510326,
                -0.04890624292393924,
                0.0792382971078795,
                0.023999450948136547,
                -0.4221235300734731,
                -0.0754913003676933
            ],
            [
                -0.20771983099912622,
                -0.13495701027640655,
                0.1937702699301549,
                -0.5138008930467051,
                -0.3529319553918938,
                0.3079834766231266,
                1.0193444190187022,
                -0.3287797995306908,
                -0.422627407888099,
                0.2211955002912116
            ],
            [
                -0.3775300360642276,
                0.1100878312863657,
                0.4061095344747179,
                0.10984141567348489,
                0.41354960599288454,
                -0.1034274276279555,
                0.06695918564999917,
                -0.08985665829776235,
                -0.20529727358808433,
                0.06819465409641898
            ],
            [
                -0.5417380628833022,
                0.12079011818256685,
                0.13401118416412164,
                0.5800564426110573,
                -0.1664565959396596,
                0.2517004433695021,
                -0.20677016052190106,
                -0.17962757434076482,
                -0.1774227278255581,
                -0.031020340306776886
            ],
            [
                -0.7159167826221196,
                0.742082372541885,
                -0.20638248978774246,
                0.5859614906146464,
                -0.23189967359143954,
                0.43372578131727757,
                -0.5605870743233323,
                0.26497577359129815,
                -0.9159338724416477,
                0.17847695071523342
            ],
            [
                -0.23370202863313538,
                0.34769504241990584,
                -0.334504155027733,
                0.23103580077213884,
                0.06726554842712297,
                -0.01107338115506609,
                -0.4978367466147752,
                0.028469617416608996,
                -0.25295312680697385,
                0.32939483925185153
            ],
            [
                0.5792028258256483,
                -0.5981869336714083,
                0.42297244717611976,
                -0.4247016926812135,
                0.05366852704248778,
                0.005414967499782409,
                0.15570164190940233,
                -0.011764947273629997,
                -0.35604845647549066,
                -0.31335151327300054
            ],
            [
                -0.47275695305005216,
                0.13549924946052025,
                0.6272209683045076,
                -0.4132304605309808,
                0.23131010626177784,
                -0.14145699486935046,
                -0.21607901149609499,
                0.21219528139816443,
                -0.43484153459628067,
                -0.02073200176179352
            ],
            [
                -0.41512100382572303,
                0.20031502105795274,
                -0.33781821825306774,
                0.557565351047559,
                -0.17061503062419603,
                0.33855005006480193,
                -0.12687609164634056,
                0.14202201391189656,
                -0.21425574185284782,
                0.35583845774001444
            ],
            [
                -0.33476824196734767,
                0.3865966178500209,
                -0.5285968184924796,
                0.511583244791099,
                -0.05774344567575067,
                0.4961220384968779,
                -0.28899845984702405,
                -0.6765158232927208,
                -0.5990833805883921,
                0.5147857056106271
            ],
            [
                0.12813091369168886,
                0.15707843247458403,
                -0.17862000852657267,
                0.1583659267400963,
                0.009432076931615756,
                0.3573181476368916,
                -0.03537919938341977,
                -0.2579803812507947,
                -0.3063750544970941,
                0.48063409445241706
            ],
            [
                0.13836533896024641,
