{
    "seed": 7414141,
    "learning_rate": 0.01,
    "epochs": 1000,
    "output_filename": "CNN_7414141",
    "convolutional_layers": [
        {
            "kernel_count": 10,
            "kernel_dim": 3,
            "padding": 0,
            "pooling_dim": 2,
            "weights": [
                [
                    [
                        [
                            0.3950329714286262,
                            0.5127032676578177,
                            -1.2932436213572667
                        ],
                        [
                            0.9064545817753678,
                            0.13273776416693756,
                            -1.1671861932808671
                        ],
                        [
                            0.3403497545824546,
                            -0.21450640364034196,
                            -0.511191060657537
                        ]
                    ]
                ],
                [
                    [
                        [
                            0.8785265164844154,
                            1.1988288617685454,
                            -1.107130036828513
                        ],
                        [
                            -0.1975396660978206,
                            -0.5594749596718114,
                            -1.693814671342094
                        ],
                        [
                            -1.5161043934029792,
                            -1.242073225889973,
                            0.444316511333538
                        ]
                    ]
                ],
                [
                    [
                        [
                            -0.3137872549164594,
                            -0.8690711387928041,
                            -0.6035854438075801
                        ],
                        [
                            -0.27981600917506055,
                            0.672739978708908,
                            1.6273221156318125
                        ],
                        [
                            0.6002813717362253,
                            -0.16861140881386164,
                            -1.2769849857681934
                        ]
                    ]
                ],
                [
                    [
                        [
                            -1.2392954078941816,
                            -0.4594019497038268,
                            -0.2675554637723375
                        ],
                        [
                            -0.19355772049420314,
                            -0.9264806264281481,
                            -1.2277864907742964
                        ],
                        [
                            1.1211268507649306,
                            0.5047741600109613,
                            0.751286246198334
                        ]
                    ]
                ],
                [
                    [
                        [
                            0.0731585705162046,
                            0.07924967474771456,
                            -0.0020104627800854166
                        ],
                        [
                            0.13689314890039053,
                            0.013421873716468663,
                            0.2605443466485868
                        ],
                        [
                            0.21619947195100395,
                            0.07543699396284592,
                            0.24287372744235708
                        ]
                    ]
                ],
                [
                    [
                        [
                            -1.4972601303023785,
                            -0.22758250744218025,
                            0.10870780209790808
                        ],
                        [
                            -0.3779800234698882,
                            0.9315649604597539,
                            -0.16354424999684733
                        ],
                        [
                            -0.10263037341000142,
                            0.4332975673348966,
                            -0.3308781413096638
                        ]
                    ]
                ],
                [
                    [
                        [
                            -1.1753562189266091,
                            -0.7971101836828324,
                            0.12971128913142577
                        ],
                        [
                            -1.6194037387137545,
                            0.857270650413453,
                            0.6433780799897421
                        ],
                        [
                            -1.476492943881102,
                            -0.3773960073000823,
                            0.7580883291199926
                        ]
                    ]
                ],
                [
                    [
                        [
                            0.4348766704423311,
                            0.27763468429205357,
                            -0.3827522236579355
                        ],
                        [
                            -0.6121829023232295,
                            0.9718957744718497,
                            1.2150740415520924
                        ],
                        [
                            -1.5220830827955287,
                            -1.0549163155892365,
                            -0.45177395665348946
                        ]
                    ]
                ],
                [
                    [
                        [
                            0.2004680658228985,
                            -1.2236501286400079,
                            0.9089261162658102
                        ],
                        [
                            -0.058877121044710316,
                            -0.7454679279549851,
                            0.2459150761364167
                        ],
                        [
                            -0.9051896117493202,
                            -0.09766962292390798,
                            -0.3790346433548643
                        ]
                    ]
                ],
                [
                    [
                        [
                            0.052281968908498906,
                            -0.6023248745315744,
                            -0.14027126915278385
                        ],
                        [
                            -0.42194197875878325,
                            -0.0361158362602514,
                            0.23682789299648047
                        ],
                        [
                            -0.5981753699619475,
                            -0.39923669236474923,
                            -0.190343780495133
                        ]
                    ]
                ]
            ],
            "biases": [
                -0.007280508562296626,
                0.006901057625070451,
                -0.004728437607773678,
                -0.0003058044928649606,
                -0.0021311898879922387,
                -0.0046731317218340115,
                0.004560618889168353,
                -0.012961227869845241,
                0.002538012620346702,
                -0.00021808031319861437
            ]
        },
        {
            "kernel_count": 6,
            "kernel_dim": 3,
            "padding": 0,
            "pooling_dim": 2,
            "weights": [
                [
                    [
                        [
                            -0.08313857973056889,
                            -0.0021934321658563815,
                            0.5917163082866665
                        ],
                        [
                            -0.59852339778691,
                            -0.6776787734728108,
                            0.24487552719043035
                        ],
                        [
                            0.09729755622535272,
                            -0.27420547075532,
                            -0.5202757762540777
                        ]
                    ],
                    [
                        [
                            0.08486695239312418,
                            -0.30908548774170463,
                            -0.03780953935674514
                        ],
                        [
                            0.17784466198184917,
                            -0.6458939668656398,
                            -0.529562386150905
                        ],
                        [
                            0.4574084366614565,
                            0.06154156764472934,
                            -0.6808154429052918
                        ]
                    ],
                    [
                        [
                            0.21101999697439935,
                            0.2153289632627672,
                            0.1459236006183287
                        ],
                        [
                            0.7730077033685939,
                            -0.12260130785607634,
                            -0.03802785956711651
                        ],
                        [
                            0.26169088903643284,
                            0.5948182285629657,
                            -0.08699406038019575
                        ]
                    ],
                    [
                        [
                            0.01230836087681472,
                            0.20706726674102588,
                            0.22102792345494915
                        ],
                        [
                            -0.3839241950330373,
                            0.31622946689463804,
                            0.8944162219658416
                        ],
                        [
                            -0.2739000126821531,
                            0.035399016512090625,
                            0.304951996061724
                        ]
                    ],
                    [
                        [
                            0.359281119984352,
                            0.2970353466743132,
                            -0.9187698295197522
                        ],
                        [
                            0.19612107031502546,
                            0.40299499508026976,
                            0.4758855891986542
                        ],
                        [
                            0.36887762930644535,
                            -0.04635298694094559,
                            0.527027883827481
                        ]
                    ],
                    [
                        [
                            0.2784071841849933,
                            -0.14709857979128116,
                            0.660251056107147
                        ],
                        [
                            -0.09245145647976614,
                            -0.22093885858475293,
                            -0.007287271987092752
                        ],
                        [
                            -0.03689097069619517,
                            0.027017275781067114,
                            -0.06444899410336702
                        ]
                    ],
                    [
                        [
                            0.08194152737365268,
                            -0.4786131169782771,
                            -0.4019993597138842
                        ],
                        [
                            -0.09485907580408891,
                            -0.8492345568487119,
                            -0.8281697040285523
                        ],
                        [
                            -0.42209276683634944,
                            -0.6451305167791003,
                            -0.36818048379502877
                        ]
                    ],
                    [
                        [
                            0.0048305793347623366,
                            -0.016374733868379808,
                            -0.01771288008105572
                        ],
                        [
                            -0.4255028195170684,
                            0.3053814463685793,
                            0.7153747234521515
                        ],
                        [
                            0.04110495878567944,
                            0.49545906806609796,
                            0.8076103458860489
                        ]
                    ],
                    [
                        [
                            -0.38239046904378476,
                            -0.17542010703225944,
                            -0.513379641633589
                        ],
                        [
                            0.10239105361591162,
                            0.0831442245812727,
                            0.046096103189195194
                        ],
                        [
                            -0.2341484677776779,
                            0.08310800421101304,
                            0.09394001534454255
                        ]
                    ],
                    [
                        [
                            -0.18291662849128984,
                            -0.16272052808085413,
                            -0.03173639378534575
                        ],
                        [
                            -0.07943732752645763,
                            0.1003507038737762,
                            0.29179118553080474
                        ],
                        [
                            0.1284246632960956,
                            -0.023293752359226295,
                            0.0923537372918593
                        ]
                    ]
                ],
                [
                    [
                        [
                            0.03853763863277293,
                            0.1569489469507108,
                            -0.37662143748691607
                        ],
                        [
                            -0.6734404206391386,
                            -0.1523440881697705,
                            -0.49030876527135553
                        ],
                        [
                            0.01942939264436217,
                            -0.2672955828311967,
                            -0.8396626319683501
                        ]
                    ],
                    [
                        [
                            -0.14293542876368628,
                            1.0138756266911237,
                            1.0493140717020057
                        ],
                        [
                            -0.8936978956561771,
                            -0.2045298868696867,
                            1.7072753027282008
                        ],
                        [
                            -0.7231649856956076,
                            -0.39799385020675737,
                            0.3507118626620165
                        ]
                    ],
                    [
                        [
                            -0.050441360891210124,
                            0.5893967893858807,
                            0.13489798851759882
                        ],
                        [
                            -0.4327301995743195,
                            0.11037089052242688,
                            0.10733484614724202
                        ],
                        [
                            -0.3060352189297013,
                            0.24076050807462496,
                            0.07408412813392154
                        ]
                    ],
                    [
                        [
                            -0.09761659850534803,
                            0.12872704773446922,
                            -0.5075249782922897
                        ],
                        [
                            0.6029283105282555,
                            0.24624654182299563,
                            -0.049393815466175994
                        ],
                        [
                            0.0901342417759128,
                            0.2073239782676587,
                            -0.12577011434869098
                        ]
                    ],
                    [
                        [
                            0.19234118767282296,
                            0.5363654998571314,
                            1.9195646083626685
                        ],
                        [
                            -0.8043964764001251,
                            -0.28134836371049576,
                            -1.4051657666093713
                        ],
                        [
                            -0.5620019613814441,
                            -0.7929863983939417,
                            -0.6112641402471497
                        ]
                    ],
                    [
                        [
                            -0.37570752087652914,
                            0.9767264127575542,
                            0.6271866878667947
                        ],
                        [
                            -1.2939929016281517,
                            -0.616344802345982,
                            -0.6409388604641508
                        ],
                        [
                            -0.48918919417011164,
                            -0.6316972287542323,
                            0.6420280445492871
                        ]
                    ],
                    [
                        [
                            -0.018229417073615126,
                            0.8364146161478416,
                            0.16827121225870043
                        ],
                        [
                            -0.35905845888783694,
                            -0.7197276304767508,
                            -1.3789629623746917
                        ],
                        [
                            -0.3897689967082616,
                            0.2853221270436921,
                            0.2497690633254
                        ]
                    ],
                    [
                        [
                            0.6751185120603822,
                            -0.04720761672098411,
                            -0.26391171704521343
                        ],
                        [
                            0.6451620701569953,
                            0.4873239025270314,
                            -0.9214522732271057
                        ],
                        [
                            -0.5215298957014041,
                            -0.7511011442273786,
                            -0.3878815469167438
                        ]
                    ],
                    [
                        [
                            -0.0004282759407287107,
                            0.267061235483114,
                            -0.044515246629776045
                        ],
                        [
                            -0.020554565032727682,
                            0.26784916350266263,
                            -1.0614924810555662
                        ],
                        [
                            -0.5058266484889768,
                            -1.0057409957523946,
                            -0.3771496175597847
                        ]
                    ],
                    [
                        [
                            -0.10751147946245115,
                            -0.23828201692014261,
                            0.15302118034461215
                        ],
                        [
                            -0.01951073780725444,
                            -0.03352745847299432,
                            0.3234372740328605
                        ],
                        [
                            -0.14972255717253655,
                            0.101439425911375,
                            0.12428758305395418
                        ]
                    ]
                ],
                [
                    [
                        [
                            0.38770989188631916,
                            0.17528330974837875,
                            0.5626461133834921
                        ],
                        [
                            0.21090314071619318,
                            -0.02343278177305028,
                            0.4574103663491832
                        ],
                        [
                            -1.1322113688758404,
                            -0.5432758315762916,
                            -0.3819460630040682
                        ]
                    ],
                    [
                        [
                            -0.12259157316331379,
                            0.18063424857976504,
                            -0.22875981973654158
                        ],
                        [
                            0.8410050321250913,
                            0.4299337371300642,
                            0.3362900390380998
                        ],
                        [
                            0.4637328615436276,
                            0.6275704323084931,
                            0.4135065532861728
                        ]
                    ],
                    [
                        [
                            0.08144673204989816,
                            -0.4086991944791729,
                            -0.5800644477598405
                        ],
                        [
                            -0.1253191492987512,
                            -0.04155042310496599,
                            -0.6223479548193367
                        ],
                        [
                            -0.2523490954806834,
                            0.005199850847265229,
                            -0.11671535220633363
                        ]
                    ],
                    [
                        [
                            0.5170432477523934,
                            -0.1430311060970397,
                            -0.6478474442488847
                        ],
                        [
                            0.4564187435758063,
                            -0.39806125373306045,
                            -0.6299042439188391
                        ],
                        [
                            0.30040323900470467,
                            -0.1422667684425818,
                            -0.28324464395877424
                        ]
                    ],
                    [
                        [
                            0.6730366557958327,
                            0.2628516267881497,
                            -0.1927102870533895
                        ],
                        [
                            0.5206718741526585,
                            0.0024006874519690675,
                            -0.38677506900047626
                        ],
                        [
                            -0.7991394987364691,
                            -0.5946019087842624,
                            -0.541355749146992
                        ]
                    ],
                    [
                        [
                            0.8255735386011673,
                            -0.41542444238524795,
                            -1.1542784419598118
                        ],
                        [
                            0.098338818807032,
                            -0.7230358187593866,
                            -0.556583205767506
                        ],
                        [
                            -1.103006628440067,
                            -0.6613762696704278,
                            -0.1346558490987996
                        ]
                    ],
                    [
                        [
                            0.5804354593290572,
                            -0.1962543899038009,
                            -0.11563821415071789
                        ],
                        [
                            -0.15736475408815387,
                            -0.2504064704958796,
                            0.23343446367362994
                        ],
                        [
                            -0.7686707105733691,
                            -0.305226357229238,
                            -0.004591632209786419
                        ]
                    ],
                    [
                        [
                            -0.14973184308829926,
                            0.07515903134042967,
                            -0.6049164780770198
                        ],
                        [
                            0.30948995595901896,
                            -0.08541797692028993,
                            -0.6090312695175246
                        ],
                        [
                            0.23314631029741567,
                            -0.47021133745429705,
                            -0.23107486877721314
                        ]
                    ],
                    [
                        [
                            0.12088787127374442,
                            -0.11994157626031493,
                            0.15493473651925013
                        ],
                        [
                            0.33941623436410245,
                            -0.12309922746563695,
                            -0.47265500758386725
                        ],
                        [
                            -0.1157802950887503,
                            -0.11266440873833777,
                            -0.29740204041667584
                        ]
                    ],
                    [
                        [
                            0.07412674965522711,
                            0.19278856272754513,
                            0.09210847442527809
                        ],
                        [
                            0.054458846206823064,
                            -0.05338812913740933,
                            -0.14066375941469983
                        ],
                        [
                            0.11874296257568225,
                            -0.02407245705114382,
                            0.12624360506197932
                        ]
                    ]
                ],
                [
                    [
                        [
                            -0.25791296313837764,
                            -0.21644033916372127,
                            0.1563343136314353
                        ],
                        [
                            -0.560857091221604,
                            -0.2816901347144395,
                            -0.5438548500922141
                        ],
                        [
                            -0.18137847431679244,
                            -1.0034545103549641,
                            -0.9447146366602087
                        ]
                    ],
                    [
                        [
                            0.006811721964883986,
                            0.15032565836722292,
                            -0.17257952728855275
                        ],
                        [
                            -0.20311113722508656,
                            -0.46988721221432683,
                            -0.436140071870768
                        ],
                        [
                            -0.29302899302263025,
                            0.12025927634208497,
                            0.30647577468822296
                        ]
                    ],
                    [
                        [
                            -0.574371972050554,
                            -0.04841667557584823,
                            0.3808427306711453
                        ],
                        [
                            0.005841250039800661,
                            -0.3989427310505387,
                            0.4255513976167763
                        ],
                        [
                            -0.23113069577225448,
                            -0.23279425172223966,
                            0.4072662492748539
                        ]
                    ],
                    [
                        [
                            -0.7258453427804538,
                            -0.5122777221384935,
                            0.42505501752550107
                        ],
                        [
                            -0.2894786780238753,
                            -0.3460460329493527,
                            0.7150283535616826
                        ],
                        [
                            1.1939344040059223,
                            0.18954984216051152,
                            -0.010727156369531173
                        ]
                    ],
                    [
                        [
                            -0.046626456913867895,
                            0.6340474309908756,
                            0.1587931007096136
                        ],
                        [
                            -0.865280858911892,
                            0.2183105696622536,
                            1.03961984487869
                        ],
                        [
                            -1.155380393423513,
                            -1.2528447275619934,
                            -0.5992973150351097
                        ]
                    ],
                    [
                        [
                            -0.020087138139119016,
                            0.6133849274678402,
                            0.06599713311058754
                        ],
                        [
                            -0.4925119891362531,
                            -0.047026034503139205,
                            0.16903519556121177
                        ],
                        [
                            -0.30732360910427514,
                            -0.8042624236148528,
                            -0.8234922256869999
                        ]
                    ],
                    [
                        [
                            0.09599878941865476,
                            0.7517004352773039,
                            -0.3714011068004807
                        ],
                        [
                            0.43421119884235604,
                            -0.00841082726764031,
                            0.422882526273386
                        ],
                        [
                            -0.33622213784129223,
                            -0.48545744773638166,
                            -0.2865422416638975
                        ]
                    ],
                    [
                        [
                            0.18231587637194138,
                            0.03034213197416659,
                            -0.17482688282136774
                        ],
                        [
                            0.4509913495541702,
                            0.16872025261895324,
                            0.42652152263194393
                        ],
                        [
                            0.11685570047933588,
                            0.28035258108447036,
                            0.7692302117903985
                        ]
                    ],
                    [
                        [
                            -0.05287165306423662,
                            -0.1381018938798399,
                            -0.2018381612311376
                        ],
                        [
                            0.13122659627301703,
                            0.2254352646894563,
                            0.24827796451003598
                        ],
                        [
                            0.03602009248216709,
                            -0.06882324699252382,
                            0.4835854739960684
                        ]
                    ],
                    [
                        [
                            0.19144397731459817,
                            -0.14354979351024516,
                            0.4050903626980597
                        ],
                        [
                            0.3363434393306934,
                            -0.1455629530474997,
                            -0.009286053292912457
                        ],
                        [
                            0.3391795453741202,
                            0.1992130115857577,
                            0.06638863615079228
                        ]
                    ]
                ],
                [
                    [
                        [
                            0.07428677193219901,
                            0.30801797053116875,
                            -0.025839780969344913
                        ],
                        [
                            -0.04795829885776272,
                            0.05304932532175787,
                            -0.5165047864964801
                        ],
                        [
                            0.14577594439413646,
                            -0.7432801410568067,
                            -0.6356449714248641
                        ]
                    ],
                    [
                        [
                            -0.22023973534159413,
                            -0.3937647151104572,
                            -0.43342050943731675
                        ],
                        [
                            0.19114566047224338,
                            0.0033720523100758825,
                            -0.01719095590894736
                        ],
                        [
                            0.46996142803272684,
                            0.11749257217636933,
                            0.0012610230003179514
                        ]
                    ],
                    [
                        [
                            -0.14643372486137693,
                            -0.12460289916344008,
                            0.2882403674495632
                        ],
                        [
                            -0.22907674440406553,
                            -0.19861222931274639,
                            -0.05070287955562367
                        ],
                        [
                            -0.13455916157959033,
                            -0.0992449693621896,
                            0.2899746791638853
                        ]
                    ],
                    [
                        [
                            -0.46261997016870143,
                            -0.39542833085132334,
                            -0.21355052275260503
                        ],
                        [
                            -0.1821311962911369,
                            -0.28348313492648036,
                            0.21280604989615584
                        ],
                        [
                            -0.11134454951838653,
                            0.546003705076458,
                            1.5732267169104077
                        ]
                    ],
                    [
                        [
                            -0.15434369799929556,
                            -0.303105173872088,
                            -0.4230435106674373
                        ],
                        [
                            -0.23000160297604444,
                            -0.31430536044205154,
                            -0.40497126972296277
                        ],
                        [
                            -0.3880717245911806,
                            -0.41260387243656416,
                            0.6685443998398343
                        ]
                    ],
                    [
                        [
                            -0.2442250210268209,
                            -0.3729738490085157,
                            0.2372279048020277
                        ],
                        [
                            -0.1314577808872583,
                            -0.42090533934654756,
                            -0.5399631501835752
                        ],
                        [
                            -0.2731483862427319,
                            0.016390392034321775,
                            0.7481915420544646
                        ]
                    ],
                    [
                        [
                            -0.01920661217692896,
                            -0.25406271167157957,
                            0.19263096671795624
                        ],
                        [
                            -0.2838610534901732,
                            -0.40490990492083706,
                            -0.05778522646978418
                        ],
                        [
                            -0.08990255648845955,
                            0.3297868769653586,
                            0.648836807057297
                        ]
                    ],
                    [
                        [
                            -0.010659264281216434,
                            -0.2437701023651889,
                            0.09628704166869106
                        ],
                        [
                            0.08183236049397699,
                            -0.40487353087624894,
                            -0.07831585649730351
                        ],
                        [
                            -0.19847061899240387,
                            0.12403324811545471,
                            0.17464589481077883
                        ]
                    ],
                    [
                        [
                            -0.10361818312294904,
                            -0.44309942589009355,
                            0.45957966568960484
                        ],
                        [
                            -0.024625354719439208,
                            -0.008341780418975625,
                            -0.05885014038691492
                        ],
                        [
                            0.04586549992108759,
                            -0.24551472450092787,
                            -0.34042622146609247
                        ]
                    ],
                    [
                        [
                            -0.30489873415528207,
                            -0.16098904077616702,
                            -0.0024505911972949076
                        ],
                        [
                            -0.02746716932100157,
                            -0.14401910294913559,
                            -0.15402640866712455
                        ],
                        [
                            0.08261024969183983,
                            -0.2091433898383276,
                            -0.050610804916891634
                        ]
                    ]
                ],
                [
                    [
                        [
                            0.36698930334385077,
                            -0.02860857013006923,
                            0.04609731322866081
                        ],
                        [
                            0.4370746008220444,
                            0.7898445899616415,
                            -0.2896796923849389
                        ],
                        [
                            0.48786269077407507,
                            -0.24968189267438387,
                            -0.1082798254398584
                        ]
                    ],
                    [
                        [
                            -0.3808156774251803,
                            0.1538883770842637,
                            0.234673096195248
                        ],
                        [
                            -0.03559829355908873,
                            -0.23354646287837283,
                            0.3295263112664638
                        ],
                        [
                            -1.1286966750143614,
                            -1.1509676878550916,
                            0.6243217376797818
                        ]
                    ],
                    [
                        [
                            0.13643195057028748,
                            0.720088741368273,
                            -0.1625995856541044
                        ],
                        [
                            0.07423407508992684,
                            0.20473871998359938,
                            0.17902201203944806
                        ],
                        [
                            -0.3692622540119157,
                            -0.05680016819616166,
                            0.05206553820218285
                        ]
                    ],
                    [
                        [
                            -0.1765101090123062,
                            -1.1443861214238402,
                            -0.8887618304573025
                        ],
                        [
                            -0.6878482441167344,
                            -0.8660517629091079,
                            0.41693674374966105
                        ],
                        [
                            -0.672375156599188,
                            0.09188397389946004,
                            0.06677547756711223
                        ]
                    ],
                    [
                        [
                            0.6629336598522577,
                            0.04608220292049398,
                            -0.6027307307004441
                        ],
                        [
                            1.0203499524789217,
                            -0.4113717918177206,
                            -0.42037750056847983
                        ],
                        [
                            0.5857072729159692,
                            -0.5252085230557219,
                            0.21282828457776012
                        ]
                    ],
                    [
                        [
                            0.1604063730777376,
                            0.4126077032870918,
                            -0.09128659793519342
                        ],
                        [
                            0.17433770591570907,
                            -0.19182455412169047,
                            0.5463757134196477
                        ],
                        [
                            -0.36583359696629075,
                            -0.4332883521507582,
                            0.535983116024553
                        ]
                    ],
                    [
                        [
                            0.25347074359381244,
                            0.2860304202039391,
                            0.14375004789943008
                        ],
                        [
                            0.21083056107120815,
                            -0.04616578860998534,
                            0.2010063734953067
                        ],
                        [
                            0.33505186517845054,
                            -0.4984310692798709,
                            0.17381857659646607
                        ]
                    ],
                    [
                        [
                            -0.8084996799779521,
                            -0.6840648323659815,
                            0.41287541810449546
                        ],
                        [
                            -0.5968393321650486,
                            -0.19300587187532459,
                            0.446378161958838
                        ],
                        [
                            -0.43516357465355127,
                            0.6604202024846711,
                            -0.36141376883729726
                        ]
                    ],
                    [
                        [
                            -0.1915883867289996,
                            -0.3838116390035739,
                            0.05969659995758912
                        ],
                        [
                            0.1759608803662313,
                            -0.2169680555586138,
                            0.1261442256881295
                        ],
                        [
                            0.5323090617052432,
                            -0.6451520118059543,
                            0.2941040504626538
                        ]
                    ],
                    [
                        [
                            0.04402166725152455,
                            0.3745125380905128,
                            0.10859635088864306
                        ],
                        [
                            0.02125658590938567,
                            0.24372899137213122,
                            -0.23954378223904144
                        ],
                        [
                            0.04425092365165899,
                            -0.2582859566863013,
                            0.05069506013037446
                        ]
                    ]
                ]
            ],
            "biases": [
                -0.033678979293519824,
                -0.017237240915537626,
                -0.0007618228651746758,
                0.005770284150333602,
                0.003843821587268759,
                -0.010973033431586926
            ]
        }
    ],
    "fully_connected_layers": [
        {
            "node_count": 18,
            "weights": [
                [
                    -0.25527580070002315,
                    -0.29354684297522565,
                    0.31768769366618194,
                    0.0258705492045085,
                    0.10128799362589257,
                    -0.014413845880149474,
                    -0.13116374208738882,
                    0.20354054115908504,
                    -0.01376335604939004,
                    0.09228963130558832,
                    0.02312404474841396,
                    -0.10794235360577203,
                    0.09921923029546033,
                    -0.013303196033899201,
                    -0.041378468896169425,
                    -0.08263831954434207,
                    -0.16809767658167402,
                    0.09538665165624619
                ],
                [
                    0.05280594543823182,
                    -0.12159627514269751,
                    -0.07797434206984778,
                    -0.0725783000486336,
                    0.2704491624651731,
                    0.1892603323051897,
                    -0.2793561329910719,
                    -0.22502435266513346,
                    0.2100012589282106,
                    -0.022988016010655213,
                    0.11315151120673483,
                    -0.23370614218963778,
                    0.25625228823756324,
                    0.4595013491977148,
                    -0.003807630875620738,
                    -0.13336042102350015,
                    -0.3237377697765234,
                    0.19813516398887465
                ],
                [
                    1.09696331916199,
                    0.20151974462100022,
                    -0.24355530900510242,
                    0.36054311743443646,
                    0.09053309458776926,
                    0.06778475110868729,
                    0.14712471063896737,
                    -0.5975366336499299,
                    0.36344310138160235,
                    -0.5466677574523787,
                    0.4066083603849389,
                    -0.6967000840141675,
                    -0.18141432028122134,
                    0.6597381236677161,
                    0.1891736328628576,
                    0.10458427227165464,
                    -0.13891378068231153,
                    0.04741691440630515
                ],
                [
                    1.3471990701681764,
                    0.22841893336527688,
                    -0.28119710477223325,
                    0.11750608157825261,
                    -0.12131015873706719,
                    -0.3459683489820089,
                    0.08721606659377464,
                    -0.6984401775061272,
                    0.3268417318445685,
                    0.08104951799474601,
                    -0.08408982266386474,
                    -1.0300260445749907,
                    -0.32183803230768193,
                    0.4705962496353078,
                    0.4158603579561601,
                    -0.029278595548327076,
                    0.514631796690606,
                    0.28771400645637174
                ],
                [
                    0.001573022053786336,
                    -0.27533351030096803,
                    0.042394249184030376,
                    -0.30444461457912764,
                    0.0824011110577735,
                    0.058630346790914646,
                    -0.1932496578734717,
                    0.1267381200275803,
                    0.05670630295845927,
                    0.033906481740218965,
                    0.08563107934641512,
                    -0.21798615527446716,
                    -0.05132188239030463,
                    0.3476989526032414,
                    -0.3297199155998581,
                    -0.02092888101640142,
                    0.24865764132737175,
                    0.299012880147569
                ],
                [
                    -0.11679920373949686,
                    0.1424553740577038,
                    0.14556582888252323,
                    -0.003941003111608173,
                    -0.17381555633495702,
                    0.3506408558614446,
                    -0.3820548581268916,
                    0.061493539049481946,
                    0.055490976415769326,
                    0.2678362305433815,
                    -0.5033236917895948,
                    -0.38674402263033786,
                    -0.21391630225245686,
                    -0.4302038646129645,
                    -0.33616620597883656,
                    0.6348779240771323,
                    -0.28732061124527003,
                    -0.2966217279682003
                ],
                [
                    0.06004992530160005,
                    0.21885534201361123,
                    -0.10803724507818521,
                    0.3360254014618651,
                    0.42353987269915105,
                    -0.059251347120092036,
                    -0.7115925398811496,
                    -0.4908795846761693,
                    0.6783061274082918,
                    -0.1110480128261152,
                    -0.768610945475508,
                    -0.9200257402824256,
                    -0.22147482865845197,
                    -0.05934208765165384,
                    -0.41772917119577563,
                    0.1960933371439759,
                    -0.34608838251895363,
                    -0.18683414484606609
                ],
                [
                    0.330707996953308,
                    0.5674624717831885,
                    0.058060059815867024,
                    0.34781331856355496,
                    0.5712522669401522,
                    0.02611250588428871,
                    -0.6021144358515174,
                    -0.34076282633093036,
                    0.83636290114587,
                    -0.180058903259975,
                    -0.5445690139863558,
                    -0.9647042307548883,
                    -0.13355598492368007,
                    -0.24992789000887636,
                    -0.8738322690269262,
                    -0.2746504664144653,
                    -0.31302471197573306,
                    0.3073806273342352
                ],
                [
                    0.3738167370521695,
                    -0.11941993660705655,
                    0.2537600575629513,
                    -0.14449359768924294,
                    0.2706114916063809,
                    0.09976730463161461,
                    -0.22402046812607943,
                    -0.13973878166223305,
                    0.7276005619756033,
                    -0.1799880115329633,
                    -0.0841902436608981,
                    -0.9819585271138668,
                    0.3141317019170029,
                    0.04090602051735056,
                    -0.49030241436522554,
                    -0.15766034193212564,
                    0.26246663530460335,
                    0.01999548112176781
                ],
                [
                    0.042376363640534404,
                    -0.1093999936142773,
                    0.11508306261796805,
                    0.07770536393611957,
                    0.23802675714382945,
                    -0.13748997360691526,
                    -0.24755956963872636,
                    -0.05090433825633923,
                    0.22573786169603824,
                    -0.10973553797794679,
                    -0.2117989674551131,
                    -0.5441023331794168,
                    0.26112190867243396,
                    -0.21632675599134715,
                    -0.06594032207187377,
                    -0.013476054157033276,
                    -0.19851098175267212,
                    -0.3062599003028096
                ],
                [
                    -0.10486966416762354,
                    0.07171851636842942,
                    -0.388971272334994,
                    0.3117477441525988,
                    -0.20132118568113738,
                    -0.05763382046703813,
                    0.4343210980035226,
                    -0.24387484140392174,
                    0.20921523577526166,
                    0.21838822804579686,
                    -0.33796434535392333,
                    0.039769383066559354,
                    -0.02786474340178947,
                    -0.21152132248324637,
                    -0.0988633787082675,
                    0.5444238722905415,
                    0.09572016500111648,
                    -0.15664117911494627
                ],
                [
                    0.042685402310136004,
                    0.07973529028911139,
                    -0.9355350055357858,
                    1.01500105957833,
                    0.4459627501779324,
                    -0.10396050528708542,
                    0.5105629673951706,
                    -0.6854113911971897,
                    0.25561418898789023,
                    -0.0003879035729181189,
                    -0.26567083710744394,
                    0.6123987544738724,
                    -0.2532755148487178,
                    -0.04758612309140588,
                    -0.11533739430176489,
                    0.08457676664312036,
                    -0.02969165492104308,
                    -0.18275021064572758
                ],
                [
                    -0.49030637607952987,
                    -0.05344719135563101,
                    -0.05767880104095588,
                    0.3961963991683476,
                    -0.12694983366041404,
                    -0.3940739485087937,
                    0.44663831963666173,
                    0.024665072611719085,
                    -0.5695739583214724,
                    0.05868757396765341,
                    0.34978563517803607,
                    0.4643150653558542,
                    0.019790786346136197,
                    0.33655267952906215,
                    0.655535068074978,
                    -0.022705840132913383,
                    -0.08788573637796236,
                    0.004035693579316953
                ],
                [
                    -0.08511488933597923,
                    0.2742157678128175,
                    0.6255954195047866,
                    -0.8133864706138753,
                    -0.2462790674094317,
                    -0.39050269164685625,
                    0.2290314709106329,
                    0.6579533173978326,
                    -0.7015980174807412,
                    -0.0812909375392549,
                    0.197556208218657,
                    -0.5222851463031485,
                    0.7952708263003189,
                    0.15963145478994167,
                    0.8416872196612887,
                    -0.18989557243339278,
                    -0.5009089737503987,
                    -0.44386073992816066
                ],
                [
                    -0.12809383700875537,
                    0.01279165900647428,
                    -0.03297867062228417,
                    0.19616709324089326,
                    0.3038423290184415,
                    0.4813038814557662,
                    0.5202439647878,
                    0.36751818500478817,
                    -0.43466903259942424,
                    0.35141676662613447,
                    -0.7372918306044862,
                    0.3361973566111943,
                    0.6049764891001068,
                    -0.4958182852187551,
                    0.09917330625650478,
                    -0.2804314963211448,
                    -0.1829965770500286,
                    -0.8170791355290731
                ],
                [
                    0.07653175333455335,
                    0.26142701456609646,
                    0.646375798013073,
                    -0.12831060195393348,
                    -0.025902889996962074,
                    0.005937120227498799,
                    -0.23429408800678736,
                    0.1968556936546677,
                    0.1757224120397476,
                    -0.33292679088904276,
                    0.5406001192576058,
                    0.3370339104877787,
                    0.05130881517726774,
                    -0.09201425295029118,
                    0.02341897221632519,
                    0.13330640763032786,
                    -0.0464747298428881,
                    0.41080102708546185
                ],
                [
                    -0.2667560145194919,
                    -0.24824152625535303,
                    -0.17237699308406448,
                    0.5963527640148696,
                    0.2237253460429408,
                    -0.12966288939439802,
                    0.14326753058243052,
                    -0.6889984099261361,
                    0.6902560262268188,
                    0.06346769760488968,
                    0.4768675383780232,
                    0.3245947698507013,
                    -0.2125272509650801,
                    -0.6121691469737721,
                    0.1605928346869811,
                    0.15320836329332368,
                    -0.07552707965126931,
                    0.22593138408927485
                ],
                [
                    0.017919342302997777,
                    -0.06840852266148605,
                    -0.6762899299555757,
                    0.28686445150385864,
                    -0.4635471838275136,
                    -0.17274081124768062,
                    0.4188556556477913,
                    -0.6376455684647926,
                    -1.0970508722524341,
                    -0.07681687650796949,
                    0.4354779763167126,
                    0.5487443922626011,
                    -0.053171907497801554,
                    0.36754518323726704,
                    -0.14289724942812013,
                    0.30316775527889794,
                    -0.09361773182009982,
                    0.5726848259495463
                ],
                [
                    -0.14136238382575045,
                    0.16881503621575028,
                    -0.5584358823974026,
                    0.14966677990465477,
                    -0.513967027130003,
                    -0.3477451089234281,
                    0.43709666331516994,
                    0.3377653437654932,
                    -0.8215301220720759,
                    0.30363884456230583,
                    -0.05544771221801099,
                    0.21415002586308013,
                    0.13934908560695983,
                    -0.2954849648766575,
                    -0.015907311206577946,
                    0.13354211519896209,
                    -0.2855550708966987,
                    0.32236633959723515
                ],
                [
                    -0.7591191119580234,
                    -0.09049772216452608,
                    -0.2567424680164003,
                    0.1589174520823978,
                    -0.31792087483363834,
                    0.5556685179629604,
                    -0.21289502129756258,
                    -0.32501162525753263,
                    -0.36633239461581346,
                    0.3284367114064051,
                    -0.483984156331041,
                    0.5092534686596316,
                    0.1553346088601688,
                    -0.08753249260750073,
                    -0.13285971308894337,
                    -0.002992429463501933,
                    0.1543954868750237,
                    0.1263633115835802
                ],
                [
                    0.0750216759900405,
                    -0.021309511868233537,
                    0.3387513383839519,
                    -0.6386725921996037,
                    -0.20696185041642226,
                    0.1585482484265982,
                    -0.3743169808825258,
                    0.13156075809273537,
                    -0.5936194512841582,
                    -0.2943210045362472,
                    0.209896102853673,
                    -0.40379569906567075,
                    -0.1799111377402447,
                    0.4656418206891802,
                    0.07467981811692677,
                    -0.37851652119671936,
                    0.09913832390197198,
                    0.3785805567698924
                ],
                [
                    -0.02078484673278542,
                    -0.02396942908082721,
                    0.3573876308428312,
                    -0.5878450323348945,
                    0.26317978348118765,
                    0.22464838635137316,
                    -0.15613220498889635,
                    0.3919084497535948,
                    0.4019421753120771,
                    -0.3257401363209094,
                    0.35852979709527716,
                    -0.17334912038837635,
                    0.19554504370743775,
                    0.019947835100523482,
                    0.5931243190265962,
                    -0.11373746809584905,
                    0.02656950047118354,
                    1.0480323820151698
                ],
                [
                    0.059513535864290944,
                    0.0726939461426114,
                    -0.09467546558520441,
                    -0.4189699635281334,
                    -0.16983469758785938,
                    0.2848198712468059,
                    -0.15209324714090205,
                    -0.011563794291084579,
                    0.16163833934741023,
                    -0.030560819171608595,
                    -0.45085970681695564,
                    0.33063441435616475,
                    0.056703794117464394,
                    0.5249007833672458,
                    0.06647705972159908,
                    -0.4707648311788781,
                    0.6981811858081501,
                    1.3477483098602923
                ],
                [
                    -0.17492175472324195,
                    0.10524223727874293,
                    -0.2609328061223004,
                    -0.16166115173092552,
                    -0.18936654639152178,
                    -0.08395947581717403,
                    -0.09469953948408888,
                    0.4977474296463077,
                    -0.10391510751140898,
                    0.014906376018142214,
                    -0.0368461284560637,
                    0.8869901917864793,
                    0.006199179659258029,
                    0.3685096671319185,
                    -0.4828051578445585,
                    -0.5477019658163402,
                    0.7602456809325205,
                    0.6177664308687111
                ],
                [
                    0.13743586627314502,
                    0.19165246137221018,
                    -0.017438996752657643,
                    -0.4120133796967264,
                    -0.34087546934146024,
                    -0.03819101240917938,
                    0.12464460283315054,
                    0.3038125566748026,
                    -0.21285903741493137,
                    -0.16619752258561865,
                    0.5028172581849617,
                    0.6419751676903204,
                    -0.28692484939211493,
                    0.1446302689910231,
                    0.0052709680425015275,
                    -0.397725188048006,
                    0.8798664494761884,
                    0.7538207587863318
                ],
                [
                    -0.1689992914626789,
                    -0.14905549918020797,
                    -0.09946991356686502,
                    0.05149876269568512,
                    -0.2986101247551265,
                    0.14377328192265426,
                    -0.005328783790354944,
                    -0.06648089365143431,
                    0.16125423191121546,
                    -0.23780647813739217,
                    -0.11300028646050972,
                    -0.06415009362004212,
                    0.07685060021131165,
                    -0.07057543974121726,
                    0.18805193983186652,
                    -0.1313409628932954,
                    0.24024714974403527,
                    0.3226250655251928
                ],
                [
                    0.531120148467203,
                    -0.08969348211849652,
                    -0.21354823232870127,
                    0.3437852438953162,
                    -0.498154188722159,
                    0.3055129808900519,
                    -0.21586700947205756,
                    -0.18871435256491886,
                    -0.21667499989026562,
                    0.20002117233414918,
                    0.0354504831246093,
                    0.014438736230505624,
                    -0.1871218249544591,
                    0.011289597785385368,
                    -0.128325966071982,
                    -0.25614465627196864,
                    0.3006462807200419,
                    0.27383012078694535
                ],
                [
                    0.5420697409007461,
                    0.10912541567580877,
                    -0.03441929463517273,
                    0.031027415239618168,
                    -0.08264057749607433,
                    0.1765538510099017,
                    -0.1294457275198547,
                    -0.34844844991789137,
                    0.08742548579716965,
                    -0.12373871915924407,
                    -0.006465626551528168,
                    0.005235399564066339,
                    -0.08376187923697492,
                    -0.22303670762315056,
                    -0.14819314650411886,
                    -0.03858853511167483,
                    -0.27994572064741635,
                    0.3175714153172672
                ],
                [
                    -0.27911122741098254,
                    0.055889180400948285,
                    0.3233032424384728,
                    -0.28962187105631176,
                    0.1164604454156983,
                    -0.04797872842800967,
                    -0.06540265363363802,
                    0.17304768863101996,
                    0.38050912891540906,
                    -0.010019019073948482,
                    -0.02775502807731454,
                    0.06874292710835817,
                    0.15282529717729015,
                    -0.09019131708473091,
                    0.089006421337839,
                    0.07878485715090945,
                    -0.17923072790363553,
                    -0.06202140795424503
                ],
                [
                    -0.33825631332416134,
                    0.04477623262630473,
                    -0.24292671707194943,
                    0.08025893690864742,
                    0.2601099918772031,
                    -0.3285508251018303,
                    0.10142824716666596,
                    0.16580844644905038,
                    0.08263681430803521,
                    0.1935447177180733,
                    -0.14393031229297112,
                    -0.03378684634018494,
                    0.3501852524333224,
                    -0.06020756282319357,
                    0.2540704323734911,
                    -0.0396104930638514,
                    -0.041577227596734594,
                    0.284858833353774
                ],
                [
                    0.6096383854443438,
                    0.21466998641849108,
                    0.05385188203958619,
                    0.15264787697300158,
                    -0.880548922188223,
                    0.7475115444706173,
                    -0.6707433579137783,
                    -0.39091591049739516,
                    -0.6597766031334324,
                    0.21742654326659328,
                    0.3464882735035236,
                    -0.13102085383031808,
                    -0.34443891371700425,
                    0.08698937329383354,
                    -0.05394843266747894,
                    -0.5045217944515686,
                    0.06410120263016887,
                    0.21202254802481976
                ],
                [
                    0.8132367625118307,
                    -0.15594631321928018,
                    0.37596412131736107,
                    0.1711610368422926,
                    -0.900870324659175,
                    1.00824013287735,
                    -1.1016327045981105,
                    -0.20394759308449797,
                    -0.6514015944583764,
                    -0.038222154384004295,
                    0.10179052319945317,
                    0.13876715274528637,
                    0.14550704647299462,
                    -0.3154162020610953,
                    -0.2529119203207326,
                    -0.6985988046136239,
                    0.10243215461657548,
                    -0.2932986289978773
                ],
                [
                    0.6479535223070766,
                    0.650573494774825,
                    0.18755019502272868,
                    0.3136039378955256,
                    -0.11012484739935459,
                    0.5746126981896458,
                    -0.46889071846331015,
                    0.21340615684088643,
                    0.09424126599381816,
                    -0.11588990686343228,
                    -0.1456941194132107,
                    -0.09732691690277898,
                    0.009331296020654582,
                    -0.1936487569716825,
                    -0.576246180895514,
                    -0.4456782868912952,
                    -0.14537925563898432,
                    -0.10580351665929423
                ],
                [
                    -0.39119155211841683,
                    0.24837790351349276,
                    -0.2126926211169745,
                    0.004535087594998076,
                    0.23222200694887138,
                    -0.7404630038556489,
                    0.3012841211150625,
                    0.053566616325209634,
                    1.1312021302730213,
                    -0.21217722089909552,
                    0.11962594540578637,
                    -0.07816056586164032,
                    0.2218864428873979,
                    0.2723030324758472,
                    -0.10884892374145858,
                    -0.455485622551713,
                    -0.2172037983520559,
                    0.2780392453599975
                ],
                [
                    -1.6217788198310106,
                    0.11356103127919118,
                    0.47254903296373046,
                    -0.34307183614031034,
                    1.503515002939646,
                    -0.8818936162371573,
                    0.4622106898540209,
                    0.6734273175621261,
                    0.4984242378079703,
                    -0.4853572797123218,
                    -0.037337274477610725,
                    -0.14342251222691735,
                    1.3234153578689067,
                    0.3525221796423779,
                    0.23883707770573187,
                    -0.22296188400722053,
                    -0.6908342992280551,
                    0.07579875210978818
                ],
                [
                    0.23680753583604033,
                    0.49720666205496467,
                    0.282047174962362,
                    -0.05699275823324485,
                    -1.2254486445042092,
                    0.43179157515793887,
                    -0.5691288742734524,
                    -0.39657946233200736,
                    -0.7704691532306374,
                    0.042376773320176024,
                    -0.421636270274446,
                    -0.26738113856988915,
                    -0.16196918997200707,
                    0.16739971506793666,
                    0.24762609215259893,
                    -0.2879026642720649,
                    -0.05549959646624579,
                    0.3182129970940305
                ],
                [
                    0.2303356354736145,
                    0.20682343368614753,
                    0.36891853046585926,
                    0.10785015293928664,
                    -0.7964371341296704,
                    0.584747746728818,
                    -0.6985254848348939,
                    0.12449473956639154,
                    -0.39749930761008556,
                    -0.23701867125609247,
                    0.16009347997479942,
                    0.6007406179634524,
                    0.584277601451066,
                    0.020727712089497925,
                    -0.6773146729277422,
                    -0.5926369439711492,
                    0.21291853538438946,
                    -0.07430214890933237
                ],
                [
                    -0.051241949402551744,
                    0.0958385170257426,
                    0.3169156795098403,
                    0.3067699767537463,
                    0.20195527587531803,
                    0.25963994284665165,
                    0.15817188582134661,
                    -0.403929884458893,
                    0.5828993391089325,
                    0.04806751755396545,
                    0.3999413875108326,
                    0.21634608549956968,
                    -0.006114352427672552,
                    -0.047195588687477114,
                    -0.45432447537913595,
                    -0.365809374742784,
                    0.2679094129794631,
                    -0.01168509825944147
                ],
                [
                    0.05200826017759684,
                    -0.28230919246835934,
                    -0.30214930429093056,
                    -0.1104534105025266,
                    0.24329717213460775,
                    -0.13760017713343528,
                    0.13438222894641064,
                    -0.3185667104819201,
                    0.3784108989254247,
                    0.14623348228354793,
                    -0.29310350567060367,
                    -0.10818826097440896,
                    0.5449734770497445,
                    0.12410221484196841,
                    0.3836879606052156,
                    -0.639654240745738,
                    0.04216412754119938,
                    0.25038227232428334
                ],
                [
                    -0.940582262991376,
                    0.6902538144267243,
                    -0.00865148931828766,
                    -0.7046085539712191,
                    -0.008109805040723438,
                    -1.1016433080280594,
                    0.05349665397281172,
                    -0.351234901772335,
                    -0.537552710846578,
                    0.09875833163023931,
                    0.30915150293114274,
                    0.06996737202970515,
                    0.7589964292455857,
                    0.9027323602307852,
                    0.6092644340295993,
                    0.13610451161618217,
                    -0.8346299978798472,
                    0.03689020901782182
                ],
                [
                    -0.5369444370043007,
                    0.5332387956862596,
                    0.1541755406560672,
                    -0.09411222969279792,
                    -0.31786847077014363,
                    -0.07903420415623376,
                    0.4124212456112886,
                    -0.21267708034470192,
                    -0.26994305614821795,
                    0.23876597810314118,
                    -0.32847766499443515,
                    0.1630792324816753,
                    0.09533430954886074,
                    -0.019919399210101787,
                    -0.10168053641561645,
                    0.05708382506930614,
                    -0.6421987274453808,
                    0.014706028388558003
                ],
                [
                    -0.288319200972179,
                    0.4345220127081523,
                    0.8527571677662863,
                    -0.3003935633995987,
                    0.23684018250326563,
                    0.4938363658933796,
                    -0.2628905417847402,
                    -0.045443376189474374,
                    0.6074298693184216,
                    -0.20784594919346444,
                    0.19849603124528814,
                    0.2351717824795707,
                    -0.3767254460332333,
                    -0.017921185915428694,
                    -0.13363467375017857,
                    -0.36862696020589125,
                    -0.8568147600815903,
                    -0.255885795027249
                ],
                [
                    0.5039242430188453,
                    0.28623220581433456,
                    0.5365914371103813,
                    0.3265312384774516,
                    -0.4889602937804317,
                    0.09392511583741074,
                    0.31530231927502667,
                    -0.11104184203123098,
                    -0.03564779245184455,
                    -0.45617279623224966,
                    0.4690461947700903,
                    -0.21972327058908994,
                    -0.2946062464636055,
                    0.4264450770792713,
                    0.8303243611735469,
                    -0.20098134936735815,
                    -0.11139253663569294,
                    -0.7231941854010484
                ],
                [
                    0.235796981256243,
                    0.29063829601469654,
                    -0.3061060667080851,
                    0.0458486607226652,
                    0.23867752689304905,
                    -0.29270549025851167,
                    0.41950040491839125,
                    -0.13372776936627312,
                    -0.7736454480127349,
                    -0.008069603511066522,
                    -0.319759579734437,
                    -0.1556255768593057,
                    -0.3370026007730307,
                    0.6027035589394916,
                    0.5991763487398034,
                    0.125132283974435,
                    -0.7207614364097823,
                    0.31838133995893847
                ],
                [
                    0.23049992192383148,
                    0.27380665300055285,
                    -1.0131893447943574,
                    1.1473206480744256,
                    -0.022943772716005083,
                    0.12126620275073575,
                    -0.09286330327949241,
                    -0.15959702959479471,
                    -0.9642754190884166,
                    0.14809389968218156,
                    -1.1843091891246682,
                    0.7918985323064751,
                    -0.2735450168372664,
                    0.20224445070447042,
                    -0.6029028017051479,
                    0.48631967289178984,
                    0.26726573847717927,
                    -0.13577913460349997
                ],
                [
                    -0.2421770333764881,
                    0.20915809539252922,
                    0.23893472958146805,
                    -0.13726733675744973,
                    0.3399116967555192,
                    0.3027113615438232,
                    -0.00329455898532995,
                    0.0720552200001426,
                    0.07917842065175298,
                    -0.13389739039298362,
                    0.4267616378306036,
                    0.046708262952080026,
                    -0.2517067824313522,
                    -0.39110250697615684,
                    0.16617523600461903,
                    0.24486524752397376,
                    -0.09683825060094264,
                    -0.3762680727726638
                ],
                [
                    0.0037357645140940633,
                    0.0649365106502113,
                    0.6731872900816063,
                    0.22515419095220046,
                    -0.1416034755667459,
                    0.41322192282228687,
                    0.35708002806627626,
                    -0.39403924483287894,
                    0.44114958006714994,
                    -0.26140984334035733,
                    0.5102536739354588,
                    -0.1899765482585665,
                    -0.09234380625328102,
                    0.11449684270635486,
                    -0.15580505866218047,
                    -0.2940491276065106,
                    -0.1354813098966029,
                    -0.46764237257432606
                ],
                [
                    0.3033841147401662,
                    -0.04197881558351417,
                    -0.3287158023987242,
                    -0.29194813670854597,
                    -0.1804965565623498,
                    0.04880544176245831,
                    -0.1006313343389156,
                    -0.12008841727717397,
                    -0.3086686861918203,
                    -0.22759599232270217,
                    0.35174924565156657,
                    0.1657929231735804,
                    0.08967789802418347,
                    0.6283650158589171,
                    0.06015475936260257,
                    -0.6657272245795718,
                    0.6519573668171164,
                    0.1946532527031336
                ],
                [
                    0.2309390924189277,
                    -0.0635850900742045,
                    -0.5371903778005871,
                    -0.004413562973937176,
                    -0.03014280142484414,
                    -0.1515170450082622,
                    -0.230377826404413,
                    0.4181912081246456,
                    -0.040343955887517664,
                    -0.17008645870347816,
                    -0.3174699874922192,
                    0.15674849309636776,
                    0.30591953946663886,
                    0.0009638287277994909,
                    0.057924937338396446,
                    -0.39065168007919243,
                    0.23351387155887784,
                    0.41900341153988196
                ],
                [
                    -0.11980818615931453,
                    -0.3582204857079137,
                    -0.3785475910009975,
                    0.44591640553521306,
                    -0.14837065801467625,
                    0.6052003979718796,
                    -0.34005787692971534,
                    0.24909177830651555,
                    0.03284400465727595,
                    -0.09754177350258013,
                    -0.9395307638225725,
                    0.7239759609412524,
                    -0.3476478235372218,
                    -0.07219923965076272,
                    -0.4636818497647265,
                    -0.07619690894443334,
                    0.48509318939799956,
                    -0.6047512910587398
                ],
                [
                    0.15861073251540736,
                    0.05857989991501799,
                    0.08610196053731338,
                    0.20183026217027072,
                    -0.09666010639156199,
                    0.17581213440665122,
                    -0.039018735745832124,
                    -0.14155719906271105,
                    0.18097987318074876,
                    0.08676245616718549,
                    -0.21670346343014213,
                    0.09409092335970941,
                    0.13142376825037005,
                    0.14737803020459325,
                    -0.25696013114841054,
                    0.02749627736483042,
                    -0.10637609989268856,
                    -0.18570062329146095
                ],
                [
                    -0.2041887656496053,
                    0.13101846305705286,
                    -0.05844370717060006,
                    0.012040543776759257,
                    -0.03304734883264787,
                    -0.18237128417824666,
                    0.13934616439334413,
                    0.13430795525195283,
                    -0.07755608335236376,
                    0.22922927896309694,
                    -0.1573046750542634,
                    -0.18025698116325795,
                    0.1320647633909542,
                    -0.11730075972375942,
                    0.08153152518373986,
                    0.004461687440621031,
                    0.04486035578066508,
                    0.14462928193416355
                ],
                [
                    0.019794078344314715,
                    -0.04062869644610505,
                    -0.39841576794612477,
                    -0.1460212895213169,
                    0.25350166521325834,
                    -0.3609208386092778,
                    0.20430083511723876,
                    -0.12160295856669982,
                    -0.28841160844120045,
                    -0.12217143698812516,
                    -0.3939416513751652,
                    -0.02743141533760679,
                    0.40938069498506646,
                    -0.10542376099067523,
                    0.04091986959964409,
                    -0.05151041867642398,
                    0.17260899910090544,
                    0.06861254585609745
                ],
                [
                    -0.4468675906575872,
                    0.010016621885326768,
                    0.1573141776377992,
                    -0.34378931174183774,
                    0.6033636120075256,
                    -0.7405292912585602,
                    0.4960077630899027,
                    0.4524223819038049,
                    0.08689592970919395,
                    -0.24676012180170273,
                    0.02971420753767524,
                    -0.28617470353055674,
                    0.545408754405609,
                    -0.07271485011136633,
                    0.1701438311558699,
                    0.01648672268107982,
                    -0.13924022691592122,
                    0.29059770844179234
                ],
                [
                    -0.5526605852404027,
                    0.08439104840610255,
                    0.3592535274516468,
                    -0.2860805358812505,
                    0.6055060660709607,
                    -0.5294442184599385,
                    0.48416990095683143,
                    0.6707985600738631,
                    0.005855667231330336,
                    -0.2459167179492502,
                    -0.328969640118695,
                    -0.2808659979884183,
                    0.47960302649830366,
                    -0.7623111710138635,
                    -0.08524477623637446,
                    -0.15989059043310086,
                    -0.3365110312086457,
                    -0.19088667132379478
                ],
                [
                    0.13360133218249373,
                    -0.14768924747520382,
                    -0.0023961932628734457,
                    0.0482249266632319,
                    0.10611026370255658,
                    0.17820200762576907,
                    -0.23076444198121807,
                    0.061464617381077134,
                    -0.33840891988920235,
                    0.013835755503988214,
                    0.1772428282283801,
                    0.061544935886925375,
                    -0.22081580167860893,
                    0.22201924566418232,
                    0.20787056587187727,
                    0.052140476051398224,
                    0.3519211361550086,
                    0.009022012869367465
                ],
                [
                    -0.30155122595368516,
                    -0.35704490315882714,
                    -0.08282070389760957,
                    0.1256905404538625,
                    -0.26156813796847395,
                    0.36511894360569447,
                    -0.20400491110241978,
                    -0.09132216975598118,
                    -0.05342519692072922,
                    -0.0968602403592049,
                    -0.05792458641941009,
                    0.14018813109301823,
                    0.09413520807205433,
                    0.03288306095228203,
                    0.3603036732956719,
                    -0.2128179394744226,
                    0.30412576229036,
                    0.06535529016897769
                ],
                [
                    0.2720967892207294,
                    -0.26402374205054574,
                    -0.2176671804925556,
                    0.5982940434123807,
                    0.07613783231298242,
                    0.23049513553720147,
                    0.05936381717438662,
                    0.4334585922301259,
                    0.22900252692760403,
                    -0.2662274845562042,
                    0.20833921403085942,
                    0.5177147992046667,
                    0.19687302988146588,
                    -0.3096968936223264,
                    0.07146671210938688,
                    -0.34566505867878483,
                    0.39581765565907384,
                    0.21391179232130567
                ],
                [
                    -0.46241510513742606,
                    0.22725348097976955,
                    0.3294881693025716,
                    -0.5140793835984843,
                    -0.4086390945471147,
                    -0.04389624746776799,
                    0.6203109604738921,
                    0.1916697606002724,
                    0.018111969043564654,
                    -0.021531278012453563,
                    -0.036266088244805914,
                    0.17030341245871827,
                    0.1670433487259674,
                    -0.02633897026592885,
                    0.14523740901948676,
                    0.09804787306859929,
                    0.14425807450852374,
                    0.2519368654689005
                ],
                [
                    -0.9678073056219378,
                    0.16559021631870582,
                    0.5839652438930661,
                    -0.39933673610979814,
                    -0.278790540961642,
                    -0.35803168350717585,
                    0.10006212409313478,
                    0.1230913694932175,
                    -0.5297658413545738,
                    0.11788642027558624,
                    -0.3265836145646445,
                    -0.4001068117806798,
                    1.19356192685262,
                    -0.7756200827398044,
                    0.499222058300652,
                    0.19250038070161307,
                    -0.545079742072775,
                    -0.21322936949289323
                ],
                [
                    -0.11441925135062107,
                    0.03326331707563234,
                    0.24366031499711968,
                    0.02008687410938918,
                    -0.5087553494407312,
                    0.389342832141725,
                    -0.20243123624262055,
                    -0.16584330503565803,
                    -0.2859766415596329,
                    0.26905424352657337,
                    -0.180253988856007,
                    -0.10524681537986096,
                    -0.16815221337597022,
                    -0.013546613281005841,
                    -0.04459075996065086,
                    -0.04515709037178906,
                    -0.06220870270572323,
                    0.015512734691618704
                ],
                [
                    -0.37174944378572883,
                    -0.4199438415938512,
                    0.2526955491416159,
                    0.29351977140441776,
                    -0.6216171073857237,
                    0.5579733319319579,
                    -0.2642263265905673,
                    0.32246938614809373,
                    -0.07000385657792568,
                    0.06822795310502999,
                    -0.3302286953895918,
                    0.281572819751927,
                    0.2676819019135014,
                    0.014574554879866546,
                    -0.45354907920536924,
                    -0.4659372620044793,
                    0.3154572199400622,
                    -0.29478417918208444
                ],
                [
                    -0.6149856921451243,
                    -0.4081219270329508,
                    0.25459080162383113,
                    0.08943758354827532,
                    -0.21106537806273146,
                    0.9319257790439268,
                    -0.5789749224636895,
                    0.045791528932533514,
                    0.3774323590108212,
                    0.2714244849324502,
                    -0.5211334382291832,
                    0.08411269268958316,
                    -0.5705842035671057,
                    0.17710641189767798,
                    -0.7802566872960788,
                    -0.26303263718021286,
                    0.0054137821744869,
                    -0.09783571253089639
                ],
                [
                    0.6382164377693166,
                    -0.04340688513078305,
                    0.229883271588355,
                    -0.024048565910309593,
                    -0.18844208143015193,
                    0.053634819764396144,
                    0.17703801540196124,
                    -0.0885032740125019,
                    0.17743709508209995,
                    -0.25443996197450197,
                    -0.1289318887564386,
                    0.3615717606288451,
                    0.26019398667249194,
                    0.2591489103087043,
                    -0.13802908165653371,
                    -0.49688478746432374,
                    0.47378155811125944,
                    0.20932913603639122
                ],
                [
                    0.5651059101228049,
                    0.40831555790716917,
                    -0.5455308103678279,
                    0.13729677567438403,
                    -0.5552497342407134,
                    0.32812890178283927,
                    0.3961541452539304,
                    -0.6130398641953869,
                    -1.085288144400651,
                    0.05712031240709659,
                    0.1715038258268249,
                    -0.034206381198176164,
                    -0.5461630572651408,
                    0.639422784003071,
                    0.6768522575184158,
                    0.4842715102170386,
                    -0.7246744735842113,
                    0.05120095398054624
                ],
                [
                    -0.12068543487478695,
                    0.12192898859870059,
                    -0.03927973900141818,
                    -0.07453951903928623,
