{
    "seed": 2146346,
    "learning_rate": 0.05,
    "epochs": 10000,
    "output_filename": "CNN_A",
    "convolutional_layers": [
        {
            "kernel_count": 8,
            "kernel_dim": 3,
            "padding": 0,
            "pooling_dim": 2,
            "weights": [
                [
                    [
                        [
                            -2.494498010123138,
                            -0.11105134223898316,
                            1.6296016773218582
                        ],
                        [
                            -1.5549923560379906,
                            -1.633776127255703,
                            0.8338884990383261
                        ],
                        [
                            -1.0618365317624598,
                            -1.7049437477580016,
                            -2.4836638651612004
                        ]
                    ]
                ],
                [
                    [
                        [
                            -0.3155156496547298,
                            -3.425964928400929,
                            0.5019862101060824
                        ],
                        [
                            1.3690250023930466,
                            -2.2943789795645197,
                            -0.16507900005477097
                        ],
                        [
                            0.9047215228912489,
                            -1.8231177231782487,
                            -0.1330652422258354
                        ]
                    ]
                ],
                [
                    [
                        [
                            -0.8964648095523983,
                            -0.299676110572855,
                            -9.499059237482238e-05
                        ],
                        [
                            -0.24871318443570997,
                            0.05020009331923764,
                            -0.4274502887980565
                        ],
                        [
                            -0.24649800871894162,
                            -0.7166130165771287,
                            -0.08123859834536706
                        ]
                    ]
                ],
                [
                    [
                        [
                            -0.09520323504284761,
                            -0.36946860979452706,
                            -0.0018420432365282733
                        ],
                        [
                            -0.05821177000229906,
                            -0.07484862445623004,
                            -0.18182470706601542
                        ],
                        [
                            -0.03968407523693531,
                            -0.2817661126163165,
                            -0.6274580136835671
                        ]
                    ]
                ],
                [
                    [
                        [
                            -0.5511686784158051,
                            -0.6788368912293223,
                            0.6246277732882644
                        ],
                        [
                            -2.1602026797302,
                            -0.8503663930560694,
                            -3.0188151155359355
                        ],
                        [
                            1.392063100924094,
                            0.6156981657300102,
                            -2.101422577534177
                        ]
                    ]
                ],
                [
                    [
                        [
                            -0.09278472360563267,
                            1.9554964557243757,
                            -0.2287399264760501
                        ],
                        [
                            -3.7760834003507315,
                            1.8999241508161722,
                            -3.543530329956651
                        ],
                        [
                            -3.707103101619416,
                            -3.912592951119199,
                            -0.7649228682423574
                        ]
                    ]
                ],
                [
                    [
                        [
                            -2.8144229571823614,
                            -0.7903951900608638,
                            -1.4284129824769005
                        ],
                        [
                            -1.8210706373051562,
                            -0.10438498574278945,
                            1.8203133870878072
                        ],
                        [
                            -2.3557471511807795,
                            -1.7702380987301847,
                            0.6698228180529744
                        ]
                    ]
                ],
                [
                    [
                        [
                            1.152508319059762,
                            -1.3239024866687596,
                            -2.8659421513214514
                        ],
                        [
                            1.197333291164487,
                            -0.5640728059309783,
                            -2.310625793413867
                        ],
                        [
                            -2.525788545374791,
                            -1.9865812050718825,
                            -0.16083885564794037
                        ]
                    ]
                ]
            ],
            "biases": [
                0.0025340829765566762,
                -0.030835768984343887,
                -0.0006670045087803928,
                -0.001147819102709512,
                -0.0021212307057650545,
                -0.0075057333484850434,
                -0.04648737852324975,
                -0.001214904984954014
            ]
        }
    ],
    "fully_connected_layers": [],
    "trained_epochs": 7,
    "output_layer": {
        "weights": [
            [
                0.11399868231575257,
                0.07866081794338903,
                -0.17842086329198478,
                0.13860023659843856,
                0.23312247388774857,
                -0.23341223910260098,
                0.17985476300615552,
                0.12237898781854044,
                -0.21970627262118334,
                -0.018235177228995845
            ],
            [
                0.20692619788516317,
                -0.2127932862081673,
                -0.0983362719575725,
                -0.14842842618229943,
                -0.20331867170032744,
                -0.10169600382257885,
                -0.09978307848466819,
                0.21674658373807287,
                -0.062379176951250635,
                0.13306323595265843
            ],
            [
                -0.005428629611141433,
                -0.0888849134538191,
                -0.15268050897138777,
                -0.2004622333784754,
                -0.20150996653530215,
                -0.06059952338997016,
                0.12306335389600542,
                0.19817538792215622,
                -0.013720246761887255,
                -0.141197596593837
            ],
            [
                -0.06161613333707682,
                -0.18825310388458022,
                0.23748928321894422,
                -0.1105043554558774,
                0.22748267110539913,
                -0.20450699976347106,
                0.20054437037284506,
                0.06467348702997235,
                0.23703288110844006,
                -0.012752263929695624
            ],
            [
                0.12455621435115896,
                0.03923357250440588,
                -0.15337628493391917,
                -0.24326824226367236,
                0.07530430988262261,
                0.007871805222889229,
                -0.1941263028209345,
                -0.035785283491267354,
                0.16401472510050444,
                -0.1093572687687145
            ],
            [
                -0.1881694823176905,
                -0.11276320772044551,
                -0.09094625597400056,
                0.21983653523243085,
                0.19729235629394304,
                0.06760758283028505,
                0.020154395730209614,
                -0.15976268763060256,
                0.11795236877112406,
                -0.021430277007453452
            ],
            [
                0.2422363796282993,
                0.099624962011088,
                0.12210748826412932,
                -0.011442703195592121,
                -0.14171002198571075,
                -0.0909357526735586,
                -0.055710855794237825,
                -0.13298671032359732,
                -0.20511646993133287,
                -0.22889541949606923
            ],
            [
                0.23210899695752163,
                -0.21354274104136237,
                -0.10496821460323613,
                -0.08353464912245652,
                -0.1814779200600865,
                0.07590179280595347,
                -0.20588659632135353,
                0.054042061934934035,
                0.09634202044797446,
                -0.031163709089443464
            ],
            [
                -0.0972533949141756,
                0.15317239711018732,
                -0.019441493115293893,
                -0.2201074625512555,
                -0.2192699579762989,
                -0.13387462468437047,
                0.26339727315765793,
                0.2501398404974819,
                -0.1665158079882564,
                -0.05063960755862177
            ],
            [
                -0.08653815760016445,
                0.1877268125436146,
                -0.032779159843374275,
                0.10137896654661965,
                0.12638711303524106,
                0.03818946202849042,
                0.24881630489421816,
                -0.009530721001712579,
                0.22805387777587355,
                -0.22863342191106245
            ],
            [
                -0.1882440417193565,
                0.23465716382567417,
                0.18509635791064025,
                -0.16734158511375918,
                0.2004921049040555,
                -0.08788613501283293,
                0.2822075333106688,
                0.21303445664745552,
                -0.2027403157448253,
                0.15222022216098757
            ],
            [
                0.05722477352464849,
                0.023120556923931355,
                -0.02092494140672526,
                0.20151041775938452,
                0.21684537439235851,
                0.1487010763209557,
                -0.014132051297812127,
                -0.2452177500984676,
                0.11529149279815636,
                0.052668500029664174
            ],
            [
                -0.21232849460788422,
                -0.23494354108561252,
                -0.22041908864659998,
                -0.2543002801299735,
                -0.06842900651088492,
                0.008264532417499226,
                -0.1614833937903187,
                -0.2306314112320445,
                -0.110608160413945,
                0.17759975337727044
            ],
            [
                0.19002463506784964,
                -0.1045353321715666,
                0.01232821986507693,
                -0.150570208177351,
                -0.10254285805211383,
                -0.03436769198037578,
                -0.05515874090139676,
                0.15956470692289532,
                0.09313327127636274,
                -0.20221832711039991
            ],
            [
                -0.0424062100898138,
                -0.2471657687275609,
                -0.24211878187634614,
                0.11607761611002243,
                0.14860990891541653,
                0.11527673127558088,
                0.15457457929083224,
                -0.20593855308100578,
                0.07488386090511132,
                -0.019528382786625963
            ],
            [
                0.14763693326920346,
                0.10020339895120647,
                0.1656603297667684,
                -0.20292026046926698,
                -0.17646123703265296,
                -0.16188917799226007,
                0.16324621274965034,
                0.1923213711908512,
                -0.10908123676761486,
                0.16046302403361343
            ],
            [
                -0.037661788770071224,
                0.049446044999941936,
                0.5672472575453603,
                -0.14588140205731095,
                -0.28806177238879765,
                0.1980650316590354,
                -0.2954779438910259,
                0.010243340857294636,
                -0.15807982519279332,
                -0.1850670869807053
            ],
            [
                -0.03957676477005407,
                0.12664419377365493,
                0.4740609117579703,
                0.871108646641704,
                0.15551853410224656,
                -0.45620675470768085,
                -0.6127362285412782,
                -0.23705518458853767,
                -0.053629692561312337,
                -0.06763378600696497
            ],
            [
                0.24081974592191824,
                -0.6480316403808853,
                1.156327332113375,
                1.0428116573683117,
                -0.8029369551332564,
                -0.27800901397147465,
                -0.2048678898341582,
                -0.08193613528586416,
                -0.10989311631451858,
                0.022993753261363877
            ],
            [
                0.031903953713228954,
                -0.94393630113782,
                1.1684228508698766,
                0.7555865149571386,
                -0.6139746737732438,
                -0.472586089300485,
                -0.4186079209226152,
                -0.24298612258647778,
                0.4857924058237332,
                -0.30585427309837
            ],
            [
                0.05360103489631462,
                -0.25847730979074357,
                0.5706957271116108,
                0.393538512588077,
                -0.31987946042873344,
                -0.22375926758076983,
                0.017661875791342947,
                0.24584989561627352,
                -0.1160884596371948,
                0.053208962169010554
            ],
            [
                -0.01639205852753241,
                -0.10000185376412928,
                -0.14650587161984763,
                0.15182389349192327,
                -0.2399656378770308,
                0.170890334568464,
                0.06941282304161123,
                -0.16194124035592505,
                0.2947331289981679,
                -0.18127418711602936
            ],
            [
                0.20433341521509388,
                -0.1713797085317273,
                0.10306198900368559,
                -0.06051433639758756,
                0.13196321650441178,
                -0.13644336596790005,
                0.16420941768982536,
                -0.11605012186247614,
                -0.2280416531217012,
                0.027166774555556845
            ],
            [
                -0.08000501532418018,
                0.062402476604636506,
                0.18926313795828553,
                0.03724486966279436,
                0.01845987267964783,
                0.1567440859932528,
                -0.09425239413148007,
                -0.06475483651418305,
                0.01053379524887807,
                -0.18525379904853112
            ],
            [
                0.055282620035328786,
                0.09696950565775837,
                0.18856636294452053,
                0.022497755023112256,
                -0.05990234898497603,
                -0.027775550788010778,
                0.06325677089459242,
                -0.12143896724767163,
                0.07387893617707107,
                -0.19481222321539118
            ],
            [
                -0.21675786733325655,
                0.14173098511135304,
                -0.129925839369523,
                0.04026578782763918,
                0.05729821866660408,
                -0.1363045231390063,
                0.14929398599642565,
                0.0704924989302428,
                -0.10559722367732104,
                -0.07095014626377812
            ],
            [
                -0.17146877373300273,
                0.05995069613474628,
                -0.19014914512967546,
                -0.08712021116697552,
                0.17180716048026032,
                0.15611041598740294,
                -0.1603586347976261,
                -0.22834796201288762,
                -0.24628035478689642,
                0.09947590394558342
            ],
            [
                -0.4031935357226614,
                0.4198887679783825,
                -0.3080663600221973,
                0.3023483589972452,
                -0.16905250946507525,
                -0.16772866947294152,
                0.07647891260048757,
                0.4485767089600577,
                -0.43180667977360176,
                0.07660623697811107
            ],
            [
                -0.5020335012739007,
                -0.42551468648089746,
                0.2519871386840374,
                0.5803013797384559,
                -0.5415456330323121,
                -0.06861002775151208,
                -0.042921404820061126,
                0.40215651631852967,
                -0.2997441633445539,
                -0.04980524957493923
            ],
            [
                -0.26555816215664135,
                0.5255577526523803,
                0.285744955175362,
                0.8326363560192035,
                -0.252821545585831,
                -0.283298842987688,
                -0.6725448345020427,
                0.34763087977908536,
                -0.608249763008591,
                -0.10955477347898528
            ],
            [
                -0.36560624764295874,
                -0.12241858929685769,
                0.3975138677450281,
                1.283350969425349,
                0.029439181950376855,
                -0.963944638506336,
                -0.8048756105676187,
                0.5659839486361226,
                0.23111742807928595,
                -0.3915097359012402
            ],
            [
                -0.1388103435953772,
                -0.32876628528984525,
                0.6193344561738737,
                1.5242646288676103,
                -0.10730221409921249,
                -0.6102247764317617,
                -0.5409501930516152,
                1.087985105151436,
                -0.31392319677980446,
                -0.41982383307968624
            ],
            [
                -0.23345781307364386,
                -1.4092207611248866,
                0.7762208484380836,
                1.4345210442700638,
                0.1047013371631329,
                -0.8281274975829233,
                -0.4609859096199205,
                0.1222774010306651,
                0.6996862155557005,
                -0.27004469069463044
            ],
            [
                -0.3200069079840923,
                -0.18906141496480944,
                0.532362347727833,
                0.9914096670197181,
                -0.18608715640340956,
                -0.6140574875671089,
                -0.39773322462815835,
                -0.22980064318005783,
                -0.20394353839860005,
                0.0612202305285855
            ],
            [
                -0.22186929020432683,
                0.021548713539745492,
                0.2217364031940881,
                0.0989492031520826,
                -0.0485557142832626,
                -0.16967696135422072,
                -0.18426004092184697,
                -0.21745839932700067,
                -0.007202581980418779,
                -0.06763181777042489
            ],
            [
                0.2661158788543355,
                0.1584736393787028,
                0.19019784091640415,
                0.013951778804286897,
                0.03425263681306084,
                -0.03920799377589283,
                0.10802957979672116,
                0.004136193769384638,
                -0.02056481651788016,
                -0.016944127003952873
            ],
            [
                0.13642161091743912,
                0.04207987305042083,
                -0.1304375690047152,
                0.05998313050773774,
                -0.2043092174610708,
                -0.17454325129529447,
                -0.20135857411007002,
                -0.11424904910151805,
                0.17373761208510868,
                0.005768914389776229
            ],
            [
                -0.05236024320112096,
                -0.00041650825024281313,
                0.11505709516452826,
                0.224055664782895,
                -0.19452261792522155,
                0.2147938539821567,
                -0.03842334148446842,
                -0.12138392154165563,
                -0.035864034769053844,
                0.09436308106675806
            ],
            [
                -0.1954789997952029,
                -0.04207440672371531,
                -0.03130517135495414,
                -0.07980264004038269,
                -0.22608484705500032,
                0.12682181681693083,
                -0.15660369459730597,
                -0.21453423691420512,
                0.1516333970144064,
                0.19522507897533134
            ],
            [
                0.01903245620393198,
                0.14589709911513957,
                0.1820047119832402,
                0.35688329428506105,
                0.24320427639929207,
                -0.4815331883178732,
                -0.039195715096211906,
                -0.2561768846343168,
                0.1385969875389395,
                -0.2776406388380609
            ],
            [
                -0.5396253956070528,
                -0.21355997115667205,
                0.02696813682161053,
                0.28771980461940166,
                0.28002276788100433,
                0.2322769689211752,
                0.1169760141151212,
                0.7921153152266955,
                -0.14048250728672815,
                -0.5650586250820158
            ],
            [
                -0.6422323931616193,
                -0.04719143339829002,
                0.3002792566388431,
                0.6616329991755381,
                -0.18240609997924195,
                -0.6886633951463587,
                -0.2570306988514554,
                0.5946400166923306,
                0.7130997060599948,
                -0.3923375110488069
            ],
            [
                -1.1509111341074818,
                0.12528794328257503,
                0.5262636329860203,
                0.5160309203948136,
                -0.5420770149577421,
                -0.42247307020725816,
                -0.7675218857451381,
                1.2134106930400255,
                0.6341122339592641,
                -0.45845669630335656
            ],
            [
                -0.7097963597296439,
                0.7650455688415841,
                1.0870981208994062,
                1.0629771581271035,
                -0.1379929729677959,
                -0.6881676922406215,
                -1.4431992161339562,
                1.3653670805442566,
                0.36030859573204804,
                -1.7981432902993857
            ],
            [
                -0.3485207828515643,
                -0.06433592453477095,
                1.3233609769081447,
                1.7971772571524154,
                -1.1531162179872023,
                -0.6942334260227777,
                -0.9830297480351382,
                0.5459394494118848,
                0.31110845702419737,
                -1.196545506348912
            ],
            [
                -0.6120151192841077,
                -1.049037308741794,
                1.217821554996474,
                0.9664889764976776,
                -0.679989858516513,
                -0.5629962938599015,
                -0.5620052270528721,
                0.8734393360683423,
                0.276620167183584,
                -0.3566316761233244
            ],
            [
                0.4010059940100301,
                -0.43201843281569047,
                0.08865261866831062,
                0.07722482754652937,
                -0.8551975974267011,
                -0.19040480635422777,
                -0.47316198108506236,
                0.5851373722492228,
                0.6294649222957323,
                0.5395312801477755
            ],
            [
                0.5878446031060482,
                -0.027195434842772308,
                -0.1493492773960995,
                -0.6459087958286918,
                -0.46357353341889784,
                0.48461774436636407,
                -0.14128184064738236,
                -0.14536526757078005,
                0.27731454257968796,
                -0.4041846772084973
            ],
            [
                -0.3639570804530145,
                -0.012583658825512073,
                0.28728365849406573,
                -0.18246398746339265,
                -0.44858862914173714,
                -0.2217844006564798,
                0.25903808609654616,
                0.30878062098959347,
                0.003627894288084037,
                0.04720200844521605
            ],
            [
                -0.02781600305659783,
                0.1745501274617932,
                0.07414914409083583,
                0.17276879976548537,
                0.02241708979884953,
                -0.646090591261268,
                0.3746131678967659,
                0.10796144406343884,
                0.07476497499503429,
                0.17553158066842467
            ],
            [
                0.13593330935712739,
                -0.10829489447789543,
                -0.17287004693054925,
                0.09323028872158537,
                -0.03681448719242847,
                -0.22858251925545298,
                0.08248543343320774,
                0.0751536516428079,
                0.1324954157832336,
                -0.09541558242511887
            ],
            [
                0.19467531485015707,
                0.14477228003307036,
                -0.15634350709830938,
                0.21958530411230498,
                -0.12300609958984689,
                -0.1631195454727326,
                0.12860230105539522,
                0.07368878162954254,
                -0.06504054877601242,
                -0.07872626855927733
            ],
            [
                -0.0600870407289024,
                -0.0663391534677368,
                0.14296273435619009,
                -0.1551559029665516,
                -0.37508891665732447,
                -0.31036139084694797,
                -0.08649761909494107,
                0.09892001651667645,
                0.3834036812140084,
                -0.42315338552004245
            ],
            [
                -0.4779170040222388,
                -0.07518044931517628,
                0.284362332442946,
                0.2710138047897024,
                0.15463225047325627,
                0.3844727485017741,
                -0.5212391233423468,
                0.057882952036739654,
                0.40543807191714964,
                -0.258279926113457
            ],
            [
                -0.31539057465459996,
                0.29617327657606496,
                -0.22621216133868238,
                0.7091993815240508,
                -0.49530808762717554,
                -0.00035000384120011585,
                -0.291925216879213,
                0.3096023638431997,
                0.0019009848130933287,
                -0.22853408198090866
            ],
            [
                -0.7111068698911067,
                0.12315876001030929,
                0.9569283515839204,
                0.8890694201376022,
                -0.7108433446571664,
                0.22518063222036444,
                -1.4059822511836155,
                1.065090507094692,
                0.07401448773512109,
                -0.03431083312590884
            ],
            [
                -1.3688715001608525,
                0.6478154231201931,
                0.8324088974852731,
                1.2811159976681195,
                -0.6331632156787487,
                0.07129432883990627,
                -1.6132045132450934,
                0.4276200749667229,
                0.9179588871881186,
                -0.34419069144402287
            ],
            [
                0.07632256731395731,
                -0.10737814817093218,
                1.1912869819242362,
                0.8948423332377534,
                -1.1641401710295551,
                -0.2671326706690763,
                -1.468018414016907,
                -0.09002988583082165,
                1.2290009887193933,
                0.03154145283770344
            ],
            [
                0.47843544739026855,
                -0.46994277299455567,
                1.605520423967647,
                0.43350627871326813,
                -1.2164062885485993,
                -0.6120113582818693,
                -0.6221971336448278,
                -0.11789254498553398,
                -0.1693525718144918,
                0.4970952148325712
            ],
            [
                1.0169980073796716,
                -0.5098129542706095,
                1.301315708440366,
                -0.5442409064487288,
                -0.9937233709340317,
                0.24704398795869434,
                -0.37886850059457855,
                -0.544199436957697,
                0.24971043424983488,
                0.21544974089448438
            ],
            [
                0.5683892357029668,
                0.7327659654484671,
                -0.06991481974790138,
                -0.7096330216187677,
                -0.34738773622080893,
                -0.2939979526480646,
                1.1580423988496382,
                -0.5082643233030288,
                -0.23185479155907132,
                0.39265331064764647
            ],
            [
                0.9360734827435817,
                0.17482025737761203,
                0.4342095315280083,
                -0.8488585753799914,
                -0.15052157691570672,
                -0.5820825638660359,
                0.32520069946673885,
                -0.033530758335442765,
                0.15983154284475085,
                -0.055002205359217016
            ],
            [
                0.12676947743021644,
                -0.0036739272048639596,
                -0.06564239409868873,
                -0.10899150683925891,
                -0.09723994837358618,
                -0.30735908318041216,
                0.6844243111497911,
                -0.19417468380902503,
                -0.16824247883363122,
                0.677174354595433
            ],
            [
                -0.04197751423594352,
                0.17188719657127846,
                -0.18453783965361295,
                -0.0643389330764129,
                0.24493470871916878,
                -0.45766661027033706,
                -0.07807925015898624,
                -0.23658600581236133,
                -0.14064215185118933,
                -0.11863494249396067
            ],
            [
                0.22390113609322834,
                0.08973762317833826,
                -0.23835190089624417,
                0.07804169384937737,
                -0.049646495658197336,
                -0.15312502881469417,
                -0.09220150019674722,
                0.034203056995926025,
                0.03108854231182817,
                0.18383146470298117
            ],
            [
                -0.08496002062401661,
                -0.300171151398787,
                0.029512498829595727,
                0.1940583730691971,
                0.13499168468210823,
                -0.046508635112588084,
                -0.1936090899763566,
                0.11460129094937344,
                0.08620616858277855,
                -0.023645104557209626
            ],
            [
                -0.07952287834651244,
                -0.16431719773339043,
                0.24698390142785073,
                0.4978843901772882,
                -0.14463529615212442,
                -0.3561407405862676,
                -1.0302078833602788,
                0.6730370944386184,
                0.684475383895683,
                0.21154932003444316
            ],
            [
                -0.40496560073080157,
                0.02662036077856069,
                0.12808360244185024,
                0.2455295077423518,
                -0.34083468500389286,
                -0.32457383877369567,
                -0.11093214219878478,
                0.11589356213643104,
                0.7951639122222677,
                0.25115641389011617
            ],
            [
                -0.3276829605531162,
                -0.19149689802975697,
                -0.013920082932748015,
                0.4045100754503338,
                0.7773404125235533,
                -0.11539819864977949,
                -1.156345588914049,
                0.42561273783053455,
                0.42818456434605817,
                0.27866096751192737
            ],
            [
                -1.2966541249855692,
                0.8939793197470518,
                0.1278188592760512,
                0.8565505014910589,
                -0.8348911168473001,
                -0.04123810158755388,
                -2.089299248211141,
                0.7271793593449128,
                0.874903017434954,
                0.6124326842180194
            ],
            [
                -0.383652435263467,
                -0.9013629275402577,
                0.80289451284446,
                0.851937444417739,
                -1.0607737971331916,
                0.18445242967335346,
                -1.2641604630320509,
                0.379092403175846,
                1.1775889896272684,
                0.590662033808822
            ],
            [
                1.2618366907471,
                -0.8635512288664151,
                -0.4710932314887133,
                0.20798530251147587,
                -1.0008300367059122,
                -0.03304372528240886,
                -1.0995197383195598,
                0.19684619763632474,
                0.5425117431939085,
                0.3743788381793894
            ],
            [
                0.4876456269551805,
                -0.0935503589975802,
                0.3677398853934756,
                -0.5180296356076931,
                -0.17517278216353474,
                0.26369024968156357,
                -0.5258220796485206,
                0.6599787752576011,
                -0.2489896344358749,
                -0.3439338571593825
            ],
            [
                1.0866021271919888,
                0.483747899148377,
                1.0148899287626085,
                -1.082383154360286,
                0.373771941470416,
                0.6162762522612278,
                -0.1676342705173738,
                -0.4176117072303438,
                -1.1057780771065349,
                0.2325920086178711
            ],
            [
                1.647185571797303,
                0.08404630967037488,
                0.2572000008205479,
                -0.9503270208582094,
                -0.037925519541349165,
                -0.1569664563600183,
                0.4071298489360216,
                0.08413898000926694,
                -1.2567862257937508,
                -0.08187227704248368
            ],
            [
                0.9102292035698704,
                0.23785864331241377,
                -0.005815538485198008,
                -0.19079148527951365,
                -0.1272028547133539,
                -0.41562736726724825,
                -0.36272497778702434,
                0.1980836228142256,
                -0.07685805678776367,
                -0.007402928944964723
            ],
            [
                0.25098074185145436,
                0.27974677641224405,
                -0.061849520961810525,
                0.2216748302026479,
                -0.07025787016157393,
                -0.2002867187991627,
                -0.09197927620021862,
                -0.018321199618265855,
                -0.2764021161955173,
                0.3033439774456554
            ],
            [
                -0.17748391531211455,
                0.02024907211477443,
                0.027855750426825452,
                0.1497635086885362,
                -0.029532308660525797,
                0.1391098091025318,
                0.1417796560589307,
                -0.18921788302905304,
                -0.1195907205087306,
                0.017625795385203508
            ],
            [
                0.2092155753843,
                -0.21187397771375557,
                -0.29242115925118506,
                -0.32855865835483394,
                0.2140618668331663,
                -0.30380182872098993,
                -0.22450199883403668,
                0.34091651396237355,
                0.3366611731872099,
                -0.06325753904058691
            ],
            [
                -0.09311160826367855,
                -0.08508208147563166,
                -0.3918643708486869,
                -0.3003341234516421,
                0.4866662867470207,
                0.059494630658961115,
                -0.22713487092816642,
                -0.048341298943012256,
                0.3255489297469797,
                0.5217250431322824
            ],
            [
                -0.6335005925956938,
                -0.6716410996180628,
                -0.3892013060846063,
                0.1146554420618792,
                0.7379154676248548,
                0.04106238863153974,
                -0.4665583102580562,
                -0.16364535550950868,
                0.30485448549510086,
                0.8374979201991708
            ],
            [
                -1.3875967121553232,
                -0.3281748593544218,
                0.14447034245258128,
                0.2698101870035908,
                0.3480628459852118,
                0.6568677803358574,
                -0.6709837247893888,
                0.48530207053160257,
                0.44037628333622214,
                0.2379343623298297
            ],
            [
                -0.4862747890752919,
                -0.2187469777359238,
                -0.31424981737104823,
                0.8074963787457583,
                0.33904254260254846,
                0.42422031163390156,
                -1.2615532115313104,
                0.8507857508427255,
                0.6714950163921565,
                0.31581865146472093
            ],
            [
                0.025897476029220302,
                -0.595593660173539,
                -0.7127975231199709,
                1.2737250382371519,
                -0.26863432912198904,
                0.19768528792963533,
                -0.9842198006787547,
                -0.5848609518444042,
                0.027393730971971612,
                1.5521585745328454
            ],
            [
                0.7332210607202764,
                0.11296431751801315,
                -1.3712143942184856,
                1.4776281011699104,
                -0.49600552960815253,
                0.18156598950158986,
                -0.7952585573776497,
                0.4036547886583561,
                -0.6858343000201291,
                0.4706338440332945
            ],
            [
                1.0754564310055614,
                0.194636114797046,
                -0.6748319604951633,
                0.38788651432521315,
                0.4349777578244655,
                -0.40725170781582426,
                -0.6661596841951488,
                0.1712017081118169,
                -0.5770639538461263,
                0.11519092542231692
            ],
            [
                0.8275177488770166,
                0.637525556174515,
                -0.2988891131686687,
                -0.5151835711731203,
                -0.08865684302590623,
                -0.09407290128568054,
                -0.0050103686553729454,
                0.15887905179116396,
                -0.7556723159460952,
                -0.05205704554819479
            ],
            [
                1.3770874925814434,
                0.5269419286358124,
                -0.3687697599919334,
                -0.18815590802431842,
                -0.25571996330133767,
                0.11395366132205945,
                -0.30234118321825026,
                0.22539007946945108,
                -0.09908423430099197,
                -0.20363957067319755
            ],
            [
                0.7474111641214238,
                -0.15004980594905148,
                -0.5857899598449271,
                -0.2098987683144252,
                -0.2886397981522881,
                -0.42657959306419124,
                -0.05845075247476993,
                0.3099174873209833,
                0.3389917881279827,
                -0.32862161692968395
            ],
            [
                -0.2854158913477919,
                -0.03646527883809161,
                -0.1541429958143686,
                -0.16607968186809974,
                -0.10138641656337902,
                0.7597265229644032,
                -0.2267475614148888,
                0.2173011017720102,
                -0.31307789717229967,
                -0.04689779054736074
            ],
            [
                -0.1423971767415114,
                0.07695938052765511,
                -0.14955886190924467,
                0.17050340118152532,
                0.14574890769963023,
                -0.23130220118363196,
                0.14315571233998672,
                -0.115820841742345,
                0.2041703176934784,
                -0.24720151495947312
            ],
            [
                -0.4315715538467281,
                0.23603197501895565,
                -0.08521778042521398,
                -0.145673139036387,
                0.4721560707104636,
                -0.5678267028041516,
                -0.2118609306476879,
                0.3571523647083869,
                -0.06130401971702054,
                -0.11513226028845906
            ],
            [
                -0.4211843297043845,
                0.11070232825008024,
                -0.2696183652639744,
                -0.33168266322331497,
                0.8434846392077883,
                0.30464336462599384,
                -0.3548770879598413,
                -0.4649963077568414,
                0.499152513434652,
                0.5289544540606762
            ],
            [
                -0.5916907079676578,
                -0.7621746512320081,
                0.11004090523917699,
                -0.5691313116853994,
                0.05037214553531331,
                0.750650210462833,
                0.19277179922998972,
                -0.31717441243469563,
                0.32970809193820916,
                0.13056654934280781
            ],
            [
                -1.071032250410919,
                -0.15766389658148036,
                -1.501726811943221,
                1.2621323154923574,
                0.760398651015042,
                0.772593615826245,
                -0.22014548185603128,
                0.3298885652113233,
                0.34007861086619656,
                0.31855301934100555
            ],
            [
                -0.8373833473064652,
                -0.4447176704879641,
                -2.0649688719742683,
                1.1702848976766134,
                -0.051272406019100394,
                0.8760651511841869,
                -0.6025619724178819,
                0.7910225029269708,
                0.6221902800647964,
                0.7481426525184006
            ],
            [
                -0.41191929218836426,
                0.27290359422238225,
                -1.470396977598935,
                1.35613320293607,
                0.06779156779292311,
                1.089637707532653,
                -0.3505592121906754,
                -0.4313382757428438,
                -0.8802135236913161,
                0.8421990111011094
            ],
            [
                -0.6483088659691283,
                0.9149799403246004,
                -0.3706433607587535,
                1.531356134957524,
                -0.0064107809307023395,
                0.09015015082838082,
                -0.7798222056174713,
                -0.9795365763929528,
                -0.6669531279710001,
                0.8010900492672434
            ],
            [
                0.029930825742262662,
                0.5703601710667343,
                -1.814212723702454,
                -0.24450749952921247,
                -0.2976847231479309,
                -0.5932427149603368,
                -0.20658881544061652,
                0.7057894994421856,
                0.4502776961443869,
                1.655996710149633
            ],
            [
                0.7555182367290447,
                0.38265133109117133,
                -0.7774353845578209,
                -0.08893614987517506,
                -0.5815134704644229,
                -0.0033728794414339307,
                -0.10310092067184584,
                -0.35674374372296386,
                0.1804135717786039,
                0.7525097997584306
            ],
            [
                1.0992839647576573,
                0.1719812486143635,
                -0.8592660821665129,
                0.016922574157725315,
                -0.286858873029847,
                0.3444656263292344,
                -0.054315720904982386,
                -0.44231511862278305,
                0.6392976470594608,
                -0.3635602448765102
            ],
            [
                0.17490816327464784,
                0.35750595797134305,
                -0.6381055526481989,
                -0.03717300735285004,
                0.02077454789396353,
                0.019914785231083736,
                -0.17406145816094912,
                -0.3302585573344532,
                0.08982408890674685,
                0.24230215767244526
            ],
            [
                0.2711604075534846,
                0.08505555235382173,
                -0.4035724951494496,
                -0.23086468353020345,
                0.06947496741376857,
                0.10353523073504682,
                -0.2215104618331938,
                0.07394124368089669,
                -0.2240177112182978,
                0.14467575877554473
            ],
            [
                -0.060386196684451436,
                0.10036994970365305,
                -0.07274709203318389,
                -0.020463437651041763,
                0.14797746652604862,
                0.21927567397655706,
                0.010979326608379523,
                0.17502493079048403,
                -0.08584318078689435,
                -0.14053391477018057
            ],
            [
                -0.6236333644370056,
                -0.21605787777663993,
                0.6889539448737123,
                -0.10650300295971857,
                0.07158807651358065,
                0.09816725204935754,
                -0.03595601975021079,
                -0.030967772688664637,
                -0.1236160010516303,
                -0.487913118612429
            ],
            [
                0.662384969170696,
                0.14365785782278068,
                -0.07380120753852075,
                -0.8661130956683295,
                0.27469892989931904,
                0.441826450377114,
                -0.13992539206778992,
                -0.06615396842303567,
                0.026493263916046766,
                0.3828018205891579
            ],
            [
                -0.14720114614200108,
                -0.6425659367927627,
                -0.5505695604013515,
                1.0299602200853106,
                0.16749219661155226,
                0.0832448480592051,
                0.36900998022184917,
                -0.14867819049588485,
                0.05350651325317787,
                0.48273116305407815
            ],
            [
                -0.14806321382884302,
                -0.2205410852773774,
                -0.5784451606601144,
                0.5942771645034023,
                0.017929831760917836,
                0.8205618517403144,
                -0.5022621649044797,
                0.021134022393693455,
                -0.18081603837586008,
                0.28843321631458013
            ],
            [
                -0.6816932076647583,
                -0.9244387646595653,
                -1.1081016884538086,
                0.8505210390511717,
                0.014166762026919433,
                1.2378883537506211,
                0.9411178528827121,
                -0.2656525675079534,
                -0.3805587842430193,
                0.8325599860502653
            ],
            [
                -0.09271034376233894,
                0.6249898523396369,
                -0.6728879117469424,
                1.5688443397326044,
                -0.3830986147116442,
                0.27705536877017073,
                -0.8210331359144529,
                -0.5168899172409184,
                -0.5480987166804603,
                -0.10141745455473913
            ],
            [
                -0.5547751248289624,
                1.0625632437286476,
                -0.6352999579094457,
                0.490479566925709,
                -0.2903435099310352,
                0.15391118622785255,
                -0.5655838401232443,
                -0.5831257985983794,
                0.9435452173680812,
                0.37542867561972754
            ],
            [
                -0.6637032308875068,
                -0.14300801893030954,
                -0.9705885227682731,
                -0.08569882305155968,
                -0.2634177923402336,
                0.020048150617000653,
                0.3038538305910005,
                -0.06380903474577891,
                0.6544582887950077,
                1.1473447688354552
            ],
            [
                0.005000487700548901,
                0.3532670599957463,
                -0.8966818447946088,
                0.7584951747685764,
                -0.7679149833980295,
                0.4456103397197923,
                -0.04457370234537505,
                -0.3387904516920389,
                0.4031273223372189,
                0.3125799557850515
            ],
            [
                0.5237823925935245,
                0.02799088325392848,
                -0.5620645894923826,
                0.6474549487224396,
                -0.5233307249509752,
                0.3534890738505632,
                0.140267537099033,
                -0.37426519112612583,
                -0.3307195836650451,
                -0.17600908709823965
            ],
            [
                0.1045520887754701,
                -0.07033850705244682,
                0.25156086184966203,
                -0.15381981604566913,
                -0.092527845645004,
                0.115222582127556,
                0.22798135735826303,
                -0.5538582591057887,
                -0.03682042174459005,
                0.6969280924607981
            ],
            [
                0.05519591572952811,
                -0.07786104697540615,
                0.2997616873658643,
                -0.0031688201766674213,
                0.25875717644533525,
                0.03159432882988846,
                0.19180934505226283,
                -0.21369539519700761,
                -0.04655424185041399,
                0.16222551915311811
            ],
            [
                0.2673007919502752,
                0.1131208670681372,
                0.2447244765187387,
                0.14348358181178741,
                0.02479267444113233,
                0.2303412983447258,
                -0.11466061705866926,
                0.10796489881668395,
                0.12094352281876075,
                0.04578350246880633
            ],
            [
                -0.15420476415186407,
                -0.3675237844147339,
                0.6121129674223602,
                0.335660882137098,
                0.40385487031718276,
                0.42056993787348945,
                -0.3261168603475139,
                -0.3072742619736039,
                -0.0833103529882312,
                -0.46591715914126525
            ],
            [
                0.20728080692337064,
                -0.01776100793842944,
                0.2379353233883695,
                0.4870927208773493,
                0.08640961737491254,
                0.3199902604036631,
                -0.17810790070618807,
                -0.6239966390517514,
                -0.08061577528409213,
                -0.459734097934655
            ],
            [
                -0.34169266088172007,
                0.28293872058598596,
                -0.04818763567637785,
                -0.048751435173968224,
                0.9901023395576423,
                0.5884617865580917,
                -0.03956126424194218,
                -0.6820335639406017,
                0.060516743048041444,
                -0.2708487138956855
            ],
            [
                0.14453435837203898,
                -0.32529970447880174,
                -0.3745626888446448,
                -0.022579954823228953,
                -0.2241959785474955,
                0.054375241162373224,
                0.39176516716599413,
                -0.11811672012663345,
                0.11363652958225257,
                0.683950892524829
            ],
            [
                0.7268742811357753,
                -1.3213511302223528,
                -0.5126660356303334,
                -0.2089299009713954,
                -0.019802815324820453,
                0.02024131006715766,
                0.9359375519284386,
                -0.7009887799539939,
                0.04645053388404046,
                0.42955727196486093
            ],
            [
                -0.40371520135791056,
                0.45220568575734793,
                -0.2522051026531345,
                1.376013724116473,
                -0.6258629741133741,
                -0.3486118373829713,
                0.9298423526637757,
                -1.2054977717614745,
                0.39162720061009887,
                -0.12803708126536856
            ],
            [
                -0.5538926706206849,
                0.959448195929133,
                0.197714228287489,
                0.539813048007913,
                -0.908247541664583,
                -0.02514266141610486,
                0.09851217598123782,
                -1.1510800385584132,
                0.725531130912654,
                -0.10436015385178278
            ],
            [
                -0.30904253705701534,
                -0.07500184272795868,
                0.5328458355895661,
                0.8298957636714919,
                -0.3661861842859102,
                -0.3818472597320259,
                -0.7073683313416066,
                0.41898705710342965,
                -0.17710075336924186,
                -0.4214138554150505
            ],
            [
                -0.5405461596412803,
                0.3669399854578038,
                0.5370009268529627,
                -0.2810573890565601,
                0.08602808557585939,
                0.15100777447070438,
                0.20665818605461003,
                -0.3586901582401158,
                -0.07090916176750808,
                0.40066392953198465
            ],
            [
                -0.3363406631897366,
                0.013227022181278554,
                0.603575591028089,
                -0.4641382800651272,
                0.16805617469195475,
                0.13354561573914875,
                -0.23313898214549816,
                -0.3770624903641214,
                -0.005249648992746945,
                0.5356808631953507
            ],
            [
                -0.3367810190344525,
                0.07485440518955623,
                0.8435434275090306,
                -0.7292010347606818,
                -0.12029173462520121,
                -0.560949115453573,
                -0.0885260950096362,
                -0.19653507411944554,
                -0.5156795384404488,
                0.9708477778681205
            ],
            [
                -0.33705826206294465,
                0.38064273218335837,
                0.06346926739463048,
                -0.2736623082545691,
                -0.14637032400537103,
                -0.32186365478432916,
                0.2385155609090355,
                0.1704716829477313,
                -0.24853641996614964,
                0.044254905112162596
            ],
            [
                0.06254722896683941,
                -0.0921249022363385,
                0.08832601664994265,
                -0.07931672691114418,
                -0.24183112972162532,
                0.1565497894540112,
                -0.21718465472427076,
                -0.19575486690410612,
                -0.10942679959856703,
                0.18225385252801526
            ],
            [
                0.045675578212890124,
                -0.026542910206902498,
                0.4644979942904453,
                0.38889180103811194,
                -0.01420400513713908,
                -0.15377479608486533,
                -0.05423127126487013,
                -0.4125816785184996,
                -0.3976477791240142,
                -0.41493702309195546
            ],
            [
                0.3262226438090265,
                -0.1776098282808526,
                0.012848986451822171,
                -0.05664973206061701,
                -0.11276121285112302,
                -0.2262455720779235,
                -0.373172533232677,
                -0.24066577594333574,
                0.0775898996805375,
                0.2584805136049767
            ],
            [
                -0.0716243153478407,
                -0.055422708956952636,
                -0.26238309740957466,
                0.6754700242800491,
                -0.6305667654524342,
                0.5665581872386259,
                0.3935425084824688,
                -0.8032785331984026,
                0.3794429210638861,
                0.12059457508278774
            ],
            [
                0.4178785290195368,
                -0.699814086737635,
                -0.16951139328416437,
                -0.1299164915675521,
                -0.5154213092536863,
                0.20679150292660556,
                0.5353052009331338,
                -0.39172453373984206,
                -0.09670259251291927,
                0.2935818931270924
            ],
            [
                0.8113753514760853,
                -0.6194969306590784,
                0.5446548094667132,
                -0.12605305198384353,
                -0.6289250040773002,
                -0.01736765777083383,
                1.2438733510210271,
                -1.0798867403324626,
                0.36764305189561075,
                -0.08909154531985478
            ],
            [
                0.39386304439451253,
                -0.17721876826495345,
                0.19613615542235718,
                -0.5859753192797483,
                -0.1351038504296812,
                -0.05724590343313639,
                1.1158939093675546,
                -0.6707429157686506,
                0.3166154206460666,
                -0.35686000068137086
            ],
            [
                -0.2637263130514442,
                -0.22064931853494435,
                0.29333881412380186,
                -0.41335551091527417,
                -0.37887416678229746,
                0.2405582954739802,
                1.2089560380382116,
                -0.3375403962129366,
                0.7992808201418643,
                -0.6646398842114685
            ],
            [
                -0.12233138043268914,
                0.30556832820577795,
                0.6693108923164771,
                -0.06337646505997521,
                0.49625691169871106,
                -0.8774641870296999,
                0.1962715779576491,
                0.3997589262146421,
                -0.7185675175138797,
                0.3671967679437676
            ],
            [
                -0.6917489425381027,
                -0.2066874440702143,
                0.8409562301232717,
                -0.6511054034892458,
                1.3065903649455564,
                -0.6499308252482594,
                -0.1550063240381376,
                0.34511523251167375,
                -0.5326406028371312,
                0.15473728500648706
            ],
            [
                0.012686369684896474,
                -0.29178748757352274,
                0.979831684528189,
                -0.48694999522739135,
                1.0070421329966395,
                -0.6100256215116607,
                -0.5018326296540772,
                0.11715331687927595,
                -0.31984236118259207,
                0.28862339442729634
            ],
            [
                -0.5324568865946657,
                0.04202336768541826,
                0.4528499657987701,
                -0.6925321636372714,
                0.6139791565259928,
                -0.6273032509774361,
                -0.4650706672998769,
                0.2505188802762843,
                -0.2001864895368419,
                0.38584972969198367
            ],
            [
                0.04970002300425227,
                0.4927031949006654,
                -0.15566337269083758,
                -0.05946776331192308,
                -0.2456797139613889,
                -0.14886990822891363,
                0.10992282782996644,
                0.19504769613823186,
                0.05174112166994891,
                0.2272129372044655
            ],
            [
                -0.2125784489906845,
                0.06812330655520941,
                0.13285120655063198,
                -0.06313876769960215,
                -0.11971488926704953,
                -0.1583329280843241,
                -0.17510569076850607,
                -0.18446402337846232,
                0.051992990706851844,
                -0.05011231227986162
            ],
            [
                0.3069447389951859,
                -0.15900796025809863,
                0.17431254872612606,
                0.4009866220312758,
                -0.2746762204563078,
                0.09154137932627633,
                -0.13775436331711297,
                -0.2944266100186635,
                -0.5805666785023594,
                0.13643508546860203
            ],
            [
                0.23073129492914354,
                0.6734018817971624,
                0.4345726773570044,
                0.5518229096124202,
                -0.5651430748182658,
                0.591448120384005,
                -0.3105467079729204,
                -0.35865549477755787,
                -0.36043968720946173,
                -0.350660576590273
            ],
            [
                0.5314435841326869,
                0.02110501894020729,
                -0.09902316390290251,
                0.06628270940444117,
                -0.4128083831461865,
                0.41401983379823676,
                -0.1959399411885079,
                -0.7312697799461169,
                0.6319951011030267,
                -0.609462774156059
            ],
            [
                0.7667563795449968,
                -0.056357793712564705,
                0.4585684320264843,
                -0.41949483520248254,
                -0.6496665921140115,
                0.8507846964377043,
                -0.13862019792816146,
                -0.3680662800408961,
                0.24503188233286577,
                -0.3967121635723859
            ],
            [
                0.2970453645180293,
                0.3776874661713918,
                -0.024996240906521337,
                -0.5972737591263243,
                -0.5274429585728649,
                0.010857061086401248,
                0.3233600594346399,
                0.2870933870359143,
                0.001423415978737874,
                -0.6552620225185818
            ],
            [
                0.7472259890803199,
                0.6444275860567743,
                0.035646927707588205,
                -1.4156141415447545,
                0.23835150269031388,
                0.2635974947437499,
                -0.03361961720146386,
                -0.04211788415267718,
                0.38466478962861717,
                -0.8390930126933664
            ],
            [
                -0.3214412260560127,
                1.407697382716671,
                0.1956162438982285,
                -1.2650097105553821,
                1.1066110068734154,
                -1.2146085759537093,
                -0.6302687404420683,
                0.42420755674425004,
                0.2570187542558873,
                -0.02824895640678068
            ],
            [
                -1.2252718070976993,
                -0.04233792001100784,
                0.09963753746223758,
                -1.4199412089030212,
                1.7153409084866573,
                -0.9704930723055003,
                -0.2647925113343528,
                1.0011991178661042,
                0.18768099220882828,
                0.36157832669751516
            ],
            [
                -1.5782064682020989,
                1.2697246070507335,
                0.8449984057808294,
                -1.0317920889219339,
                1.0961769130887808,
                -1.1909667871779208,
                -0.35175714565508354,
                0.39020874452998333,
                -0.06479290234893993,
                0.5277632012207518
            ],
            [
                -0.7669540695503043,
                0.2669956632829858,
                0.7804786289662112,
                -0.5754568949213342,
                0.7151292601132939,
                -0.6820571908003725,
                -0.19943583782858385,
                0.13927333111856469,
                -0.6363839293079854,
                0.412337846876498
            ],
            [
                0.04443852587694252,
                -0.16369409589109593,
                0.15689193215348607,
                -0.5945327774625667,
                0.4864827519378397,
                -0.2603437810323375,
                -0.28817188142440026,
                -0.04079803721096833,
                -0.11633143086266926,
                0.20393205188172897
            ],
            [
                -0.04799360247573543,
                0.13386720630528182,
                -0.09148769766622067,
                0.18208274793134957,
                0.17947868049321086,
                -0.09023012669978689,
                -0.36080196354031885,
                0.11229729152903292,
                -0.189160024709547,
                0.07473059680938732
            ],
            [
                0.07777675296170446,
                0.16759449101402296,
                -0.02685845124442749,
                -0.14228515224719562,
                -0.01469559706014158,
                -0.2274553980828583,
                -0.1911414067911724,
                0.1311081531800859,
                -0.3257554782600639,
                -0.18163207060788736
            ],
            [
                -0.11444934813464451,
                -0.1172985436209697,
                -0.2914167640518169,
                0.04776075877592345,
                0.2322608157980795,
                -0.09451398212425136,
                -0.05715105741053037,
                0.18107753181873443,
                -0.17587488646333846,
                -0.09108498678840886
            ],
            [
                -0.15246258981523259,
                -0.06882035958278838,
                -0.5434053538148547,
                0.42872092275719603,
                0.2133335188899236,
                0.15819124194878428,
                0.06825686006602269,
                -0.11903866353641444,
                -0.19319557055306374,
                0.30274665210242835
            ],
            [
                -0.19642033905226738,
                0.2048344095165406,
                -0.325167925549128,
                0.5421376310608781,
                -0.7206778022203181,
                0.3815313819154437,
                0.08862394852667704,
                0.44113497834790155,
                0.10739479944825492,
                -0.05580324279704521
            ],
            [
                -0.19450994460013052,
                0.5469099047299486,
                -0.7963771200892827,
                -0.1409634410328305,
                -0.056495371210864995,
                0.24691596217756137,
                -0.03258295343759448,
                0.5261224932786949,
                0.28908310748739446,
                0.07491860389958083
            ],
            [
                -0.5262127591268488,
                0.16185364198516336,
                -0.27615144057222885,
                -0.6905499549895519,
                0.6978852255345201,
                -0.002030161081503097,
                -0.21384981706999953,
                0.5099434263963587,
                0.11293951309296812,
                0.1878378660030606
            ],
            [
                -0.32750387521258967,
                0.06384835265971489,
                -0.14276019972787826,
                -0.6106643154438867,
                0.7795229587249681,
                -0.1712134406884468,
                0.004057542715188283,
                0.5959079265782457,
                -0.01689090969016098,
                0.41481875355909864
            ],
            [
                -0.38739643481378105,
                -0.1519049255598357,
                -0.1337159538726481,
                -1.3220662747088276,
                0.8407395028007799,
                -0.4847194140121807,
                -0.2557935436457058,
                1.1198897542381632,
                -0.172669381894108,
                0.3479814376210577
            ],
            [
                -0.873670637694586,
                0.3063004828846776,
                -0.7340928394463259,
                -0.9140058703537733,
                0.4271159632173819,
                0.09194209266561112,
                0.07170482947453688,
                1.0271922326246645,
                0.11616648369778976,
                0.8519651188924092
            ],
            [
                -0.10918122763397309,
                -0.14343130021873635,
                -0.40160046573827046,
                -0.12024898350227074,
                -0.4670987791723121,
                -0.3628583846626958,
                -0.31465614248321416,
                0.809238186184104,
                0.10366827807709415,
                1.1281245775876043
            ],
            [
                -0.3831520022766243,
                0.14275686127369464,
                -0.2235224169063039,
                -0.30207348263030637,
                0.2649463468164875,
                -0.07222191977009479,
                0.1927070687714873,
                0.19040459126805095,
                0.013939669977083709,
                0.8369152379155862
            ],
            [
                -0.12489615916987074,
                0.007391230265461169,
                -0.08486512143351012,
                -0.05274750438432647,
                0.3786165605483644,
                0.2110204752454474,
                -0.15085695573131605,
                0.4218164856367931,
                0.04376515539257789,
                0.026332733393284874
            ],
            [
                -0.14560553131824006,
                0.1043064509031229,
                -0.05395036402565906,
                -0.03533156012037982,
                -0.2229361827609176,
                0.015230098970322901,
                -0.1875334788458996,
                0.14202849947596052,
                0.20894166615514212,
                0.13327383728024947
            ],
            [
                -0.05089452872074643,
                -0.09747372478554142,
                -0.06938157068159574,
                0.1248598097892547,
                -0.08726610325510016,
                -0.1156845568070969,
                -0.20946178542320873,
                -0.060509543281640044,
                -0.24938231761333512,
                -0.05742712658716226
            ],
            [
                -0.12930625502752674,
                0.10122146747390529,
                -0.11032016365000631,
                0.1695979629186289,
                -0.0716786906116802,
                0.029778743968015418,
                0.04031149421805867,
                -0.1520087835572659,
                -0.13220391682259597,
                -0.06766689913024454
            ],
            [
                0.11743200049658876,
                -0.05004636170090111,
                0.065895407317792,
                0.05773405041965524,
                0.11788530793330704,
                0.19749778808960308,
                -0.0381062708483472,
                0.1783454608350188,
                0.23590329552564884,
                -0.046843447638795964
            ],
            [
                -0.13190475731259957,
                -0.02645692883033961,
                0.03166983134876209,
                -0.22571132643989888,
                -0.028997778974189183,
                -0.01659566228881717,
                0.06472883348355488,
                0.10647924725322315,
                -0.06676014956843897,
                0.041008454022814465
            ],
            [
                -0.15979397737244144,
                0.2551280932469933,
                -0.055854711060754375,
                -0.20024468157230504,
                -0.1512118256362303,
                -0.2695432720250705,
                0.03334631496047869,
                0.18259574530328393,
                0.04799048887446917,
                0.14050228753009306
            ],
            [
                -0.07825226199351037,
                0.1982730487485899,
                0.15891307201131413,
                0.19421045887948618,
                0.0724849728065154,
                0.008018843423792384,
                0.5725416206225143,
                -0.11552145548691324,
                -0.17371966230719033,
                -0.18812398341708111
            ],
            [
                -0.10724121716614522,
                0.18486987517532338,
                0.2853012583377229,
                -0.09325155988006913,
                0.06518786347932284,
                -0.1924882320815093,
                0.49226300264924205,
                0.10188633519246611,
                0.0997581849311397,
                0.16217571390731414
            ],
            [
                -0.4482544421429581,
                0.348028925905168,
                0.03715219613263592,
                -0.6365936797013626,
                -0.09236814426873731,
                0.06536686095880918,
                0.5076343759026544,
                0.05130584938925033,
                -0.033987189776844826,
                0.042505844373428206
            ],
            [
                -0.48374031007737034,
                0.000766278952895023,
                0.05545703165393928,
                -0.022810267018854562,
                -0.06736806110803736,
                -0.027666091098216133,
                0.7455475471857904,
                -0.11401758307728728,
                -0.06214601634115149,
                0.13797679167734653
            ],
            [
                -0.3476130531059236,
                0.18149300637523985,
                0.37824831367481804,
                -0.04267563932994823,
                -0.2890107618453967,
                -0.23733193446273065,
                0.48222179286658007,
                0.048100140986776244,
                0.09670154578316006,
                -0.13626525338928147
            ],
            [
                -0.3322400859029894,
                -0.012118774734890423,
                -0.28116046195024924,
                -0.11423391953953387,
                -0.3192427820855778,
                -0.0185886331406344,
                0.7490259898972729,
                0.1840713688345722,
                -0.014741798129987285,
                -0.28138890594899674
            ],
            [
                -0.09366199295817615,
                -0.0818489808951158,
                -0.14003305609391528,
                0.016094120024178562,
                -0.1372918758858355,
                -0.13438877469405547,
                0.5154088298112347,
                -0.27061939456737244,
                -0.12778133633269184,
                0.05389341059864821
            ],
            [
                -0.03585039187953073,
                0.06305972170075481,
                0.09726540824047171,
                -0.3123746988864311,
                -0.16304286622557343,
                0.021886719012113667,
                0.19781728775602317,
                0.24041105494639295,
                -0.2675750064499317,
                -0.1037905191009072
            ],
            [
                0.20748430225976752,
                0.15194184779743866,
                -0.01909574370640376,
                0.06872735243949833,
                0.07177073318847757,
                -0.09083222161718782,
                -0.09350211253993013,
                -0.21856575223328292,
                -0.20104868777560328,
                -0.04524650539429094
            ],
            [
                0.18558062692510152,
                0.2479917541803534,
                -0.1785447347572424,
                -0.1869920238153307,
                0.05736045562366398,
                0.12702042844221717,
                -0.20172200778086546,
                0.13124348962089838,
                0.011944499295960382,
                -0.12059008841491721
            ],
            [
                0.20898361456684664,
                0.07768047972895405,
                -0.16141191687620177,
                0.20729321815829613,
                0.027811468471164724,
                0.0017261152267085645,
                -0.03227082474761958,
                0.08009217917666527,
                0.1492038407601178,
                0.2159114184369637
            ],
            [
                -0.28133617989339604,
                -0.15366236794283267,
                0.2225916003234702,
                -0.0941131351465709,
                -0.08632349997432491,
                -0.15219411494253815,
                0.14294816251635253,
                0.0818622722637642,
                0.10442126668763727,
                -0.010313166094864832
            ],
            [
                -0.2572311336383672,
                0.2845864121474589,
                0.2928576381659383,
                -0.10683743627999683,
                -0.16565626535269273,
                -0.2204066613120057,
                0.6574364786400422,
                -0.08136439647317044,
                -0.12281900683383465,
                -0.09518894215086027
            ],
            [
                -0.016244934479335657,
                0.3983945469932696,
                0.11914149564271907,
                -0.0858047427065785,
                0.07491523806885265,
                -0.05252879558355421,
                0.17309573473842207,
                0.025010598799822648,
                -0.2784269006854191,
                -0.36850047160505073
            ],
            [
                -0.4737619143505385,
                0.6487140912938502,
                -0.24453688692730985,
                0.34628127160201455,
                0.4744217539467348,
                -0.5454789623527145,
                0.49161351409468457,
                0.2867811493479379,
                0.13441946162045748,
                -0.3206018195758159
            ],
            [
                -0.30189312481351993,
                0.18641696330117885,
                0.8181162194880139,
                -0.8157277223416184,
                0.26766404688718276,
                0.17812850601251026,
                0.23802754533895554,
                -0.2985698460552467,
                0.24319326844838304,
                -0.23444879120300052
            ],
            [
                -0.28483724476993977,
                -0.017650617520083525,
                -0.08374738240008683,
                -0.2559262291566523,
                0.5056854451391948,
                0.4803365093494269,
                0.011374608953941033,
                -0.4014798339711271,
                0.004892599199862775,
                -0.24506636309590368
            ],
            [
                -0.5892597984985716,
                0.3849754812019744,
                0.45814570785937303,
                -0.08333187363391849,
                0.3816754429650053,
                -0.19297319827020318,
                0.3045129696562691,
                -0.5696510115582746,
                0.10819831897466756,
                -0.5526555460454536
            ],
            [
                -0.17944317702243004,
                0.28797432807263235,
                0.14517598482586686,
                -0.6133167077316997,
                0.5260922042275142,
                0.0183445864472519,
                -0.05766999081135114,
                0.011628645065033052,
                -0.34888195009200385,
                -0.007421005810156166
            ],
            [
                -0.016677715016272278,
                0.13132349102142218,
                -0.19981168888113532,
                0.33852605848400596,
                0.15351187644434533,
                -0.2613151599944744,
                0.29437019497726397,
                0.12499223534617478,
                -0.24821677712639495,
                0.050703633608760665
            ],
            [
                0.31766007985324635,
                0.21587443286518107,
                0.5051609454699756,
                0.04127582693207702,
                0.1004826962495904,
                0.00855582632308204,
                0.07054721048358055,
                0.22263151156214675,
                -0.6041006212803721,
                -0.3345871432335625
            ],
            [
                -0.18843713133898876,
                -0.014655788877820266,
                -0.3869719164059061,
                -0.28851865804818805,
                0.3180626721216147,
                0.20771713344551607,
                0.20911324729407685,
                -0.14471396677101933,
                0.2032121881795357,
                -0.019778398280681384
            ],
            [
                -0.17150664861378517,
                0.09976971791508794,
                0.2017270728793744,
                0.09044273929347336,
                0.09707942614170013,
                -0.21938840388527425,
                -0.21086971438684532,
                -0.13488897446531614,
                -0.050687780150540776,
                0.04502979604649337
            ],
            [
                -0.24139982895862125,
                0.025564900847477173,
                -0.5542988729746302,
                0.1016352707345147,
                -0.013248423033493585,
                0.3469553469677145,
                0.3863741986625335,
                0.005356675129869125,
                -0.17592697217284536,
                -0.18480210206225373
            ],
            [
                -0.09774127228400903,
                0.11340442491604273,
                0.18765089989484462,
                0.5074720752734543,
                0.09679798254881743,
                -0.18658855129038193,
                0.5761038090383981,
                -0.08782763392903331,
                -0.1483220709672655,
                -0.06619120593213622
            ],
            [
                -0.08532390997364987,
                0.4932065844242199,
                -0.30964404766714737,
                0.5680255064621024,
                0.7289446332057596,
                0.08450749037694925,
                0.4471514509237107,
                -0.20896695741229981,
                -0.7537634997197539,
                -0.5049728970712078
            ],
            [
                -0.46130858901864874,
                0.1426619261763187,
                -0.4297349608702577,
                0.4371907658621637,
                1.626587733740731,
                -0.19549220402421627,
                0.03959660472128938,
                0.5492238233289904,
                -0.4550512197562598,
                -1.192637540821085
            ],
            [
                -0.6811095221633214,
                0.7322066636447224,
                -0.5476051605091724,
                0.17343747334543536,
                1.1699038861160846,
                -0.5266308563831965,
                0.5133311485773349,
                0.2951206536606959,
                0.1761853514360579,
                -1.5826796031894277
            ],
            [
                -0.28757735848126453,
                0.6656390774892897,
                -0.03056248517777529,
                0.9361852150400087,
                1.4463458706247354,
                -0.910712520032877,
                -0.35868772775670027,
                0.06283564457733126,
                -0.6754787122806765,
                -1.0906277886307125
            ],
            [
                -0.4112905860181354,
                1.3013455292982925,
                0.22765662853712676,
                -0.07574946390377546,
                1.1382921468596245,
                -0.8591693720868484,
                -0.30272408017538416,
                0.05032070063960265,
                0.13569801514592533,
                -0.5146677623626733
            ],
            [
                -0.44500582620611373,
                0.3237101026106224,
                0.2112112612544408,
                0.33280531514741296,
                0.5139141351991616,
                -1.0074747912474862,
                -0.7416979617516868,
                -0.021306336263105182,
                -0.14437994945494367,
                0.11085013090728812
            ],
            [
                -0.3006894754381632,
                0.09293079410860823,
                0.5497600261786805,
                0.42991094237549543,
                -0.029512835007165204,
                -0.6026486017289854,
                -0.7524843210932918,
                0.05349152132369191,
                0.411018022195573,
                0.32540141167535636
            ],
            [
                -0.15871649806912225,
                -0.2120546222432749,
                0.45240831183282826,
                -0.5142989546672259,
                -0.08358375759365426,
                -0.029017122309775625,
                -0.22454337782296388,
                -0.33413213766585487,
                -0.09474794624955163,
                0.8687664096239096
            ],
            [
                0.3552580002703145,
                0.061334873704463645,
                0.04787507842782071,
                0.16219671583392956,
                0.24495267051932523,
                -0.25929606838243185,
                -0.16205441306562773,
                -0.1442805059427884,
                0.3540604902503364,
                -0.4527175247166526
            ],
            [
                0.018662072219106048,
                0.02068296607736933,
                -0.10781225709848336,
                0.4814935211386231,
                0.18336567733992412,
                -0.1365460485187779,
                -0.015968723307660342,
                -0.5174890874874065,
                0.010870669306642626,
                -0.15256261354874293
            ],
            [
                0.07282119998287585,
                -0.22845996726830356,
                0.15903632144497987,
                0.14515155313509812,
                -0.05520111296278879,
                -0.08240491449731592,
                0.19980245620461032,
                0.30101710983089414,
                0.1067029165513878,
                -0.3703063777765949
            ],
            [
                0.07147228059153882,
                0.1185874090265052,
                -0.021049337982907347,
                0.3860874692927284,
                0.2396203474253366,
                -0.013827817261316303,
                0.04210948115043978,
                0.274792809177107,
                -0.3187407334029315,
                -0.5160550933487491
            ],
            [
                -0.3773313959772067,
                0.13053042150857716,
                0.28967749419176714,
                0.09614841475180184,
                0.26316638598479286,
                0.42564405243067766,
                0.34979720479621396,
                -0.14863881384710273,
                -0.5536196908212364,
                -0.44475610450764
            ],
            [
                0.13312924814538143,
                -0.2169581288969391,
                -0.5109782302371679,
                0.02808854041361481,
                1.0016928276148231,
                -0.08841708427908156,
                0.03769759107233641,
                0.7375895777353191,
                -0.6217476335255311,
                -0.3829459513086515
            ],
            [
                -0.418449639339886,
                0.17732625471347468,
                -0.45598558557798086,
                0.1146804890780537,
                1.8671118273071499,
                0.7608113509065108,
                -0.4243201094033165,
                0.5144672752824402,
                -0.026664460866723416,
                -1.581426132243478
            ],
            [
                -0.9266776848382156,
                0.8147672569470309,
                0.3159937875249338,
                -0.3902151928184945,
                2.0670020446764408,
                0.27125263805834726,
                0.05967848206060567,
                -0.21301305196243747,
                -0.22643479561947594,
                -1.3508811943046022
            ],
            [
                -0.2644538052250681,
                0.20384674631913474,
                0.14800532196571686,
                0.02722093461628401,
                0.8822773558269309,
                -0.1618520496660005,
                -0.6520018968144643,
                -0.07112898603326698,
                0.6617758285308959,
                -0.4765492169321153
            ],
            [
                -0.7708509312678914,
                1.052691803665239,
                0.5160282053997637,
                0.42688158442846563,
                0.8809071781216923,
                -1.0080689010994914,
                -0.9126784413441332,
                -0.10453972093726169,
                -0.3697988790750013,
                0.6148951886785335
            ],
            [
                -0.29472796018090375,
                -0.44584921473079864,
                0.3127976123602192,
                -0.006763238689562274,
                -0.0005688010642756717,
                -0.547252343025814,
                -0.7170928355935671,
                -0.032038306651892806,
                0.2882929308849298,
                1.1986435363422123
            ],
            [
                0.2371886204451714,
                -0.12267207249555082,
                0.9229346647032819,
                -0.041829187349549504,
                -0.24520692166300936,
                -0.9810443202472121,
                -1.1088569756739624,
                0.3403112123406176,
                0.42574126357320075,
                0.834564780741712
            ],
            [
                -0.16077025320802202,
                -0.6460579243867907,
                -0.12653008713570485,
                0.279260107160458,
                -0.13118102900966644,
                -0.22063859270578118,
                0.12378077216297172,
                1.2156897653303487,
                0.12524363560810256,
                0.11671240715955189
            ],
            [
                0.22767056071067265,
                -0.39682356526770474,
                0.18370225794492237,
                -0.4880837599798534,
                -0.4746646422573095,
                -0.7045426508787691,
                0.27046626962075404,
                0.2065083924940986,
                0.27713931568890676,
                -0.029373809233732562
            ],
            [
                0.32452516871665704,
                -0.13447059529121969,
                -0.6445374615109084,
                -0.2800757220804282,
                0.27987270115188234,
                -0.7686866876501166,
                -0.15268597295622552,
                0.33572248825688206,
                0.2738388967706683,
                0.5769390638332118
            ],
            [
                -0.18992994254716739,
                0.15677986005715724,
                0.25201800706640953,
                -0.16093792602797846,
                0.10530275309216199,
                0.0122663613891835,
                0.11598874675540014,
                0.5371661084531824,
                -0.021271982858755003,
                0.08782086206986287
            ],
            [
                0.027898945379778304,
                0.20549877665098867,
                0.153496693259655,
                0.0311895825303398,
                -0.35978710430300437,
                0.05509121554678576,
                0.24796523397501774,
                -0.21231665590857626,
                -0.18504821241255523,
                -0.26745902307932734
            ],
            [
                -0.28688426649380905,
                0.3577111521572277,
                0.058156997515135214,
                -0.07651293057879699,
                -0.05514661229831669,
                0.4523965026758014,
                0.3824788298308577,
                -0.2256260177953739,
                0.046824731249783265,
                -0.14631645352584918
            ],
            [
                -0.3663978416572504,
                -0.047468037343346196,
                -0.42980397865462117,
                -0.39428241896666993,
                1.0975292348951788,
                -0.009458548757862664,
                -0.4283031051913179,
                0.5790005275895226,
                -0.16812112696791764,
                0.019757271841815107
            ],
            [
                -0.3533312209279444,
                -0.2978644812709997,
                -0.18114835699991533,
                -0.5026076469560973,
                1.4460951611281843,
                0.6625529371355353,
                0.29781711444106,
                -0.25295141129864,
                -0.27602847320634794,
                0.5098094608672727
            ],
            [
                0.4164240427207477,
                -0.7969542215455319,
                0.018431453528722695,
                -1.314073619444647,
                0.9704406412785602,
                1.00988562763833,
                -0.17199414580286498,
                -0.2959708144268884,
                -0.061355600179375594,
                0.0035217506104161887
            ],
            [
                0.32475171785977325,
                -0.7755122724946754,
                -0.33395737507889095,
                -0.9616961168655207,
                0.9522784026344397,
                0.6348376848844131,
                -0.16100035208443825,
                -0.5705939476295011,
                0.1780115352599769,
