{
    "seed": 2146346,
    "learning_rate": 0.05,
    "epochs": 10000,
    "output_filename": "CNN_A",
    "convolutional_layers": [
        {
            "kernel_count": 8,
            "kernel_dim": 3,
            "padding": 0,
            "pooling_dim": 2,
            "weights": [
                [
                    [
                        [
                            -1.3212995911586558,
                            -0.2802823801818453,
                            1.092224501207168
                        ],
                        [
                            -0.7893775473406344,
                            -0.7881076412942011,
                            0.5012536821355864
                        ],
                        [
                            -0.6440179539183657,
                            -1.0693097528655173,
                            -1.4364382612027524
                        ]
                    ]
                ],
                [
                    [
                        [
                            -0.4914509790956888,
                            -2.1052859942136397,
                            0.6043523341177081
                        ],
                        [
                            0.8825266414388723,
                            -1.8451557634692553,
                            0.051606479483007964
                        ],
                        [
                            0.9688278566055828,
                            -1.39414398190861,
                            -0.26091848752388735
                        ]
                    ]
                ],
                [
                    [
                        [
                            -0.8964648107068639,
                            -0.2950188047384609,
                            -0.00033845035662578854
                        ],
                        [
                            -0.2475704151528563,
                            0.07794262408211135,
                            -0.42821607217492486
                        ],
                        [
                            -0.24729682141517698,
                            -0.7167273467338967,
                            -0.08134867858681752
                        ]
                    ]
                ],
                [
                    [
                        [
                            -0.09520323504284761,
                            -0.36946860979452706,
                            -0.0018420432365282733
                        ],
                        [
                            -0.05821177000229906,
                            -0.07484862445623004,
                            -0.18182470706601542
                        ],
                        [
                            -0.03968407523693531,
                            -0.2817661126163165,
                            -0.6274580136835671
                        ]
                    ]
                ],
                [
                    [
                        [
                            -0.5854797645699648,
                            -0.28582588218060384,
                            1.1995051034659205
                        ],
                        [
                            -1.5080456382775695,
                            -1.234111700116401,
                            -1.7721749882159736
                        ],
                        [
                            1.6261675255332968,
                            0.5544401109562905,
                            -1.2746081319111464
                        ]
                    ]
                ],
                [
                    [
                        [
                            0.059958138590444146,
                            1.0099580317164505,
                            0.036719552095554706
                        ],
                        [
                            -1.7482659473222886,
                            0.43297401089277004,
                            -2.054614337355929
                        ],
                        [
                            -1.8488674735604083,
                            -0.9124459979241346,
                            -1.4600461941574034
                        ]
                    ]
                ],
                [
                    [
                        [
                            -1.4842781776144538,
                            -1.0131070573086471,
                            -0.41979582729673515
                        ],
                        [
                            -1.1959436113856716,
                            -1.0873200344293286,
                            1.1482291159664408
                        ],
                        [
                            -1.4327969112153864,
                            -0.8384574521213499,
                            0.4054533732033552
                        ]
                    ]
                ],
                [
                    [
                        [
                            0.9895284325445548,
                            -0.6075175801471574,
                            -2.2161318286949334
                        ],
                        [
                            0.9523828359919841,
                            -0.3985536411969972,
                            -1.0223949545216269
                        ],
                        [
                            -1.4717230045724914,
                            -1.6645252033025837,
                            -1.1477250421011873
                        ]
                    ]
                ]
            ],
            "biases": [
                -0.0009006214678137663,
                -0.0008478693651606964,
                -0.0007540544534791816,
                -0.001147819102709512,
                -0.0004948098380349022,
                -0.0016861545182590412,
                -0.029823929727774937,
                -0.0003568712687792527
            ]
        }
    ],
    "fully_connected_layers": [],
    "trained_epochs": 1,
    "output_layer": {
        "weights": [
            [
                0.11187632325368722,
                0.07717255085950349,
                -0.17866013002306988,
                0.14501499985862049,
                0.23265491508614203,
                -0.23577424185277826,
                0.1775501702368019,
                0.12042363746853742,
                -0.21780618102839938,
                -0.015610634533903205
            ],
            [
                0.20483694637815977,
                -0.21428153324846497,
                -0.09857673069734448,
                -0.1420136019616757,
                -0.20381590692504242,
                -0.10405709031962347,
                -0.10209088636631437,
                0.2147912334433965,
                -0.06047908493653557,
                0.13568775690234064
            ],
            [
                -0.008513614456512263,
                -0.09036747203868406,
                -0.15291763116927412,
                -0.19393230545760862,
                -0.18421363353285544,
                -0.06160911293874761,
                0.10242183664445666,
                0.1962753453601071,
                -0.011816978756555532,
                -0.13857131053208477
            ],
            [
                -0.06370665707725227,
                -0.1897435540867813,
                0.23733031996940268,
                -0.10406331763657332,
                0.24842524662806592,
                -0.2031558827105565,
                0.1729683246608685,
                0.06272938267801084,
                0.23893371913904848,
                -0.010127745099455937
            ],
            [
                0.09652255607988859,
                0.013314833033045799,
                -0.129588776371486,
                -0.2369545968445254,
                0.07499922717781214,
                0.005504062345733084,
                -0.18694758928797406,
                -0.03758940636281732,
                0.1660032302283853,
                -0.0901962952150763
            ],
            [
                -0.2401994792155887,
                -0.1079326374902641,
                -0.09947360001769996,
                0.22895556066992528,
                0.20388268853971653,
                0.0652585563842353,
                0.03393089674211196,
                -0.16171313595249273,
                0.11985302399389243,
                0.007209454553864579
            ],
            [
                0.2391276157119022,
                0.16536792477643758,
                -0.06376268200071859,
                0.0023159073127667447,
                -0.04196927429580206,
                -0.09309346275175459,
                -0.04701684644569749,
                -0.13492657924344192,
                -0.20293413706327068,
                -0.22593756949710422
            ],
            [
                0.22812747638287448,
                -0.1903652949436861,
                -0.18706795333245774,
                -0.07703563704973414,
                -0.13188099297242267,
                0.07363245096211353,
                -0.24961324234951945,
                0.05228260083136769,
                0.1472739972068341,
                -0.027532362827046866
            ],
            [
                -0.09931432709413146,
                0.15219791852289613,
                -0.01827025605243238,
                -0.21413089806166466,
                -0.17435207037098108,
                -0.1356515048351795,
                0.21297490750979917,
                0.2481831402696787,
                -0.16459738648156724,
                -0.047432361429512994
            ],
            [
                -0.08870101939833824,
                0.18659648054925432,
                -0.0333007283740342,
                0.10753537772247843,
                0.1258314106334192,
                0.03548916365306031,
                0.247180284997425,
                -0.011486693328620678,
                0.22995145895373545,
                -0.22602465894074647
            ],
            [
                -0.19018761212220153,
                0.2331391358750625,
                0.19020824961695143,
                -0.16095096516954968,
                0.22200786102632983,
                -0.09086479498077511,
                0.2507990464536925,
                0.21107937661005852,
                -0.20056973123412308,
                0.15683519509307722
            ],
            [
                0.055101004454805175,
                0.021603083240685748,
                -0.021166089985367197,
                0.20791300664435053,
                0.21626335757114684,
                0.14629141353905625,
                -0.0162104928751182,
                -0.2471732030267271,
                0.11718898194726064,
                0.05527638743592402
            ],
            [
                -0.21445164052440108,
                -0.2364318239791642,
                -0.22065835668435838,
                -0.24788552438003764,
                -0.06889663178659802,
                0.00590037838540087,
                -0.1637849253814825,
                -0.23258676170907105,
                -0.10870810021944878,
                0.18022429565651563
            ],
            [
                0.1611634635100021,
                -0.10932240923565867,
                0.017853030280240153,
                -0.1451674795612097,
                -0.0804848152178747,
                -0.03654498178473875,
                -0.05611835861589886,
                0.1576150331577754,
                0.09625290306386648,
                -0.19958871085762314
            ],
            [
                -0.03628993447044878,
                -0.2484249462449192,
                -0.21587773300558782,
                0.09257394485747954,
                0.15345819730100432,
                0.08953411365521968,
                0.16174268974065534,
                -0.20735962669876087,
                0.07970270124066815,
                -0.016794406439824404
            ],
            [
                0.03460818960586083,
                0.11435150230411775,
                0.13298613186145228,
                -0.20536888369788098,
                -0.12243474189510756,
                -0.16044978973264548,
                0.1600830593642869,
                0.19241539068236888,
                -0.08360963207138489,
                0.21659813127828648
            ],
            [
                -0.09397595068530774,
                0.1016689167480733,
                0.027819866051984506,
                -0.1602089833424727,
                -0.22961035598563814,
                0.21135046804656002,
                0.05223005860913186,
                0.008952530051248584,
                -0.02760904391934744,
                -0.17584564979345846
            ],
            [
                0.04993821423335658,
                0.07090110557785592,
                0.23810188366081184,
                0.3447682906206927,
                0.21043724854150508,
                -0.24311403687122843,
                -0.23754083235154774,
                -0.2252217520453378,
                0.0022924964143517766,
                -0.05006874268095847
            ],
            [
                0.21135375244352084,
                -0.21315893615850015,
                0.36168751564121443,
                0.4446417706932906,
                -0.3256354063206354,
                0.00652956915286404,
                -0.059730974084357465,
                -0.07212106063948572,
                -0.10294785467797987,
                0.08665936169454794
            ],
            [
                0.16227425281111846,
                -0.10171611983338891,
                -0.00929193246014322,
                0.2721004824680116,
                -0.247628814756278,
                -0.031195490680217996,
                -0.2720368398129512,
                -0.23394843538956783,
                0.14448102973643812,
                -0.23927778753836715
            ],
            [
                0.15030971451209835,
                0.13756663266053779,
                0.16099376046417027,
                0.07337695476433079,
                0.01749703345939076,
                -0.20687848738305684,
                -0.18729281724495167,
                0.24346917923441416,
                -0.09515677378894205,
                0.12246631405708744
            ],
            [
                -0.081199794595119,
                0.053528386494547074,
                -0.13646467151974723,
                0.04092269398154338,
                -0.02667707627029891,
                0.19874002214425104,
                0.025017187358409868,
                -0.16419460598851152,
                0.13647033288439905,
                -0.20536314364987254
            ],
            [
                0.20310199564027723,
                -0.15863032130640045,
                0.11610319797888881,
                -0.09093070140000303,
                0.16376373524062215,
                -0.12666673866027994,
                0.1147132961764461,
                -0.11773976292127765,
                -0.2200302168048007,
                0.03462114314359741
            ],
            [
                -0.08157462769579953,
                0.06110609184588398,
                0.1948100394374519,
                0.1059206811949877,
                0.035990618265347316,
                0.09224568125639616,
                -0.12316556541643439,
                -0.06638037498626082,
                0.012841755789872174,
                -0.18141210656239382
            ],
            [
                0.0533870362488604,
                0.09527707814092717,
                0.1878278093416366,
                0.02885553363534101,
                -0.060505023423795164,
                -0.03028928857621745,
                0.06222492139236066,
                -0.12340195415711419,
                0.07538716232321069,
                -0.19224041442894133
            ],
            [
                -0.21863780279184908,
                0.13997308439470924,
                -0.1306433265008741,
                0.04658157033934916,
                0.05726466299954439,
                -0.13891276027593877,
                0.14676536768277262,
                0.06853395258108415,
                -0.10305164003444331,
                -0.06832723164510085
            ],
            [
                -0.1806873549264513,
                0.05415703695430107,
                -0.1901229351596765,
                -0.0844170988461332,
                0.17205243644202156,
                0.12914471275366685,
                -0.1417220457284302,
                -0.22575869735374224,
                -0.23122438677232957,
                0.10219742755756996
            ],
            [
                -0.2875523820542452,
                0.1440774033917017,
                -0.09890913640755834,
                0.020824077744427974,
                0.12782791428786017,
                -0.16856000868388915,
                -0.02021099018104767,
                0.24605973330451497,
                -0.2377656127236236,
                0.11826023237944126
            ],
            [
                -0.300925797216006,
                -0.24950410539231674,
                0.05054147588552745,
                0.16260471121718778,
                -0.1862090877783594,
                -0.08307923466480009,
                -0.06877625825224894,
                -0.10876002223826424,
                0.06226285120095804,
                0.026115835700926866
            ],
            [
                0.07104636135810062,
                -0.054750315194766606,
                0.05021443537027784,
                0.14550088537472494,
                -0.14537220899685893,
                0.10764660887275292,
                -0.17276710957127786,
                0.10779965372624029,
                -0.4303088766414708,
                0.12053258760825085
            ],
            [
                -0.004320492997466543,
                -0.10126399793051048,
                0.3282824392748551,
                0.4034094555671223,
                -0.016935671034735544,
                -0.44439691335532683,
                -0.06359070266207116,
                -0.04974203962059382,
                -0.18290999213822157,
                -0.00948151118218296
            ],
            [
                0.047770799949469624,
                -0.013413016755437514,
                0.11648846602363015,
                0.7369957274749451,
                0.18531065256858864,
                -0.32399096248101894,
                -0.050118903616976934,
                0.11400055013789413,
                0.0541247246008364,
                -0.09538469003648756
            ],
            [
                0.031232333844531283,
                -0.33365230190207945,
                0.3449860788208297,
                0.4400127587637067,
                0.04258654157945132,
                -0.23051954596977267,
                -0.19706851900034378,
                0.05091022172166864,
                -0.16869946904672,
                -0.04421792444983117
            ],
            [
                -0.06868613146262566,
                -0.0883291196396746,
                0.3328578350518616,
                -0.058642490803292556,
                0.1259870715080532,
                -0.1992277284919531,
                -0.3098087351559681,
                -0.2146749485021123,
                -0.2501123282126844,
                0.1749384478581566
            ],
            [
                0.06138002928221917,
                -0.24852395018230014,
                -0.12820202127638533,
                -0.059064534862193346,
                0.0780418742526191,
                -0.022532024088568765,
                -0.2116131040182988,
                -0.21929642614825262,
                -0.009229869501083347,
                0.18461954058661695
            ],
            [
                0.27095132950265155,
                0.07779938383929512,
                0.21093244342370904,
                -0.11848503990167868,
                0.18621840857115352,
                0.03138697212194648,
                0.09140264231472418,
                -0.1728127676667815,
                0.05337639714220266,
                0.06767084168788837
            ],
            [
                0.11366793347427284,
                0.03067356333018432,
                -0.1385476068124769,
                0.05689567957354795,
                -0.17654040617072003,
                -0.26502273495922724,
                -0.08998001297651713,
                -0.11464988665708994,
                0.18566292318962727,
                -0.009065972013870502
            ],
            [
                -0.054595815261298974,
                -0.002035385247408802,
                0.11400299368080172,
                0.22950964811211325,
                -0.19173132862871742,
                0.15388936570428954,
                0.1083394963407204,
                -0.1233021874352653,
                -0.12596061451467486,
                0.09718285507395442
            ],
            [
                -0.19773024977924594,
                -0.04439169354231659,
                -0.03163351159921022,
                -0.07418459603908303,
                -0.22566457196844777,
                0.12429754596983275,
                -0.15868558722282428,
                -0.21659045222267853,
                0.1540909186718708,
                0.19828849405787743
            ],
            [
                0.016967627045560513,
                0.14775569664096114,
                -0.16542725413614173,
                0.2583404683472774,
                0.23157297651642578,
                -0.26497313494939984,
                -0.03890348629010033,
                -0.11089467968692081,
                0.22069572953308306,
                -0.26406154438176777
            ],
            [
                -0.19302319471322774,
                -0.15334277431988727,
                -0.28943538385773376,
                0.21965205506245838,
                0.1738572215596173,
                0.1898727872629002,
                0.1142063943384081,
                0.2675717468913091,
                0.17571448239452897,
                -0.2277208261661903
            ],
            [
                -0.08519200918374091,
                -0.021919323931130295,
                0.10656602657543993,
                -0.05021079753279947,
                -0.08699073122766453,
                -0.24632482287994747,
                -0.13124911508410045,
                0.7530550522671033,
                -0.03677322214566987,
                -0.1411706098768914
            ],
            [
                -0.467862306925119,
                0.005390414070815816,
                0.10913367593137378,
                0.3104114819411956,
                -0.2356262378459811,
                -0.2735771045191576,
                -0.15496819421725103,
                0.7189698475905018,
                0.06990621690069543,
                -0.4081121705857283
            ],
            [
                -0.31533596879784065,
                0.33331399351728813,
                0.4090104591388362,
                0.7024988156839737,
                -0.14306742317019952,
                -0.3523064432253128,
                -0.47719162226997175,
                0.6806604698816076,
                -0.10343074353950897,
                -0.8706545444462817
            ],
            [
                -0.0549625889332301,
                -0.37545688753938383,
                0.5516721748964782,
                0.8521375661598586,
                -0.2652710362998517,
                -0.4934199573521706,
                -0.42335842507426774,
                0.3586202407948585,
                -0.2290204669772328,
                -0.3831360849589738
            ],
            [
                -0.2606143042005145,
                -0.5312786425398158,
                0.5646383195365743,
                0.46775265426376184,
                -0.24947779724806363,
                -0.30712210963129677,
                -0.051788582519903315,
                0.3464865739530549,
                -0.23429385409896594,
                -0.23260770634748107
            ],
            [
                0.29469304246873784,
                -0.16140104545380224,
                0.35573101076264674,
                0.00899431055059939,
                -0.2269562150350059,
                -0.09285819354192816,
                -0.2636741213063275,
                0.1666390214911673,
                0.3594722163219821,
                -0.07040582902228437
            ],
            [
                0.3410599657472947,
                -0.27789423119197193,
                0.03861209678624801,
                -0.15094128890156663,
                -0.3398367829300628,
                -0.03275151417506201,
                -0.08817989710593488,
                -0.09786455659089387,
                0.10776419382542084,
                -0.1270499223245705
            ],
            [
                0.11989333804334641,
                -0.16021379499951882,
                0.04411426984532907,
                0.02232836990966799,
                -0.1396392870284048,
                -0.02630286739699491,
                -0.03417275731943861,
                -0.1129502554726611,
                -0.17593053700867034,
                0.13942803320064068
            ],
            [
                -0.19891247963589143,
                0.16121169675186586,
                0.08349353506174695,
                0.18893193255524346,
                0.10798762921732061,
                -0.35061081630437646,
                0.27979341675579383,
                0.16561522239822188,
                0.11848475183037198,
                -0.0531451542076555
            ],
            [
                0.10372362748553351,
                -0.10568838896761627,
                -0.17553792922492042,
                0.1025900362620959,
                -0.03542272465182727,
                -0.12603925738764046,
                0.04077071617341544,
                0.07351885703700145,
                0.19566051308767526,
                -0.19625488115728476
            ],
            [
                0.19267209582787395,
                0.14281546065798437,
                -0.1568341711768436,
                0.22572474964575437,
                -0.1221686178377302,
                -0.16492753159108048,
                0.12625140991356745,
                0.07100738122854895,
                -0.06323748318332419,
                -0.0762152813005942
            ],
            [
                -0.1503235119820885,
                -0.057220887676616546,
                -0.11614706795656986,
                0.22523673445552833,
                -0.2620990425417914,
                -0.027864201465389593,
                -0.06150997015364771,
                -0.12204147636950832,
                0.012592654104875717,
                -0.29202020761052727
            ],
            [
                -0.2128240542334773,
                -0.07858485522968205,
                0.2534950099788168,
                0.08909052889493642,
                0.18270250467827245,
                0.23045185695856127,
                -0.1962498566832939,
                0.22543281128503442,
                0.0922295154403816,
                -0.3605578037214883
            ],
            [
                -0.4026008749050566,
                -0.09473208179901613,
                0.04724903661533484,
                0.29253046576450303,
                -0.11633234009320861,
                -0.08971328383251434,
                0.02034627411969022,
                0.23467772615823151,
                0.19844723849739826,
                -0.3307162800909543
            ],
            [
                -0.08424374024622241,
                0.16163387976646673,
                0.2525305478983516,
                0.05341821173749961,
                -0.2394872013785301,
                0.08964162665410207,
                -0.25079801942843827,
                0.4951355252214861,
                0.2664309374363853,
                -0.27306290773736464
            ],
            [
                -0.3943768264675591,
                0.12446652377289988,
                0.43716418877513913,
                0.4401103299564079,
                -0.12333379433770668,
                -0.04104498129791195,
                -0.4611806859616003,
                0.1794524109934248,
                0.28707375185661227,
                -0.2295472285504178
            ],
            [
                0.01168818112930777,
                -0.24788940734408116,
                0.6252659401207364,
                0.09337259208832382,
                -0.20159519128911116,
                -0.18865955462701348,
                -0.5485286207034155,
                -0.06412942019381045,
                0.7060616534550898,
                0.14070886167951274
            ],
            [
                0.2898287041913357,
                -0.4197062128188827,
                0.627295523515568,
                -0.16223853463243967,
                -0.12809697572829398,
                -0.25869166432449187,
                -0.3377285526747888,
                -0.06406213774696967,
                0.06070433751527416,
                0.19945020733734364
            ],
            [
                0.473913818106399,
                -0.029768017923842652,
                0.7099455479288262,
                -0.24913248743147268,
                -0.6268552238537446,
                0.12093615376211135,
                -0.32134602431875553,
                0.11456028788185861,
                -0.024603182040290203,
                -0.10797816239384177
            ],
            [
                0.5842497668547014,
                -0.0027822370967506274,
                0.059084230228569276,
                -0.25846836959444114,
                -0.05808447659252373,
                0.09932118623148396,
                0.41767764386387884,
                -0.10157889321525458,
                0.0607564880109897,
                -0.10937707313973204
            ],
            [
                0.5614206954819816,
                -0.05729302847009094,
                -0.1417406638334983,
                -0.2778159534632632,
                0.07183099627055829,
                -0.08783403498311511,
                0.2110501030971539,
                0.053907107092223544,
                -0.07807035753702389,
                0.10468497044926467
            ],
            [
                0.20219327621988128,
                -0.050752121445050535,
                -0.026613593492558412,
                0.051919774183804605,
                0.028298902444583968,
                -0.0400902207438927,
                0.2818426931358581,
                -0.11733788867829804,
                -0.07096143099430936,
                0.28454473020577964
            ],
            [
                -0.06937020732933186,
                0.1747487997072233,
                -0.18731549752597346,
                -0.05597716192279796,
                0.2608808190822846,
                -0.29939407073346297,
                -0.18375841001994148,
                -0.2130443686087472,
                -0.13538316468077183,
                -0.1970280802309653
            ],
            [
                0.22150446112168146,
                0.08804037839983522,
                -0.23896529503248434,
                0.08479560373862065,
                -0.04947942910560319,
                -0.15398215617404376,
                -0.09767841633241041,
                0.031892650749930126,
                0.035596841833126364,
                0.1857539523670456
            ],
            [
                -0.06021025418651123,
                -0.23376472241260088,
                0.11923943855585756,
                -0.09853018678667756,
                0.031946597006461984,
                0.13934632691170093,
                -0.1525560593185425,
                0.0436656958297098,
                0.15439859853645518,
                -0.03305941969189034
            ],
            [
                0.06458520436551328,
                0.005738015599858354,
                0.10738231628410252,
                0.15747782971448426,
                -0.14398990692573502,
                0.043856654173135216,
                -0.39300618023045225,
                0.3396020160304716,
                0.22956525591333993,
                0.1278948888702831
            ],
            [
                -0.20720803789881234,
                -0.06801571841525235,
                0.17328472504072248,
                -0.007751930382425009,
                -0.28052815523244284,
                0.04763104693733454,
                0.1553573638646306,
                -0.0039605585537449825,
                0.5100085503928027,
                0.06232380675141324
            ],
            [
                -0.02464170563363102,
                -0.28508333583204554,
                0.09869057819077588,
                -0.22706348854048758,
                0.36896553668399096,
                0.311983754695848,
                -0.1815101194906843,
                -0.030178527195061464,
                0.39744994814751416,
                0.0808523875564101
            ],
            [
                -0.5566435693503159,
                0.3992144735858963,
                -0.1722057951307543,
                0.24557117541064427,
                -0.22594367107516017,
                0.0029749838576062808,
                -0.7008893175826248,
                -0.16985304064475934,
                0.8422050111673567,
                0.16635089964224736
            ],
            [
                -0.13502004219681346,
                -0.4137757335471503,
                0.1895133613589779,
                0.20860030683234265,
                -0.33930299009919074,
                0.09592630643463515,
                -0.37628515633624243,
                -0.2836190377063588,
                0.9090351633237796,
                0.5216060125142825
            ],
            [
                0.22449637968353087,
                -0.3032317073086434,
                -0.07828998246846725,
                -0.35687163353935253,
                -0.4270268920139191,
                -0.1566186291275669,
                -0.1560695020293909,
                -0.07344241249100203,
                0.4342490031850394,
                0.00832618771470835
            ],
            [
                0.19500910723210896,
                -0.024622919112362314,
                0.16150862033113805,
                -0.3376948617496031,
                -0.14275751307535248,
                -0.06284043957281155,
                -0.11917267643282352,
                0.09570234894694847,
                -0.12087916950443134,
                0.22930369221232302
            ],
            [
                0.7583264339698275,
                0.22341176327573994,
                0.33974706893685186,
                -0.19200804625688508,
                0.30646810144974584,
                0.30223367754522595,
                -0.2869003968924213,
                -0.12684158588941338,
                -0.4697894571264627,
                0.17982538922557453
            ],
            [
                0.4998040451494523,
                -0.00391530141281263,
                0.22846157865329617,
                -0.4256872638589402,
                0.06439237348731978,
                0.06446660840733699,
                0.293744135905651,
                -0.17660475959485328,
                -0.3989960587337958,
                -0.14984214636514354
            ],
            [
                0.43160518711676504,
                0.23639213951427598,
                0.13605028978922126,
                -0.13627755879464168,
                -0.08750168240663232,
                -0.18967940581567003,
                -0.15792297416230705,
                0.1508798949224677,
                -0.014579280408655604,
                -0.20921834932359273
            ],
            [
                0.2549749072285064,
                0.252093688946048,
                -0.06284621361949445,
                0.20274364749233928,
                -0.05907729413718211,
                0.057589639751254765,
                -0.08492769291410664,
                0.021181425219341965,
                -0.19338703044991007,
                -0.051695453541481425
            ],
            [
                -0.17914283540490125,
                0.013841260701052181,
                0.02783556973930759,
                0.15643683159203453,
                -0.025156995702303217,
                0.12944157420696223,
                0.1399580838962412,
                -0.1909194702341636,
                -0.10087418571161709,
                0.009138931183660364
            ],
            [
                0.14886165587839373,
                -0.23080478330851642,
                0.0580191369525933,
                -0.08141417550900067,
                0.024631115808414514,
                -0.09232567440071361,
                -0.09614412358463863,
                0.0856753738985442,
                0.09186614541350126,
                -0.23192470369711057
            ],
            [
                -0.11202418958939092,
                -0.17997672123431674,
                -0.13665503426645514,
                -0.48016793351615555,
                0.3175774413360458,
                0.37101258464925924,
                0.020922359276389864,
                0.09306282585769049,
                0.23108082152959747,
                0.12273438233153869
            ],
            [
                -0.46497792875502925,
                -0.14839937193067299,
                -0.08116271517903687,
                -0.20034476279400998,
                0.2164099923932955,
                -0.09306826254727217,
                0.035999019810951084,
                -0.21113057855535566,
                0.2639558385038756,
                0.394157808999438
            ],
            [
                -0.5128245407603214,
                0.02598651444508179,
                -0.10092378757523106,
                0.1402043652874565,
                0.03657450978274529,
                0.09530662348613433,
                -0.4181377436399304,
                0.16391544107690886,
                0.547501928460645,
                0.2184652651118242
            ],
            [
                -0.29369700322414727,
                -0.28216169270840874,
                -0.4238873802503267,
                0.367888476327109,
                0.024243121360266965,
                0.494835871467809,
                -0.3428771429758602,
                0.5646781507667923,
                0.6312930198827696,
                0.387718435321924
            ],
            [
                -0.07850317107205171,
                -0.12940359146744768,
                -0.5758279063286094,
                0.614788238825834,
                -0.11516230330549276,
                0.22619701800851727,
                -0.49837631177976116,
                -0.630798515764399,
                0.32171777558872044,
                0.7961226100566565
            ],
            [
                0.36856366270138374,
                0.28458308419125555,
                -0.24755243741148522,
                0.3108851855494992,
                -0.15529754459405495,
                0.11102797274104725,
                -0.37243929483886556,
                -0.09598918019319452,
                -0.19643240381165675,
                0.02400627604290362
            ],
            [
                0.448551758665456,
                0.16255294988141866,
                -0.3531284362533803,
                0.3399149967253601,
                -0.1022825251519805,
                -0.077991657456569,
                -0.2661863272446614,
                -0.022515395065174845,
                -0.15521131254523568,
                0.08033809357883741
            ],
            [
                0.4528220049693923,
                0.166920054283031,
                -0.09164240037717523,
                -0.06628496799506578,
                -0.06240237419646851,
                0.20629303840364363,
                -0.27777746017467553,
                0.014725455671178528,
                -0.35061980444397406,
                -0.1776533481002944
            ],
            [
                0.5196544947601799,
                0.25613482637421103,
                -0.019674205875860072,
                -0.030748936201627435,
                0.08096873682029691,
                0.06327307082399417,
                -0.2556694204369282,
                0.249754202052632,
                -0.115470267857757,
                0.07744004203939422
            ],
            [
                0.4009211828743566,
                -0.17473453391620372,
                -0.2670322597579106,
                -0.15130605827817717,
                -0.19374267568412654,
                -0.03905123714241109,
                -0.05784137801508149,
                0.11217626946761809,
                -0.2399643245112244,
                -0.04113484019601677
            ],
            [
                -0.19358604561136467,
                -0.04037143596020415,
                -0.12988562264017273,
                -0.1910412647631014,
                -0.10480043375471454,
                0.3279621613514958,
                -0.2166586763926337,
                0.20993884815135816,
                0.01700587595408338,
                -0.03174929516477735
            ],
            [
                -0.144891287006544,
                0.0748875648778172,
                -0.1488338596265721,
                0.17692180780668526,
                0.1451724710195862,
                -0.24062148983354992,
                0.14105527244763008,
                -0.11852385899876156,
                0.21372720894991856,
                -0.24463670673027996
            ],
            [
                -0.14850785459437024,
                0.24779303926052207,
                -0.22864677981614434,
                -0.09431892162879739,
                0.2622285819044429,
                -0.20791163273804528,
                -0.20945911349015411,
                -0.05638799735587495,
                -0.09434655782204697,
                -0.02368874004761127
            ],
            [
                -0.020764807110791456,
                0.13500055745465672,
                -0.09566891802410826,
                -0.20379063026641964,
                0.5101334074663845,
                0.20015670177091624,
                -0.16295089211816752,
                0.010841821772317264,
                -0.10506450265889927,
                0.17668580738464051
            ],
            [
                -0.2847867939027644,
                -0.35710282587681313,
                -0.2836260337773318,
                -0.10116671812222826,
                0.19591192765237714,
                0.25966914522858586,
                0.11233956890617645,
                -0.32916645205459794,
                0.004036492091569751,
                0.10783030828327009
            ],
            [
                -0.4685828429972542,
                0.054264359323044686,
                -0.8674441417520754,
                0.5122648600192174,
                0.11670446063728382,
                0.6191597579713514,
                -0.11229649125734481,
                0.1182599776708076,
                0.4136868569570669,
                0.4470595403879547
            ],
            [
                -0.07004344808399032,
                -0.22788308605216295,
                -1.0318970695983354,
                0.5137095521389412,
                0.07557440344568427,
                0.7235243755080912,
                -0.2551915010151925,
                -0.014561929810944858,
                0.08421721900065363,
                0.409352700632098
            ],
            [
                -0.2229324164013775,
                0.17833621909400627,
                -0.663097354530502,
                0.7562906600612118,
                0.10235011079619291,
                0.672514947751572,
                -0.24667082115059738,
                -0.2890653359879203,
                -0.4202863289959624,
                0.21679812153618935
            ],
            [
                -0.08159960113177624,
                0.4983417773055285,
                -0.37091590522339113,
                0.7155890088918839,
                0.11509833097889961,
                0.05003676335973414,
                -0.328058842168938,
                -0.2659529388343106,
                -0.46823372746720493,
                0.021596492027114698
            ],
            [
                -0.28988063696114275,
                0.14230499492421658,
                -0.39733736820209575,
                0.22316255964342027,
                0.00887879591883249,
                -0.2212323405921829,
                0.14243608472404265,
                -0.14535666433838934,
                0.11730970846729832,
                0.6758332921805055
            ],
            [
                0.3781426959807775,
                0.1449603429021475,
                -0.4318045812483046,
                0.19803564530744977,
                -0.17961055019770952,
                0.09000082707168937,
                0.11751291589006514,
                -0.44077437196736174,
                0.09314869343144962,
                0.1903787734532431
            ],
            [
                0.5632781072335802,
                0.005525090942117859,
                -0.5193164655636822,
                0.2144769313962538,
                0.009414673282614729,
                0.029226342601888146,
                -0.14398909654392875,
                -0.14702164103416868,
                0.3634534904451642,
                -0.10941241144218689
            ],
            [
                -0.0766932406807773,
                0.2115383561515144,
                -0.33178969726651475,
                -0.014079086391253806,
                0.0576366682440787,
                0.19643797451728803,
                -0.20383044291883232,
                -0.048204185694206,
                -0.13281556515918233,
                0.06743034465150755
            ],
            [
                0.23836927889706394,
                0.030138013550495446,
                -0.26453659402849095,
                -0.22700081795745258,
                -0.03763884767800847,
                0.11228421666525053,
                -0.2214556812247339,
                0.0483216088479107,
                -0.16860386743387906,
                0.15800049914314032
            ],
            [
                -0.06229565936057666,
                0.08497058391058969,
                -0.07099656853562275,
                -0.01770598173155773,
                0.14639112723927836,
                0.21707014694982213,
                0.00972046542794128,
                0.17354140438908378,
                -0.068290239519781,
                -0.13875175308989685
            ],
            [
                -0.3064683196256826,
                0.05043460008497937,
                -0.09593780305530236,
                0.01589239438106372,
                -0.04920897754260956,
                0.04072971619369311,
                -0.035262702066502234,
                -0.15368358814858415,
                0.013452225715642656,
                -0.2458854297765601
            ],
            [
                0.4085880531731315,
                0.22649814068706375,
                0.279336463079329,
                -0.4029392704045419,
                0.14761441233253178,
                -0.09439100684215987,
                0.19048839354417185,
                0.027578983287200567,
                -0.025540525213714943,
                0.02863598443420671
            ],
            [
                -0.06772296059726605,
                -0.20971807665399458,
                -0.09945183731558128,
                0.47316706756667437,
                0.08125788020043166,
                0.1369103981491845,
                0.4762655444926859,
                -0.20577487338781839,
                -0.19270036685343614,
                0.30469731185200655
            ],
            [
                -0.07829493476102346,
                -0.2934170539714034,
                -0.5603733878255825,
                0.35806851125704847,
                0.0033273849077491667,
                0.7202863226309955,
                0.07295482667891715,
                -0.15353415744546586,
                -0.2732360371225255,
                0.31642694931738685
            ],
            [
                -0.2041483534288563,
                -0.3442410237409566,
                -0.5013790799863204,
                0.5137347558483976,
                0.21889890505923904,
                0.4829479833779587,
                0.2525455936953976,
                -0.10043428539002297,
                -0.4042936465228375,
                0.6021781323200736
            ],
            [
                0.023225800559743274,
                0.26482988532979046,
                -0.429209411133942,
                0.3881325794334563,
                -0.19346077430320124,
                0.4027649910757729,
                -0.129724765648093,
                -0.30828100149264426,
                -0.39335346875503796,
                -0.2901703688352143
            ],
            [
                -0.3068083172638554,
                0.5316594912018641,
                -0.6498548059124516,
                0.4889593857666024,
                0.13082843024413404,
                0.40433806031531766,
                -0.1791630527975077,
                -0.05615947435459221,
                0.2714022015242122,
                -0.2384022602450244
            ],
            [
                0.0051963362062727335,
                0.0925507321128787,
                -0.4590541416200517,
                0.3295839570818777,
                -0.30560736850167447,
                -0.04218313070681141,
                0.1050545453395005,
                -0.12743534439613705,
                0.13413390066984487,
                0.20324012992896956
            ],
            [
                0.017230042260797506,
                0.12338283812846738,
                -0.4907944365068243,
                -0.0006727497918071781,
                -0.11254988527459127,
                0.2315239877613961,
                0.3675540535082096,
                -0.12284137314665242,
                0.13678894851475298,
                0.08049793262302316
            ],
            [
                0.11128663727611565,
                -0.1918435421857766,
                0.10601059555506623,
                0.23009855371549,
                -0.18269680007022962,
                0.24136789749081172,
                0.1577707599931596,
                -0.30707658870741306,
                -0.1236524519226808,
                -0.31466940195796905
            ],
            [
                0.0624340012704038,
                -0.11919842711515347,
                0.11441116451209662,
                0.10232116466327329,
                0.11372018934496574,
                0.1465084623316429,
                0.21473656084872164,
                -0.24517123269988927,
                -0.13475371374246198,
                0.23387196356452716
            ],
            [
                0.050110273961715524,
                -0.0725354375224552,
                0.2896053465049018,
                0.05394549957455737,
                0.22133769858624117,
                0.038123221011344625,
                0.19711235254680942,
                -0.12669070611644467,
                -0.14779430187000406,
                0.15485052169971006
            ],
            [
                0.1704923946974651,
                0.11134473470410645,
                0.24553070128827792,
                0.1506775331483229,
                0.022459709867884863,
                0.22782413355043007,
                -0.024096842433218843,
                0.1070017140997691,
                0.12312184702510306,
                0.0494390712321428
            ],
            [
                -0.08505461245583007,
                -0.13967673403314754,
                0.34635426705628297,
                0.16695384806724395,
                0.20536727089795115,
                0.0844061519701153,
                -0.2240750725551071,
                0.16365002463863854,
                -0.008107620397295694,
                -0.44196604845630777
            ],
            [
                0.022695149806905703,
                -0.14811019246077078,
                0.07563449016884792,
                0.11824998977910006,
                0.2537901590578948,
                0.20550616839032512,
                -0.15411655318536716,
                -0.15780806452165483,
                -0.27695505626156197,
                0.03960721727855047
            ],
            [
                -0.0031654183134023637,
                0.02943339916100284,
                0.09249446822784572,
                -0.12381131105909396,
                0.1608690248966449,
                0.2880656725706264,
                0.4623672146560462,
                -0.3635131975359417,
                0.19801184044264972,
                -0.2498073771071955
            ],
            [
                0.37091938868370766,
                -0.23889182511024662,
                -0.17208728994335232,
                -0.1280692199328768,
                -0.3167921258611668,
                0.1232797777529245,
                0.26446742450461125,
                -0.04827265326258454,
                0.036369539187980846,
                0.43258412596750917
            ],
            [
                0.36358890442818725,
                -0.6787280176696412,
                -0.14172772971999467,
                -0.10262043817270937,
                -0.22823833629284412,
                -0.05877546330853562,
                0.6430803569650022,
                -0.2877459988821772,
                -0.13529340977310686,
                0.021782419302885037
            ],
            [
                -0.09031846935418754,
                0.25349978730496503,
                0.06871724749035972,
                0.4875268975902863,
                -0.0663225775144491,
                -0.30215491355688273,
                0.32482623263673993,
                -0.4039653636840918,
                0.1468145484333144,
                -0.23286439473280102
            ],
            [
                -0.29117141721927237,
                0.3605480551044906,
                -0.0720398846571946,
                0.1364340585461385,
                -0.3225207485495162,
                0.0677073981954913,
                0.14856768308907042,
                -0.0010660156460792014,
                -0.028877459427099083,
                -0.21928595642930968
            ],
            [
                -0.2497116107926346,
                -0.09405297909252441,
                0.4116202796592618,
                0.24170354301739833,
                -0.3460591418457572,
                -0.0347222531896056,
                -0.33023968838881584,
                0.15984081282194723,
                -0.06586068186242802,
                -0.34875038789126805
            ],
            [
                -0.18486293821294553,
                0.14910968591394055,
                0.06056340862571048,
                -0.0036774712156672044,
                0.059154215802255224,
                0.20590596961579052,
                0.1538894713351593,
                -0.0749979710601657,
                0.053277408131960836,
                0.07873424030233932
            ],
            [
                -0.2404878914923943,
                -0.2055310963761428,
                0.4396782171174751,
                0.08453699788506246,
                0.09490123236388025,
                0.18583974137565357,
                0.014107445612033247,
                -0.1999985465495155,
                -0.2719554784183388,
                0.13706458056073798
            ],
            [
                -0.20035854740235118,
                -0.14508067557356352,
                0.3927760108643887,
                -0.37943455313177604,
                -0.17265750498537147,
                -0.13106470826129407,
                0.1144467401174421,
                0.009968694811819475,
                -0.39230260186871896,
                0.24498914455244508
            ],
            [
                -0.26209277258490354,
                0.21635085597964215,
                0.12652102394734102,
                -0.24829124999226868,
                -0.1261143208541778,
                -0.2396651956351291,
                0.23602077242111816,
                0.22236548302458284,
                -0.2643590490529234,
                -0.09087236777994151
            ],
            [
                0.06023767827508433,
                -0.11672639822666046,
                0.1065994914603461,
                -0.07190229378699464,
                -0.2430644769629053,
                0.1544359713449897,
                -0.21953297517500425,
                -0.19762753623264154,
                -0.10371934255962496,
                0.1853376893660475
            ],
            [
                -0.16157049514193417,
                -0.13264870108789353,
                0.4436725397719424,
                0.1988730136140701,
                -0.11111304288191161,
                -0.13981531626702584,
                0.042287210194896924,
                -0.10044270466543467,
                -0.42578882271629964,
                -0.18830777070737162
            ],
            [
                -0.08490107459960824,
                0.1956948286976759,
                0.18528220244146473,
                0.09004342368454339,
                -0.18782803164760947,
                -0.2927464788874637,
                -0.15514724062803611,
                -0.2791623854377098,
                0.07852866747427738,
                -0.061726521997869384
            ],
            [
                0.1930776296272878,
                -0.27263504380454384,
                0.08087008934754707,
                0.33190462583877023,
                -0.2777214597159341,
                0.2771149860341807,
                -0.051882592929598535,
                -0.30384363150607774,
                0.24504056005815733,
                0.09040763283251119
            ],
            [
                0.10843625792617119,
                -0.19041679822167662,
                0.24165081298827434,
                0.047514991001418934,
                -0.374965226248614,
                -0.02190808331678074,
                -0.054565228011724705,
                -0.3006052973582462,
                0.19502129698434398,
                -0.19969600683285538
            ],
            [
                0.4397141701551245,
                -0.5112715100600852,
                0.39462090391780963,
                -0.10261909484036572,
                -0.0781686001838761,
                0.1874040979203308,
                0.6481228948022602,
                -0.5012958499587129,
                0.41128693233851454,
                -0.48106831037525916
            ],
            [
                0.29209726035006517,
                0.0961276020430866,
                0.021255696478349462,
                -0.1979620641591693,
                -0.29491000791181754,
                -0.08389070535385243,
                0.445018785352422,
                -0.0820263539946181,
                0.22787318092486247,
                -0.3842216217565399
            ],
            [
                -0.2977644042193544,
                0.11911740669470573,
                0.35208520300254914,
                -0.583484899481547,
                0.28213076283797883,
                -0.21980887767796028,
                0.5820885171376203,
                -0.06829380566627175,
                0.29454089902919905,
                -0.1972624235875634
            ],
            [
                -0.1209148301119231,
                0.24818174836159912,
                0.44708510270909047,
                -0.1480615570680783,
                0.24543844133229029,
                -0.103862019834514,
                0.2981030063585569,
                0.3168770928842734,
                -0.26687294397766076,
                -0.2633501863529776
            ],
            [
                -0.3607426204205344,
                0.14613001771819956,
                0.33399205087476375,
                -0.22789535936474092,
                0.6819042916047932,
                -0.43893805422579885,
                -0.22566938689117502,
                0.2249680250237955,
                -0.4161307181442748,
                0.042661324190619576
            ],
            [
                0.10851682572473316,
                -0.0917392966475618,
                0.40660514521697544,
                -0.03588987830764025,
                0.22536650665682081,
                -0.25317606762633676,
                -0.14674220194058998,
                -0.14428221531433905,
                -0.0029165174488607975,
                0.12915650305361495
            ],
            [
                -0.27186249187801587,
                -0.1492733718900363,
                0.1658935506796636,
                -0.2726519947677107,
                0.23061065162336408,
                -0.14048698309496208,
                -0.28996683887548785,
                0.09261211261748166,
                -0.12109616121604747,
                -0.016106831266215947
            ],
            [
                0.08954693374246177,
                0.1386230198070189,
                -0.011948132016786774,
                0.04419021507112334,
                -0.22978992613693605,
                0.059199698934192004,
                0.10308171322863557,
                0.18779401157860806,
                0.08836380927801576,
                0.04758569906799625
            ],
            [
                -0.21696279129601256,
                0.05122855173632621,
                0.1471892217390453,
                -0.056892560062983245,
                -0.12027751184913132,
                -0.1608292211790892,
                -0.17547996863756987,
                -0.18643951402273937,
                0.054870560815940515,
                -0.04688632389970686
            ],
            [
                0.2348341995458985,
                -0.14689018105344404,
                0.050221745944895826,
                0.34546114802417827,
                -0.2611246819640252,
                -0.15265463816938338,
                -0.13926614160453546,
                -0.06939309515087039,
                -0.06966842968867779,
                -0.12773138388931665
            ],
            [
                -0.021074270278215814,
                0.3598040610814456,
                -0.1754669771192087,
                0.29780149934553113,
                -0.04146594358974356,
                0.1398696988309556,
                -0.08714124705616287,
                0.07091080661525319,
                -0.02189080026068229,
                0.015184515141719533
            ],
            [
                -0.025766239524491478,
                0.17952502619546695,
                0.17501968102636747,
                0.2801390343675448,
                -0.16216477403381158,
                0.2743126413134844,
                -0.11729981087390921,
                -0.5283294223248841,
                -0.05927690709634023,
                -0.3998170240109295
            ],
            [
                0.3909596794833158,
                0.30298244669224683,
                0.07703829053435036,
                -0.25795056113307174,
                -0.14633854792563267,
                0.36853852427310596,
                -0.06693597024953227,
                -0.4801270927699798,
                0.25245297321167137,
                -0.1483962143453777
            ],
            [
                0.20867013586466981,
                0.24332596182499272,
                -0.12328437693847005,
                -0.26694007574439627,
                -0.05850251120606386,
                0.23195396155197917,
                -0.011086357427090994,
                -0.42669206486289774,
                0.024222233983230902,
                -0.3291751339453947
            ],
            [
                0.1432431811170552,
                0.4849586512628682,
                -0.07850515887733357,
                -0.4454867896037927,
                0.3011474372190248,
                -0.07398851945894876,
                -0.18440824599531125,
                0.10995425039558487,
                0.12426109578668684,
                -0.3977062675310236
            ],
            [
                -0.2304043791857876,
                0.46680014019653804,
                0.21995205100020188,
                -0.5278832329104504,
                0.5321603850271851,
                -0.40907433010489613,
                -0.14017356505103734,
                0.3534303454640725,
                0.02544640315579826,
                -0.3586800825174994
            ],
            [
                -0.4480702064899824,
                0.013880552774289553,
                0.042863043108532624,
                -0.63961446685472,
                0.6807097830573992,
                -0.4194310479027016,
                0.04094411426556664,
                0.33566341580322684,
                0.00026125577942955427,
                -0.16460608047164918
            ],
            [
                -0.360062617657974,
                0.5497659518304712,
                0.16613802073611228,
                -0.4193857118944536,
                0.4009623429237078,
                -0.611764283431822,
                -0.2507928917062592,
                0.2990046867630621,
                0.11534991269471177,
                0.022141069106871702
            ],
            [
                -0.3627964160346168,
                0.322945124529662,
                0.27740643505739787,
                -0.07367601339021101,
                0.17067720821591767,
                -0.3728292451409792,
                -0.08043802001591062,
                -0.22999573956133654,
                -0.3711955734183383,
                0.17382904770696866
            ],
            [
                0.1514128827013531,
                -0.12415458678988298,
                0.14570648913909473,
                -0.3035682323233034,
                -0.0710874105961201,
                -0.09715377082347192,
                0.11165405076986974,
                -0.08444400370425806,
                -0.24615990292244988,
                -0.0543322574850476
            ],
            [
                0.1078135879456989,
                0.12021143586175619,
                0.004750074273191745,
                0.11114030037736103,
                0.1523774565526219,
                -0.15092743711018566,
                -0.18186633994739038,
                0.0839719256350394,
                -0.18971406279664452,
                -0.15497383281492183
            ],
            [
                0.0757852307144181,
                0.04663286471310086,
                -0.0241393216783634,
                -0.13544644064994077,
                -0.015160763910165513,
                -0.2298407685255962,
                -0.19345531560486132,
                0.12918087812390702,
                -0.20816267084740245,
                -0.17873784947315002
            ],
            [
                -0.11599506467016958,
                -0.11869042168754058,
                -0.2001110291404377,
                0.0005431615384667261,
                0.23184805039022205,
                -0.09984817639713672,
                -0.05930913704690228,
                0.1238368118676493,
                -0.1718388893058554,
                -0.07112576774961951
            ],
            [
                -0.0724357747489047,
                0.10379278465148324,
                -0.27728098508425386,
                -0.041157604437793344,
                0.10068434447316428,
                0.03216202396234501,
                0.08148402744566069,
                0.13784270682729308,
                -0.07546758316864817,
                0.10470271854152775
            ],
            [
                -0.17044978173015624,
                0.21217823292242505,
                -0.21720434190397792,
                0.334420548749495,
                -0.2097832069289053,
                -0.025039927306412857,
                0.15830747420128247,
                0.3174544414939816,
                -0.11231022181616422,
                0.18001462151509456
            ],
            [
                0.06081888345182442,
                0.24683384659604202,
                -0.12605254194334597,
                -0.07779497780992624,
                -0.015264464421705714,
                0.1455969413538672,
                0.10291540680494343,
                0.13936264628498432,
                -0.016031640314242753,
                0.002637141199773928
            ],
            [
                -0.08743403326302755,
                -0.10586845658714103,
                -0.024463826722227938,
                -0.33357705502179885,
                0.29543803413189046,
                -0.04010008790037006,
                -0.055517031670254416,
                0.42714987854089703,
                -0.15825588837404947,
                0.04429400703772203
            ],
            [
                0.033935577551734264,
                -0.0013029413038576033,
                -0.013948202633953667,
                -0.24229917452034772,
                0.2082660604977765,
                -0.03776989806996455,
                0.1372685460399954,
                0.15163611467118593,
                0.04515549633035009,
                0.30818121491110734
            ],
            [
                -0.451054031818401,
                -0.1848487627948564,
                -0.08599182498630947,
                -0.5595785348809916,
                0.37798543879608415,
                -0.010161765649131118,
                -0.10032563288660323,
                0.3590686667578119,
                0.03144735404139031,
                0.023803859573564373
            ],
            [
                -0.29665785534711364,
                0.1299463723834183,
                -0.22504875704119073,
                -0.42584933195585173,
                0.13085928040532266,
                -0.08386334937644203,
                0.24041170293124153,
                0.4953269874353918,
                0.06439971978663211,
                0.341093086740534
            ],
            [
                0.09482653915090997,
                -0.04371122054763178,
                -0.05519291452504997,
                -0.2544419417202912,
                -0.09332691454166778,
                -0.06460986510824152,
                -0.22939396941516957,
                0.13209453559939296,
                0.15215889651268732,
                0.48355261303203767
            ],
            [
                -0.18217951846624572,
                0.04004826421577879,
                -0.19260062765849598,
                -0.0719837760498299,
                0.2800092941894888,
                0.1538551857281957,
                0.22354300982196806,
                0.1508591516129778,
                0.03548309638031552,
                0.22366587466466123
            ],
            [
                -0.12214050319854193,
                0.06599553066468053,
                0.009670764634993575,
                0.14229731506078974,
                0.2663794265849623,
                0.24215869796227601,
                -0.1425154148692973,
                0.18208010504932487,
                -0.05622703966799064,
                0.08787801754154717
            ],
            [
                -0.1475996617385432,
                0.12680042978400827,
                -0.06796878304496401,
                -0.027425303779019118,
                -0.24268395773717588,
                0.012006836965274204,
                -0.18980438569342678,
                0.12412976433421286,
                0.21315078076930677,
                0.15781771585390647
            ],
            [
                -0.05301688481431232,
                -0.09896519583826008,
                -0.06963232003811355,
                0.13127488407804364,
                -0.08875410910724549,
                -0.1180462959815986,
                -0.2117665843635161,
                -0.06246458551446784,
                -0.247480323083792,
                -0.05377003270300135
            ],
            [
                -0.12933886766976807,
                0.10107821408090158,
                -0.11022644184196215,
                0.1696117968934044,
                -0.07148012433058613,
                0.029720451817506797,
                0.040385613367863844,
                -0.151980930213522,
                -0.1321921415657681,
                -0.0678526107587823
            ],
            [
                0.10638671128289909,
                -0.05068048711327337,
                0.07020087248235321,
                0.054877754327719325,
                0.12740495229525148,
                0.1980236813361871,
                -0.037952162207315926,
                0.17837339286699871,
                0.23608964762056087,
                -0.04702713246181144
            ],
            [
                -0.09448731209134066,
                -0.025888374707160808,
                0.033418747707357394,
                -0.2160884311347696,
                -0.005802126754114079,
                -0.060947937487384446,
                0.03629850680798151,
                0.10655750193353153,
                -0.06647488747771053,
                0.04087407589768015
            ],
            [
                -0.2220730697797372,
                0.24844819732198464,
                -0.056893570967921525,
                -0.202230874844621,
                0.0022042418793171386,
                -0.23748789616074245,
                -0.11893092208899501,
                0.18438025809877837,
                0.05027786889051715,
                0.17522022989993566
            ],
            [
                0.00758961787474817,
                0.18958939589583323,
                0.2071909279517177,
                0.013504476157920864,
                0.18796965770132842,
                0.03718707352913892,
                0.2923936126183507,
                -0.10922314580476844,
                -0.020358808765635606,
                -0.15701815387111895
            ],
            [
                0.03197070506941479,
                0.05987377699370884,
                0.12348734779650684,
                0.11243900480624358,
                0.07342583431077866,
                -0.2072599115197497,
                0.40962629972660713,
                0.10397579399768186,
                0.12468282178723288,
                0.1662395515763803
            ],
            [
                -0.18410292079588017,
                0.1923444017935163,
                -0.20436893267531753,
                -0.21595265925462842,
                -0.1351677492610095,
                0.10468351525602121,
                0.12275625137060907,
                0.061532717431240044,
                0.024810076894381448,
                0.07425589601311133
            ],
            [
                -0.2586486063558734,
                -0.083984529131718,
                0.06514298378077066,
                -0.032538992617682776,
                -0.06406736884028788,
                -0.048746010073285065,
                0.28091691816514514,
                -0.050836646700888645,
                0.174280406784536,
                0.18048116573832906
            ],
            [
                -0.1684193887547907,
                -0.002896540158467885,
                0.06858117904372121,
                0.13819222655925772,
                -0.16453086850622525,
                -0.11122235998415536,
                0.1884585335500329,
                0.07799160870445243,
                0.16881814804194928,
                -0.0611043809424906
            ],
            [
                -0.06781672013006362,
                -0.2262373291447303,
                -0.0577257662935698,
                -0.026588375566453923,
                -0.12842177444580657,
                0.041738888947365396,
                0.08019493820631902,
                0.1924023414815337,
                0.008037736284633192,
                -0.2562019420402552
            ],
            [
                -0.029016550372840236,
                -0.025158422371919134,
                -0.12273968110559784,
                -0.17652429633532418,
                -0.01930830540733715,
                -0.1003119017355164,
                0.30465663026326395,
                -0.24979905313897838,
                -0.08235266818545744,
                0.10032519739659847
            ],
            [
                -0.025520987590664488,
                0.020860829755525532,
                -0.13108456072316224,
                -0.15363291633588722,
                0.01087802368895857,
                0.18091471842118778,
                -0.07249984507068373,
                0.2428242120416685,
                -0.24319950012757546,
                -0.09173326494598567
            ],
            [
                0.19151218978461718,
                0.15423983081557166,
                -0.031995641326266325,
                0.09522642414413614,
                0.0760970333534902,
                -0.13924441482343453,
                -0.07332626890333566,
                -0.21848757800821472,
                -0.17704152764132683,
                -0.04534683497675403
            ],
            [
                0.17866698078956758,
                0.24550228232274848,
                -0.17682419248968012,
                -0.1869841932374458,
                0.0635211678835503,
                0.12649835609487547,
                -0.20044504893561227,
                0.1312724113538359,
                0.01285793861052424,
                -0.12077330307252541
            ],
            [
                0.17553608326048975,
                0.0759868084112082,
                -0.029204086985497132,
                0.10893324123782633,
                0.02066211521619623,
                0.016438747296067435,
                -0.04466707948621525,
                0.07917393931950054,
                0.15641075039304053,
                0.21574907423927756
            ],
            [
                -0.19913055882480354,
                -0.13312195730586393,
                0.19145676090342026,
                -0.14671602863642658,
                0.018866530129696964,
                -0.18966008678631435,
                -0.0017715158111753012,
                0.1023003990725621,
                0.13617018449829688,
                -0.00451288944269826
            ],
            [
                -0.0068443339125826745,
                0.14977020447975223,
                0.21627472545068785,
                -0.07046910253157151,
                0.06805167144403863,
                -0.07449652416155926,
                0.10230804821519444,
                0.00482543205759842,
                -0.1540938521328385,
                -0.04994958199621374
            ],
            [
                0.026652884193281233,
                0.2918328407013814,
                0.20959216213305945,
                -0.09446184616361857,
                -0.011352897090999799,
                -0.0327277209491548,
                -0.07260796175357809,
                -0.060040957980872806,
                -0.09106775708167615,
                -0.17676697682468143
            ],
            [
                -0.11718192014039647,
                0.4123426172643035,
                0.12994244249814796,
                0.1741775010681273,
                0.14751729763971533,
                -0.11799099496060479,
                0.20567241887996068,
                0.10781698055244435,
                -0.05045804257516057,
                -0.09398664152727072
            ],
            [
                0.07844069914093145,
                0.05302276576482402,
                0.2552483015014586,
                -0.03279984674475783,
                0.2270666671619035,
                -0.21324223144219298,
                0.001892782103281329,
                0.08905857758431941,
                -0.011966411539755138,
                -0.16581423846720528
            ],
            [
                -0.19180833901899544,
                0.22681623034054052,
                -0.06898408267808251,
                0.18163095493801057,
                0.23097089224576653,
                0.08016009286205915,
                -0.1219791209662128,
                -0.28206978452433495,
                -0.07732909661661408,
                -0.2638262548535673
            ],
            [
                -0.21917740378665918,
                0.25776391952747785,
                0.09043752606366892,
                -0.1044410630988156,
                0.16202400608873913,
                0.10348850736259695,
                -0.11070057661723048,
                -0.2841143429186805,
                0.10230809122286362,
                -0.34795217119320054
            ],
            [
                0.19803918851379979,
                0.060960158662200274,
                0.14876797521990243,
                -0.20596961413069395,
                -0.10823099289021361,
                -0.1325363923104583,
                0.10989451461426078,
                0.05966428332358374,
                -0.15603533032935965,
                -0.19207087350241073
            ],
            [
                -0.11662831506695215,
                0.17203291499607773,
                0.23298904555154135,
                0.2274223503437079,
                -0.026180871438639803,
                -0.2167294057388417,
                0.055442807210648225,
                -0.09759567658054338,
                -0.04444744553267007,
                0.18110074511934643
            ],
            [
                0.1450065494627283,
                0.22620462563416543,
                0.11335367088048313,
                -0.14010141326467457,
                0.21569257653721893,
                -0.08409953853139769,
                0.21337584996974573,
                0.17661883799370623,
                -0.12096400549770109,
                -0.20158638795934955
            ],
            [
                -0.25380271945396876,
                -0.04587556907631878,
                -0.2787639819251437,
                -0.2086472671848177,
                0.4353160496291922,
                -0.012182433200989835,
                0.16424127229595775,
                -0.08566082714385735,
                0.11831175477973996,
                0.06209310259833559
            ],
            [
                -0.1548827636914695,
                0.09701898393662402,
                0.20257522509969986,
                0.022334882834328815,
                0.09770181990268506,
                -0.23673273148211899,
                -0.20284927389468632,
                -0.13706451725435748,
                0.00692639772452764,
                0.05167920759913332
            ],
            [
                -0.12555742576044632,
                -0.06051516418748583,
                -0.10515180636177557,
                -0.046818807590038786,
                -0.02882098986884732,
                0.2249187836636956,
                0.20221598772418573,
                -0.13794874515579805,
                -0.08418159169611,
                -0.1419300476271237
            ],
            [
                0.17673569885644963,
                0.14738181996010835,
                0.15687851412063264,
                0.22504775948520714,
                0.022679538507264334,
                -0.1941502038525957,
                0.2895568793512714,
                0.06368150126302782,
                -0.013914396023037375,
                0.020861345600383763
            ],
            [
                -0.10992870462177501,
                0.15224367008100123,
                0.09557262251834782,
                0.23728354455879042,
                0.5979997305913165,
                -0.0287941105416195,
                0.15988427527254637,
                0.00965810027541761,
                -0.4441540931224695,
                -0.21060068146292973
            ],
            [
                -0.17935871674199766,
                0.3314120981576174,
                -0.3003389416686245,
                0.23538853263143641,
                0.7225220677546369,
                0.08892107752054494,
                -0.025907995734500828,
                0.4346549604271067,
                -0.44050261121624296,
                -0.8057541317910623
            ],
            [
                0.046853630281366784,
                0.2854402162790755,
                -0.23305771769113223,
                -0.057644398530805246,
                0.7070380379856566,
                -0.27546360267195963,
                0.14583585453058553,
                0.358754637900243,
                -0.35831338936402884,
                -0.8972832341838762
            ],
            [
                -0.14522110718100614,
                0.11556727381904498,
                0.15548740557087182,
                0.47706640454172117,
                0.7374199604995736,
                -0.4109625984898128,
                -0.24796206365503848,
                0.011242333889377577,
                -0.3124244231757905,
                -0.6228539704476791
            ],
            [
                -0.06953072137717128,
                0.3912290079121374,
                0.2890286093781352,
                0.4552965643222653,
                0.7136746373364256,
                -0.43212537630255826,
                -0.4168538734501087,
                -0.006789939205791309,
                -0.05083795077814028,
                -0.1833792019015729
            ],
            [
                -0.0965800920997859,
                0.07211460429179012,
                0.13521399689967453,
                0.24387632915938257,
                0.22680881593601557,
                -0.50248685893848,
                -0.6366672097916858,
                -0.13937526124972463,
                -0.12944495748800602,
                -0.04083328652380839
            ],
            [
                -0.062038535804936824,
                0.020745445748157103,
                0.3690288552790747,
                0.34350154373258346,
                0.1835397961790647,
                -0.1982002481983834,
                -0.4663583513896531,
                -0.19715620681825713,
                0.22888755504596311,
                -0.044772369183991176
            ],
            [
                -0.023727428289588987,
                -0.22678272873517238,
                0.18547473830934896,
                -0.05947012037049126,
                0.1530942269667857,
                -0.31641785925810206,
                -0.06508679803258216,
                -0.3858055796675605,
                0.16858275598571523,
                0.24021909792685134
            ],
            [
                0.20414642273087963,
                0.251636238766829,
                0.20424652185747685,
                -0.0893119187427236,
                0.37521082294621194,
                -0.3332027093316662,
                0.06599720820267259,
                -0.297747351662686,
                0.25877026299681594,
                -0.4324161808651891
            ],
            [
                -0.04862517294050628,
                -0.17951752875295054,
                0.03839850918088924,
                0.09892223545476515,
                0.47700710355915055,
                -0.01416830332882168,
                -0.15462540982933617,
                -0.28286418688983084,
                0.03366851562234293,
                -0.1834995859551225
            ],
            [
                0.058462108283556795,
                -0.22697845520182633,
                0.15755599239505094,
                0.04138909239939872,
                -0.06575753057983515,
                0.03426014074700586,
                0.20081807779633612,
                0.09837535530827252,
                0.17797818099574966,
                -0.22794377749886988
            ],
            [
                0.17516357199713697,
                0.08467548248824557,
                0.09175121707303195,
                0.18656641260860854,
                0.1675119119809396,
                -0.06106376094526945,
                -0.14374708542996997,
                0.13140710757645996,
                -0.08180511730587431,
                -0.287462925375569
            ],
            [
                -0.11423567166417845,
                -0.08720146945504118,
                0.251278741225261,
                0.05222955003282625,
                0.1628703745514329,
                0.09062386887363783,
                0.08905550450346322,
                0.039968486824338297,
                0.0018478459629230502,
                -0.4558192623440712
            ],
            [
                0.052212496689191694,
                0.02796132276317313,
                0.052092536252031904,
                -0.08994046068394758,
                0.5178039436993721,
                -0.08407875829611616,
                0.009083473173574228,
                0.45432208024316545,
                -0.4015700571084371,
                -0.4207358199980211
            ],
            [
                -0.16427452293786982,
                0.2321261042262124,
                -0.05021737091269686,
                0.2038346783057806,
                0.8789682885284706,
                0.06872876822199317,
                -0.02634171666735743,
                0.2881486354641706,
                0.003606533582353257,
                -0.9070281279549619
            ],
            [
                -0.39342822397470206,
                0.34397654400346017,
                0.03601639793559671,
                -0.025368157901520732,
                1.332384230155898,
                0.2667410977960863,
                -0.1483469181534717,
                0.21900957489494233,
                0.00010282119334012666,
                -1.209615076225664
            ],
            [
                -0.1269842829692628,
                0.23601330841061516,
                0.2674286593283267,
                0.13378664702691512,
                0.6599852523521289,
                -0.0178964194391579,
                -0.5039252194367994,
                -0.1747049571591491,
                0.12857412320825026,
                -0.305136878733898
            ],
            [
                -0.005842356618154868,
                0.5709024501427485,
                0.5619613082677076,
                0.14766322185017416,
                0.5302898818464892,
                -0.4226857295709382,
                -0.5853193342601478,
                -0.31441941505330334,
                -0.06517831423303982,
                -0.09190462580179545
            ],
            [
                0.16125838485469043,
                -0.2353141537189712,
                0.37385329060178346,
                0.3835861034207401,
                -0.21137191083193144,
                -0.46943747543766995,
                -0.8431467661266536,
                -0.0524382925067931,
                0.12091771723482225,
                0.5275344821603793
            ],
            [
                0.6331035523282096,
                -0.4154391025864721,
                0.5472095581876114,
                0.032100862065149526,
                0.04413810904040885,
                -0.693090713476578,
                -0.7931983049869469,
                0.14723526480799928,
                0.3967605411585261,
                0.3623112978364617
            ],
            [
                0.27764925088014425,
                -0.3339414974298083,
                0.3191559699860666,
                0.12517354705915654,
                0.04218022184591948,
                -0.4936312355108789,
                0.12747192667014215,
                0.19708630699813734,
                0.1237600527665646,
                0.19060425770982278
            ],
            [
                0.009385392124038354,
                -0.3157150976210497,
                0.1331365754534748,
                0.05293793352653473,
                -0.2417293197190206,
                -0.3956444534808949,
                -0.1110442707217491,
                0.02690374215065628,
                -0.004425253842450206,
                -0.08180687902765252
            ],
            [
                0.28664819123094926,
                -0.18568191419316293,
                -0.3883464717619637,
                -0.26617842074815873,
                0.39526758751913965,
                -0.15599234645213236,
                -0.3022601945835179,
                0.005347138483275291,
                0.40817050901782015,
                0.013467800728121369
            ],
            [
                -0.19216478043972077,
                0.15834553615448,
                0.18944495690509588,
                -0.05200201147297558,
                0.1509075733575523,
                0.13158941190633855,
                0.1371269140905389,
                0.23077027375401932,
                -0.06286834903306325,
                0.20405332222718942
            ],
            [
                -0.111192873171497,
                0.11931752423924616,
                0.14424418493123675,
                -0.04271625126959906,
                -0.19966756054761062,
                -0.0425753460424233,
                0.0910067637703213,
                0.03062905577968871,
                0.08630631681691119,
                -0.378822362867194
            ],
            [
                -0.12566439820529957,
                0.2088814529456756,
                0.2129587063693287,
                0.09102030444607782,
                -0.012381777955772994,
                0.10793811731958272,
                0.09664832846735999,
                -0.1353631266467156,
                0.16386424880975736,
                -0.10081992281339518
            ],
            [
                -0.24653557589996497,
                0.13028836335060498,
                0.05035886366928341,
                -0.10209135358190286,
                0.45013375254332194,
                -0.08208412732536696,
                -0.1704026296766456,
                0.0526810692172217,
                -0.10044428070548614,
                -0.12945210480368874
            ],
            [
                -0.07272517927190027,
                0.02314508648161948,
                -0.1420180473113973,
                -0.31866257342937676,
                0.772314491689629,
                0.4211299384427816,
                0.23111222391454161,
                0.05589818547831917,
                0.3239883558832498,
                -0.24183939896550202
            ],
            [
                0.1449608550737769,
                -0.27762534512981,
                -0.09011294691696888,
                -0.7491101731918361,
                0.6982041368469319,
                0.552300117293407,
                -0.2674172011461919,
