{
    "seed": 672622,
    "learning_rate": 0.01,
    "epochs": 1000,
    "output_filename": "CNN_C",
    "convolutional_layers": [
        {
            "kernel_count": 6,
            "kernel_dim": 5,
            "padding": 0,
            "pooling_dim": 2,
            "weights": [
                [
                    [
                        [
                            -0.013720105352620492,
                            -0.16463305829147853,
                            0.064622058906126,
                            -0.22110442079721374,
                            -0.2505307768670399
                        ],
                        [
                            -0.11419927596276111,
                            -0.2115876355580763,
                            0.04398824127156831,
                            -0.15234229661091173,
                            -0.49769625307635534
                        ],
                        [
                            0.5234390297981315,
                            -0.40909494780361777,
                            -0.013755984105410962,
                            -0.2823529832465234,
                            -0.21290188712526573
                        ],
                        [
                            -0.029691072252630245,
                            -0.02460294191166944,
                            -0.2168249412719633,
                            0.104152935199675,
                            0.05769891873050463
                        ],
                        [
                            0.09620051811339693,
                            -0.3041840806183253,
                            0.037947243166070135,
                            -0.003932104841651228,
                            -0.22049593376728135
                        ]
                    ]
                ],
                [
                    [
                        [
                            0.4877675576862464,
                            0.8383630429205137,
                            0.4689030448850433,
                            0.17459407742540986,
                            0.27157848638001325
                        ],
                        [
                            0.5120011617306859,
                            0.44053454125648706,
                            0.9445767878139069,
                            0.5157461443322896,
                            0.5641765104354148
                        ],
                        [
                            -0.603613783703815,
                            -0.7368951728876724,
                            -0.24403422840118408,
                            0.06053465974416074,
                            0.13330610503262358
                        ],
                        [
                            -1.0092233084786033,
                            -0.5274727950167742,
                            -0.5779585968665363,
                            -0.7402865651043992,
                            -0.4293343722815277
                        ],
                        [
                            0.15990038084191707,
                            -0.5757302386460983,
                            -0.4129781183826055,
                            -0.3204177425902844,
                            -0.4964059425132873
                        ]
                    ]
                ],
                [
                    [
                        [
                            -0.13370656682545476,
                            0.3938836720990178,
                            0.6928420914403528,
                            0.20282887320359053,
                            -0.1760188286356615
                        ],
                        [
                            0.28296597738588986,
                            0.5622478738290594,
                            0.2225828867737176,
                            -0.7032083283801442,
                            -0.26135240035424206
                        ],
                        [
                            0.6465826076833565,
                            0.373153997295852,
                            -0.3947385149079203,
                            -0.43545150870615507,
                            -0.027342886243114203
                        ],
                        [
                            0.5499395976674396,
                            -0.10831355574024973,
                            -0.10344445111663571,
                            0.025413917438540934,
                            0.07271860597957257
                        ],
                        [
                            0.12949435081698996,
                            -0.1437678534344074,
                            -0.24746765522049535,
                            -0.4501242412198098,
                            -0.5961328103451804
                        ]
                    ]
                ],
                [
                    [
                        [
                            -0.452181565204222,
                            -1.0649744523748372,
                            -0.9987019225520338,
                            0.013275433722336232,
                            -0.17206816570558092
                        ],
                        [
                            0.05930124908571814,
                            -0.0931306455250197,
                            -0.7974536075225951,
                            -0.6176936459679683,
                            -0.35176235112866366
                        ],
                        [
                            0.9494648882355179,
                            0.010026085452329593,
                            -0.11211729886581076,
                            -0.6731748315560472,
                            -0.3579585454326664
                        ],
                        [
                            0.24945491311100806,
                            0.13494497362671573,
                            0.32747243429701944,
                            -0.5330788336873481,
                            -0.29764341518405973
                        ],
                        [
                            0.5049544315096959,
                            0.6558584030526061,
                            0.16273804153405896,
                            0.3557346367051073,
                            -0.35706715483331464
                        ]
                    ]
                ],
                [
                    [
                        [
                            -0.2802162626420511,
                            -0.4350189073495037,
                            -1.001999543821942,
                            -1.1727032717847012,
                            -0.7292011462230892
                        ],
                        [
                            -0.5716857419367236,
                            -1.0479665446349975,
                            -0.9073460609656999,
                            -0.7238850405669631,
                            -0.12662670225884118
                        ],
                        [
                            -0.8645708773326309,
                            -0.6322279773237535,
                            0.04988680308258707,
                            0.23258464234440085,
                            0.5078825788329568
                        ],
                        [
                            -0.5640783455955741,
                            -0.7778674975414088,
                            0.6073094304294415,
                            0.6361903469880059,
                            0.333694305862145
                        ],
                        [
                            -0.8945163999845841,
                            0.2966109565101137,
                            -0.21208078438842903,
                            1.0573216863992605,
                            0.4709208799856439
                        ]
                    ]
                ],
                [
                    [
                        [
                            -0.48186927163192017,
                            -0.08555504510697012,
                            0.6354868524750144,
                            0.338870711590791,
                            -0.18792965173193915
                        ],
                        [
                            -0.065841204692199,
                            -0.04529625159774428,
                            0.053356110187058825,
                            0.45190895862627695,
                            0.20000345543656442
                        ],
                        [
                            -0.5408607124659202,
                            -0.04448508245817649,
                            -0.3999041760890661,
                            0.35735654437800124,
                            0.3160071366864637
                        ],
                        [
                            -0.2420489689816254,
                            0.08598241739447124,
                            -0.1581749199454537,
                            0.19551830766890504,
                            0.4072056722733256
                        ],
                        [
                            -0.5920785030160555,
                            -0.0553469829855438,
                            -0.28854304584740376,
                            -0.013664283096377019,
                            0.2866802041220423
                        ]
                    ]
                ]
            ],
            "biases": [
                -0.00011642241538485254,
                -0.001160154967333507,
                -0.004646053729880431,
                0.001217728638945164,
                0.005415471860145266,
                -0.006174054702940041
            ]
        },
        {
            "kernel_count": 6,
            "kernel_dim": 5,
            "padding": 0,
            "pooling_dim": 2,
            "weights": [
                [
                    [
                        [
                            -0.042788366945902545,
                            0.1099175515817876,
                            -0.1233373006719955,
                            -0.16038932957378677,
                            0.03663835262791176
                        ],
                        [
                            0.07237230464625931,
                            0.08019683337776588,
                            -0.05470832504075905,
                            0.08304221005334868,
                            -0.16383501330114225
                        ],
                        [
                            0.02613646510786784,
                            0.024679911493256452,
                            -0.03152256024997924,
                            -0.024963076997561628,
                            -0.21706986745092097
                        ],
                        [
                            0.08855825660775292,
                            -0.046433209472372824,
                            0.1484123026852436,
                            -0.06993565963067298,
                            -0.18685184202326935
                        ],
                        [
                            -0.007475853800315306,
                            0.04409566456414148,
                            0.036236137887353206,
                            -0.07397241261682362,
                            0.06175050703315779
                        ]
                    ],
                    [
                        [
                            0.18606520651157987,
                            0.009379306590316288,
                            0.030855458631964528,
                            0.3491961709582277,
                            0.41025965456791946
                        ],
                        [
                            -0.11437543220506699,
                            -0.2151166503922122,
                            -0.0060945331346858355,
                            0.3244702618598173,
                            0.18678822587926858
                        ],
                        [
                            0.12511967759742537,
                            0.24949537094628765,
                            0.1170628325040917,
                            0.026805790509754877,
                            -0.04741843469392871
                        ],
                        [
                            0.1190324956802432,
                            0.07526445915228269,
                            0.16179671368045845,
                            0.14970944203148015,
                            -0.022099750962676967
                        ],
                        [
                            -0.15693115566714072,
                            0.09057693608369662,
                            -0.008596151758730096,
                            -0.21050395110250458,
                            -0.32255639302064654
                        ]
                    ],
                    [
                        [
                            -0.3226312662639405,
                            0.03095082065495162,
                            0.12337094685088186,
                            0.2839771661131166,
                            0.28150908717510703
                        ],
                        [
                            0.47184831923127146,
                            0.5569403577955336,
                            0.7018029002585019,
                            0.2988204044765823,
                            -0.1885163201155571
                        ],
                        [
                            0.396103760054116,
                            -0.010949753008669556,
                            -0.3715820040828474,
                            -0.4765186661998788,
                            -0.24923361945961428
                        ],
                        [
                            -0.7197440909222234,
                            -0.6749797690865188,
                            -0.4212827447561544,
                            -0.3506782806435248,
                            -0.1305564196078379
                        ],
                        [
                            -0.3987160299880639,
                            -0.22655920440113905,
                            0.021154252103253977,
                            0.19179156483738752,
                            -0.23710725585496192
                        ]
                    ],
                    [
                        [
                            -0.1461014611013103,
                            -0.47018359684953875,
                            -0.680923621996979,
                            -0.13841039877296868,
                            0.034976138383161916
                        ],
                        [
                            -0.42761774072450287,
                            -0.3872973064293173,
                            -0.39964354502763577,
                            -0.5173616657952794,
                            -0.19742691799952622
                        ],
                        [
                            -0.23005706294492909,
                            0.15105558836218685,
                            0.26765349384609005,
                            0.3984525803778622,
                            0.06556021163165743
                        ],
                        [
                            0.12534655889452526,
                            0.2760461582205359,
                            0.43176959047568314,
                            0.14871570917196836,
                            -0.12014403352724627
                        ],
                        [
                            0.26332740010890493,
                            0.29703958125880875,
                            0.07917099813677377,
                            0.025980111260969087,
                            -0.057777658363549096
                        ]
                    ],
                    [
                        [
                            0.44032922857950774,
                            0.41017924488803675,
                            -0.13539802787583088,
                            -0.19719985318700653,
                            -0.43354999205530936
                        ],
                        [
                            0.24292807662276994,
                            -0.21818626567310673,
                            -0.3854769912922291,
                            -0.37654526184239834,
                            -0.3145063960236378
                        ],
                        [
                            -0.4063411146249222,
                            -0.45237433737286636,
                            -0.5018281575488872,
                            -0.19004833598961357,
                            -0.18704475374834048
                        ],
                        [
                            -0.5105930350277265,
                            -0.6518324505906282,
                            -0.39001856978350413,
                            -0.6259449575524946,
                            -0.5078696733906432
                        ],
                        [
                            -0.17098813602191118,
                            -0.18422328208090177,
                            -0.5440793955888091,
                            -0.6027582432714015,
                            -0.4651865711340242
                        ]
                    ],
                    [
                        [
                            0.09183208722449247,
                            -0.16676133260301595,
                            0.1136116146212717,
                            0.18626162185374678,
                            0.215164978476853
                        ],
                        [
                            0.1004857128096803,
                            -0.04111599509489433,
                            -0.0307160959891426,
                            -0.10770595984623224,
                            0.13809830751662075
                        ],
                        [
                            0.40760331999795585,
                            -0.13116964730629344,
                            -0.02838535383248902,
                            -0.4623125507088808,
                            -0.2856376551389696
                        ],
                        [
                            -0.005138278368661161,
                            0.27454766162826316,
                            0.1314504587848779,
                            -0.022855867378752562,
                            -0.25610158449559384
                        ],
                        [
                            -0.09428574925221603,
                            0.22016815411490598,
                            -0.10147650219784551,
                            -0.13742700621282664,
                            -0.5640429291958747
                        ]
                    ]
                ],
                [
                    [
                        [
                            0.30462408891590526,
                            -0.10209306855809833,
                            -0.15989314818798966,
                            0.10840876041384563,
                            -0.032024012615337
                        ],
                        [
                            -0.0446739737030873,
                            0.034110588701926944,
                            0.12887282991839624,
                            -0.05802746836266826,
                            -0.04163691514345378
                        ],
                        [
                            -0.12554704540276035,
                            0.10211540411691937,
                            -0.032561078223415675,
                            -0.07853433908014937,
                            -0.05434794728506957
                        ],
                        [
                            -0.072290909631053,
                            0.15536639545501932,
                            0.012590261720036562,
                            0.12211535007133774,
                            -0.15894365291639112
                        ],
                        [
                            -0.154254804074722,
                            -0.004521835556490402,
                            0.11617704836600637,
                            0.13027144443770802,
                            0.18307602244846397
                        ]
                    ],
                    [
                        [
                            -0.09101942977909648,
                            -0.3103012629031866,
                            -0.543830235008401,
                            -0.1406637563687234,
                            0.03172883828355259
                        ],
                        [
                            0.05787280366729445,
                            0.18250041884127233,
                            -0.048604646633048344,
                            -0.47067430292250656,
                            -0.5044278096923774
                        ],
                        [
                            -0.1678465130457732,
                            -0.1343813600005125,
                            0.3670858469523891,
                            -0.012599195019850637,
                            -0.007145912262451987
                        ],
                        [
                            -0.3158935606323405,
                            0.004849765280412678,
                            0.34513446181909635,
                            0.44739286726985883,
                            0.5008625392181857
                        ],
                        [
                            -0.3361580189546895,
                            -0.25321855536385135,
                            -0.1914891786420612,
                            -0.28487054776628407,
                            -0.14759513227452167
                        ]
                    ],
                    [
                        [
                            0.052412631260555675,
                            -0.08364950593486234,
                            0.16498515271235606,
                            -0.05487936418873472,
                            -0.16194170322326104
                        ],
                        [
                            -0.23645797698571366,
                            -0.2271601194922955,
                            -0.0988375601962162,
                            0.17048585357993784,
                            0.1842906871879457
                        ],
                        [
                            -0.2981310443502128,
                            -0.5982944864072539,
                            -0.03693513747564182,
                            0.03029146953026428,
                            0.16590582790520175
                        ],
                        [
                            -0.3380156975240045,
                            -0.5030443877795477,
                            -0.13565182252062444,
                            0.024195947489597764,
                            0.0598496177543126
                        ],
                        [
                            -0.1886634928036519,
                            -0.09805280156739413,
                            0.4484210950911952,
                            0.11564770293574402,
                            0.049961468733567986
                        ]
                    ],
                    [
                        [
                            0.038487664397285216,
                            -0.03226650993796371,
                            0.044028479412027845,
                            0.17434557845313828,
                            -0.0476884907667254
                        ],
                        [
                            -0.04051396362794836,
                            -0.15873290610615384,
                            0.11185648248769152,
                            0.004316927078039549,
                            0.0014530176904123046
                        ],
                        [
                            0.07818715700318005,
                            -0.26953896186645515,
                            0.01357720679301837,
                            -0.05254263453463451,
                            -0.19754357151669896
                        ],
                        [
                            -0.08105907643712511,
                            -0.17878880220005464,
                            0.12719762239446364,
                            -0.13639896912769509,
                            -0.024149293470434322
                        ],
                        [
                            -0.027635887108942703,
                            -0.34657623509777197,
                            -0.0922713941689379,
                            -0.0348065037421106,
                            -0.0497920113612336
                        ]
                    ],
                    [
                        [
                            -0.13348734422123965,
                            -0.22462451064257785,
                            -0.22963384306718804,
                            -0.008263648291497703,
                            0.12762153109452076
                        ],
                        [
                            -0.5762510705284624,
                            -0.2181995405690967,
                            -0.4626048814173773,
                            -0.745669429560798,
                            0.34438665133452884
                        ],
                        [
                            -0.33934951078872266,
                            0.05974477428021107,
                            -0.3219312071773675,
                            -0.5751617372101543,
                            -0.5075835859178666
                        ],
                        [
                            0.26054536028247527,
                            0.16369076329073343,
                            -0.07259538263924441,
                            -0.29170620532790853,
                            -0.47812832297885755
                        ],
                        [
                            0.5207623609177877,
                            0.04130078501463179,
                            0.2460841066485884,
                            -0.18876763763960208,
                            -0.685093989947193
                        ]
                    ],
                    [
                        [
                            0.4131776423353027,
                            0.1335751674871306,
                            -0.21771365300502254,
                            -0.2782229091570968,
                            -0.14081360787017777
                        ],
                        [
                            0.31210439602833295,
                            0.6712391738978608,
                            0.4016504815972683,
                            -0.21531969930612485,
                            -0.3452787896794341
                        ],
                        [
                            -0.06664883721005152,
                            0.4209365250481053,
                            0.5146112769852653,
                            0.19692127252262026,
                            -0.1759520272460563
                        ],
                        [
                            -0.2791974334371425,
                            0.23500638154285441,
                            0.4108118946967928,
                            0.6343254556090493,
                            0.049674455611711334
                        ],
                        [
                            -0.2912940335093499,
                            -0.33848706483877894,
                            -0.27679223103585954,
                            0.07670454398230883,
                            -0.3185271916059426
                        ]
                    ]
                ],
                [
                    [
                        [
                            0.13882734333313154,
                            -0.06903490495665456,
                            0.15800581162128996,
                            0.05747917674772263,
                            0.07605632261809493
                        ],
                        [
                            0.04802517300946547,
                            -0.13045868528538263,
                            0.1829967817314638,
                            -0.03800191028096035,
                            -0.11825589638764765
                        ],
                        [
                            -0.12175729373222473,
                            -0.05292174243028838,
                            0.036690843552045195,
                            0.03555704421687984,
                            -0.012747671679345941
                        ],
                        [
                            0.1411837964271909,
                            0.09420112049808813,
                            -0.14264792944043922,
                            -0.22385569634468136,
                            0.3319533997181361
                        ],
                        [
                            -0.1412114426480168,
                            -0.27048344444442807,
                            0.03332662303809337,
                            0.06869669768296058,
                            -0.05037371445811551
                        ]
                    ],
                    [
                        [
                            0.06418023089595452,
                            -0.283357163642458,
                            -0.3142979385693734,
                            -0.1263694399748167,
                            -0.19642621113163666
                        ],
                        [
                            -0.0881856015166409,
                            -0.41435965133453606,
                            -0.4632924411913133,
                            -0.47281627298222245,
                            -0.8739492406771466
                        ],
                        [
                            0.013919610339012338,
                            -0.5299150532467164,
                            -0.704176117043237,
                            -0.5691255756263037,
                            -0.5949466946124301
                        ],
                        [
                            -0.060872301314636036,
                            -0.2158885877480964,
                            -0.1646605884822439,
                            -0.23245163216029177,
                            -0.20670676933355064
                        ],
                        [
                            -0.3140803845981213,
                            -0.06888199074324493,
                            0.008983994399056797,
                            0.0909986686112455,
                            0.5614934167342596
                        ]
                    ],
                    [
                        [
                            0.11859004422796146,
                            -0.11077206709288542,
                            -0.24298596785882043,
                            -0.07760721282338973,
                            0.3126170876878515
                        ],
                        [
                            0.20203216513926195,
                            0.34181777553971754,
                            0.19014153523149455,
                            -0.0006139157791898537,
                            0.9023024223923279
                        ],
                        [
                            -0.11736440149256414,
                            0.4189267091869333,
                            -0.17945743979788656,
                            0.04886437972340644,
                            0.35771581359705334
                        ],
                        [
                            0.15410542061642235,
                            -0.03959931715083117,
                            -0.621475591222582,
                            -0.15353965723426438,
                            -0.22637552164243027
                        ],
                        [
                            -0.09763580189663908,
                            -0.10587328014758539,
                            -0.8411811854400393,
                            0.16326785359654994,
                            0.18741497989012706
                        ]
                    ],
                    [
                        [
                            0.1412474940938504,
                            0.23681228784593758,
                            -0.31506291864622427,
                            -0.2693465817970885,
                            -0.1455853095403541
                        ],
                        [
                            0.2836563266143337,
                            0.14773766790943918,
                            0.03494688600564546,
                            -0.4744196553030367,
                            -0.12643607020887446
                        ],
                        [
                            0.31958894529609355,
                            0.16250710403453583,
                            -0.15698710079573952,
                            -0.28496720753603333,
                            -0.19656986226436923
                        ],
                        [
                            -0.02340345057753759,
                            0.22593831867315445,
                            -0.24162651093086274,
                            -0.0781779815581987,
                            0.22117688106996342
                        ],
                        [
                            0.1413090399201873,
                            0.12086278332043204,
                            -0.02736971674104668,
                            -0.041516455618671094,
                            0.14095250835460238
                        ]
                    ],
                    [
                        [
                            0.04695395147462476,
                            -0.10628225801831263,
                            -0.0871429659076349,
                            0.5784457772604229,
                            0.45094499120011333
                        ],
                        [
                            -0.013567594817716461,
                            -0.1259450410500815,
                            -0.43068435535968264,
                            0.12104340136554169,
                            -0.18769737270654466
                        ],
                        [
                            -0.1032355934459552,
                            0.01978481532877589,
                            -0.0001767081924615753,
                            -0.25516279154846544,
                            -0.3136652485252977
                        ],
                        [
                            0.2231346917924221,
                            0.07514086884725575,
                            -0.22192534675473602,
                            -0.3975181891635173,
                            -0.31830397980412267
                        ],
                        [
                            0.21590452503522467,
                            0.029975978612876333,
                            -0.015435852407494637,
                            -0.24102921937357266,
                            -0.7211795193097665
                        ]
                    ],
                    [
                        [
                            -0.28678513398532657,
                            0.2342766404641268,
                            0.6842062944528277,
                            0.05761363926312456,
                            0.04897194104736855
                        ],
                        [
                            -0.00963496681339345,
                            -0.0590070858490056,
                            0.4785257867207445,
                            0.41014436576947255,
                            -0.13749343555223587
                        ],
                        [
                            -0.2147423044190515,
                            -0.4698982429676674,
                            0.30630551589018734,
                            0.38837902558319376,
                            -0.18950879693303038
                        ],
                        [
                            -0.2746493046898918,
                            -0.274117343437606,
                            0.08557467579591059,
                            0.46272336442438367,
                            0.07394541374405643
                        ],
                        [
                            -0.14323568791638222,
                            -0.41162265254543984,
                            0.09289063985364115,
                            -0.06453419411394568,
                            -0.09822252531410364
                        ]
                    ]
                ],
                [
                    [
                        [
                            -0.1319379210886481,
                            -0.02301352396334849,
                            0.05658356920602538,
                            -0.14266347665216492,
                            -0.0951038488319344
                        ],
                        [
                            -0.008802118902621009,
                            0.023673960459867048,
                            0.1523132024189743,
                            0.07415762492457045,
                            0.023663060774511354
                        ],
                        [
                            -0.13766265057793578,
                            -0.20683590942132984,
                            0.1400680464069405,
                            0.12508329249664338,
                            0.21123858891043878
                        ],
                        [
                            -0.06434452596491448,
                            -0.08496641175048643,
                            -0.06520051894097555,
                            -0.01152830656657347,
                            0.024133309849399952
                        ],
                        [
                            -0.09390806346769356,
                            0.20603239368290144,
                            -0.2551250867314649,
                            -0.1883241198013747,
                            -0.09977069616357737
                        ]
                    ],
                    [
                        [
                            -0.016339720734565043,
                            0.10610207973276274,
                            0.22515082956241605,
                            -0.26002999710795177,
                            -1.2627820418701639
                        ],
                        [
                            -0.10966687572099561,
                            0.11697751908847849,
                            0.07479230098591888,
                            -0.43068769110849503,
                            -0.43607416168633634
                        ],
                        [
                            -0.4640253004578269,
                            -0.3150383062995784,
                            -0.4246742821669566,
                            -0.13812878996733635,
                            -0.6064738513744748
                        ],
                        [
                            0.14026723429595725,
                            0.22708667628711893,
                            -0.12749568155037702,
                            -0.17269580548809757,
                            -0.3531721883169851
                        ],
                        [
                            0.739732957266611,
                            0.05223034171847591,
                            -0.07985866009333237,
                            -0.07874153739887556,
                            1.114577713120347
                        ]
                    ],
                    [
                        [
                            -0.07452278296701075,
                            -0.19139403305112537,
                            -0.6397284819646809,
                            -0.31450522267040193,
                            -0.055244030588328254
                        ],
                        [
                            -0.05747502436255115,
                            -0.390672941385024,
                            -0.12452943055893688,
                            -0.05060995720161112,
                            0.28045386374741293
                        ],
                        [
                            0.15725496396831232,
                            -0.20196337065435402,
                            0.3613794365986929,
                            0.4140802575027233,
                            0.5184253162289216
                        ],
                        [
                            0.20161340446203832,
                            0.4675689697100391,
                            0.6106914714911449,
                            -0.14578929750569194,
                            -0.45288157755759184
                        ],
                        [
                            0.12586421728846828,
                            0.06684611878409744,
                            -0.4534284651463357,
                            -0.3653810975457437,
                            -0.16921152098121442
                        ]
                    ],
                    [
                        [
                            -0.12528103504604315,
                            0.19135310959516502,
                            0.34734624433943856,
                            0.6130872710864487,
                            0.8764460596513755
                        ],
                        [
                            0.297983478681635,
                            0.18204814183442747,
                            0.2575393497285694,
                            -0.06148282083234945,
                            -0.10610246190704527
                        ],
                        [
                            -0.22895105954654357,
                            -0.3962978868047161,
                            -0.17576521528185474,
                            -0.2502655827480469,
                            -0.3343854992180861
                        ],
                        [
                            -0.055407522503228564,
                            -0.6869029114791737,
                            -0.02490828045141741,
                            -0.03797577815154678,
                            -0.2356494251383876
                        ],
                        [
                            -0.3793355914367576,
                            -0.3784400306672326,
                            -0.21679594184229692,
                            -0.15148486869506314,
                            0.28589838822391517
                        ]
                    ],
                    [
                        [
                            -0.12505174244547618,
                            -0.07260080998798873,
                            -0.28124106510817143,
                            -0.35478667937345143,
                            0.09976384115847474
                        ],
                        [
                            -0.3028838310126874,
                            0.2540037336460296,
                            -0.06451108473488777,
                            0.470156255993837,
                            -0.17517843438390007
                        ],
                        [
                            0.06605305690379137,
                            0.49611859392477803,
                            0.2246730367525184,
                            0.13203132130433198,
                            -0.6722946971928884
                        ],
                        [
                            -0.4077569014055321,
                            0.21530858586245194,
                            -0.15390591769944695,
                            -0.36893597926591676,
                            -0.2124464848517754
                        ],
                        [
                            0.1736520082863099,
                            -0.25852690322085403,
                            -0.18805970629589214,
                            -0.12314986798472133,
                            -0.25119252322041513
                        ]
                    ],
                    [
                        [
                            -0.18831111690145308,
                            -0.24243123964374277,
                            0.24332115010706357,
                            -0.053772157253370374,
                            -0.707033912154542
                        ],
                        [
                            -0.04625816065667049,
                            0.19008429100610327,
                            0.2488391537169671,
                            0.2629471543065111,
                            -0.02390102534671993
                        ],
                        [
                            -0.029598777855113043,
                            -0.13862088227530964,
                            0.05831174304309942,
                            0.04275127150299952,
                            -0.1448349300148052
                        ],
                        [
                            0.04234366914966896,
                            0.23239863425912194,
                            -0.16452633886480741,
                            -0.15078979409402826,
                            -0.15484412289574215
                        ],
                        [
                            0.29736044339925377,
                            -0.11931411887766466,
                            -0.29180348289478636,
                            0.036184226140700985,
                            0.47495921244440614
                        ]
                    ]
                ],
                [
                    [
                        [
                            0.008270405602627626,
                            -0.019751983382216655,
                            0.042785857256900844,
                            0.05385720653633353,
                            -0.02015232548734898
                        ],
                        [
                            0.11504815684764991,
                            0.2018806889511485,
                            0.1486909825089604,
                            -0.01819067893473122,
                            -0.06264747579118465
                        ],
                        [
                            0.04892146659177525,
                            0.23025256580308306,
                            0.03402478480889573,
                            0.1309571870748695,
                            -0.19897444518261484
                        ],
                        [
                            0.11467232444511745,
                            -0.17006053729470022,
                            -0.024758726309448732,
                            -0.02340429527390959,
                            -0.24059813994924878
                        ],
                        [
                            0.1146248282199728,
                            0.029065696134995645,
                            0.18789665563886124,
                            -0.07769551298889271,
                            0.20446728902097458
                        ]
                    ],
                    [
                        [
                            -0.14690755198326572,
                            0.16794488557846488,
                            -0.26286677323012214,
                            -0.43816579649160203,
                            -0.24533905642372625
                        ],
                        [
                            -0.17141619262359065,
                            0.1727032244670957,
                            -0.23043019347739238,
                            -0.8295415177796318,
                            -0.6913717826198591
                        ],
                        [
                            -0.3468086528114664,
                            -0.1670693392521057,
                            -0.5781099803034018,
                            -0.7635010799174603,
                            -0.7752639025052204
                        ],
                        [
                            -0.060596565522855035,
                            -0.48694656715435014,
                            -0.7457932981541934,
                            -0.49819240435377776,
                            -0.3538906025466111
                        ],
                        [
                            -0.6407580351226105,
                            -0.6561823899887731,
                            -0.9766535538006654,
                            -0.6167267122242107,
                            -0.2579604197329903
                        ]
                    ],
                    [
                        [
                            -0.09347262267308887,
                            0.41135691633636906,
                            0.3519396742351012,
                            0.5500353714919106,
                            -0.2983084111836068
                        ],
                        [
                            0.13566168541381546,
                            0.26718141100472587,
                            0.6483508996456653,
                            0.05389547954800337,
                            -0.5332807472051382
                        ],
                        [
                            0.45056398100009803,
                            0.33491645964576366,
                            0.32763986858737926,
                            -0.5885702421605649,
                            -0.17075513427476563
                        ],
                        [
                            0.44727649633786365,
                            0.19143281105449417,
                            0.3408876539854598,
                            -0.6060882365849753,
                            -0.009650404886396501
                        ],
                        [
                            0.012823756183160841,
                            -0.4889614062806931,
                            -0.5384462268363703,
                            -0.05523507435869064,
                            0.510157839541143
                        ]
                    ],
                    [
                        [
                            0.001742995165849622,
                            -0.22375902828965155,
                            0.1493435048670646,
                            -0.01356234816017933,
                            -0.2167411232513388
                        ],
                        [
                            0.24095714851622735,
                            -0.023491145359746973,
                            0.0989686264814461,
                            -0.44840326243926376,
                            -0.16728644505189047
                        ],
                        [
                            0.16878213960621025,
                            -0.05235086543486949,
                            -0.11739371223598483,
                            -0.18582442578481345,
                            -0.2175321414973079
                        ],
                        [
                            -0.09360888003807005,
                            -0.3704257750672616,
                            -0.05559818170798413,
                            -0.2296273871558473,
                            -0.19821891322031093
                        ],
                        [
                            -0.17360765014252616,
                            -0.11918732938507715,
                            0.39942181239571156,
                            0.38216012853373227,
                            0.15972835355917359
                        ]
                    ],
                    [
                        [
                            0.4726361110984957,
                            0.1414466813293237,
                            -0.37375687353962717,
                            -0.17174590146008312,
                            0.8692881420652825
                        ],
                        [
                            0.16203287635537691,
                            0.351285340518236,
                            -0.5012989274849285,
                            0.30356139885325745,
                            0.907334642166442
                        ],
                        [
                            0.4894207360899985,
                            0.5405760173052747,
                            -0.31499853842429076,
                            0.3160333258827384,
                            0.27189555558728234
                        ],
                        [
                            0.2912408443295731,
                            -0.14426618548733114,
                            -0.01644569701735665,
                            -0.049525636341613645,
                            0.48655412793380354
                        ],
                        [
                            0.0674990583468638,
                            0.10605385094999618,
                            0.39397442518906944,
                            0.264684436482556,
                            0.38613435576333816
                        ]
                    ],
                    [
                        [
                            0.5662646609249452,
                            0.5132924084147239,
                            0.1283602808419014,
                            -0.3634369315631527,
                            -0.37051283201919705
                        ],
                        [
                            0.5369338418893145,
                            0.364504647058912,
                            -0.2686058310776373,
                            -0.5648688130354276,
                            0.17126290088201973
                        ],
                        [
                            0.20404475336941894,
                            0.050681150487517174,
                            -0.44016328048114156,
                            -0.37444698498663614,
                            0.3007591481011076
                        ],
                        [
                            -0.12833036788055,
                            -0.09590228325826566,
                            -0.5762233914549318,
                            -0.08449624478181911,
                            0.33818297214743787
                        ],
                        [
                            -0.24273025146216934,
                            0.038172331243606736,
                            -0.48856836310032814,
                            -0.14983508761880565,
                            0.39024104190596237
                        ]
                    ]
                ],
                [
                    [
                        [
                            -0.1664607525566618,
                            0.19513550028467772,
                            -0.12713249142095148,
                            -0.22398628501287582,
                            -0.14707719623864685
                        ],
                        [
                            -0.06659992732734489,
                            0.02975399372914155,
                            0.0295214278718876,
                            0.08492410272897515,
                            -0.11280204094411952
                        ],
                        [
                            0.09064627009518111,
                            -0.09702361254139846,
                            -0.06407442086880963,
                            0.11409892379775888,
                            0.0325942119854989
                        ],
                        [
                            0.25050848464652126,
                            0.0020665162252924752,
                            0.21378813047757445,
                            0.05364680828552553,
                            0.127093302604762
                        ],
                        [
                            0.12685966469825763,
                            0.21498643798209113,
                            0.052426461851407806,
                            0.3203379061775705,
                            -0.13753111570110524
                        ]
                    ],
                    [
                        [
                            0.14102408339757927,
                            -0.14676758280436847,
                            -0.28024301651520483,
                            -0.5678978249971732,
                            -0.2557819819886123
                        ],
                        [
                            0.17690553405135315,
                            0.21414345190801395,
                            -0.1539185680938559,
                            0.31539027616429377,
                            0.5226639947976436
                        ],
                        [
                            0.5420343100480397,
                            0.4481249930410557,
                            0.24890943288104922,
                            0.48894129467153874,
                            -0.2582667292194481
                        ],
                        [
                            0.6333635341863648,
                            0.4846054261803937,
                            0.18272051364415573,
                            -0.22112818054855937,
                            -0.5539698028516264
                        ],
                        [
                            0.40557037128798784,
                            0.14501910611361,
                            -0.4860910962689399,
                            -0.27873744223452157,
                            -0.015760479576690998
                        ]
                    ],
                    [
                        [
                            -0.17190842697088646,
                            -0.09588364256696912,
                            0.10705066317778034,
                            0.09930961879946125,
                            0.1722312904172317
                        ],
                        [
                            -0.07285394380829649,
                            -0.033550221151336025,
                            0.1743333107041582,
                            0.1467132198229999,
                            0.32689964517785325
                        ],
                        [
                            -0.7704023356718975,
                            -0.5978118622782321,
                            -0.38011976122366203,
                            -0.07634807681996257,
                            -0.0705643496270277
                        ],
                        [
                            -1.0460715759967325,
                            -0.6097575085587229,
                            -0.4413292115201459,
                            -0.7997347384334311,
                            -0.29118850041125444
                        ],
                        [
                            -0.1605825551102922,
                            -0.20570078407286466,
                            -0.6588740540347399,
                            -0.48840812584537613,
                            0.2601047301444663
                        ]
                    ],
                    [
                        [
                            0.14014862941273906,
                            0.09896415169854968,
                            -0.01959484471817248,
                            0.17520968658717986,
                            0.11537927798312134
                        ],
                        [
                            0.05826779003508828,
                            0.27053129947157695,
                            -0.04459665173940572,
                            -0.221088184751436,
                            0.4646568551881268
                        ],
                        [
                            0.15742138500103986,
                            0.03350021149042675,
                            -0.1530805854028525,
                            -0.3562453567355165,
                            -0.13110123480749983
                        ],
                        [
                            0.3159922065491535,
                            0.5348637299347031,
                            -0.12895736453974752,
                            -0.35341377395233853,
                            -0.5291100188676694
                        ],
                        [
                            0.09287528552068292,
                            0.32173652069887876,
                            -0.057427227349109364,
                            0.0657742296182735,
                            -0.06748434820833443
                        ]
                    ],
                    [
                        [
                            0.08408270647216336,
                            0.34285791003174043,
                            0.23895985140445988,
                            0.10411683565159714,
                            0.40176663712704747
                        ],
                        [
                            -0.5698038341442114,
                            0.003995597661384431,
                            0.3806351869354612,
                            0.4088301571940122,
                            -0.29104894689987215
                        ],
                        [
                            -0.4235682990923343,
                            -0.14836723211271283,
                            -0.3125000223450582,
                            -0.3549093244614574,
                            -0.8485584397028904
                        ],
                        [
                            0.07706689102588817,
                            -0.0006328309860685985,
                            -0.4646809540306777,
                            0.32819895350517875,
                            -0.026062390088003033
                        ],
                        [
                            0.6300755675643742,
                            0.8803485863722945,
                            0.409660437016662,
                            0.11192795471413901,
                            0.1315335917590243
                        ]
                    ],
                    [
                        [
                            -0.17622420167336936,
                            -0.11709511759790675,
                            -0.4045830060763667,
                            -0.5416681399037401,
                            -0.7806191661376747
                        ],
                        [
                            0.12912411242479332,
                            0.4446324926823926,
                            0.4022139643557086,
                            0.20340080951201342,
                            0.4295485433407768
                        ],
                        [
                            -0.05893844002880973,
                            0.0534183682816534,
                            -0.3247195963065533,
                            0.04264819562200722,
                            0.33107875701794875
                        ],
                        [
                            -0.46240701981947235,
                            -0.34745887157258165,
                            -0.670607751495897,
                            -0.21276669611414079,
                            0.06602514991191712
                        ],
                        [
                            0.11231765189368821,
                            -0.5149116818273771,
                            -0.5503573395576863,
                            -0.06455486989122888,
                            0.02003386594718313
                        ]
                    ]
                ]
            ],
            "biases": [
                -0.00873063023365212,
                -0.003660525364440651,
                -0.005648486946055578,
                -0.003318249267595458,
                0.005266048368407701,
                -0.004743783168048162
            ]
        }
    ],
    "fully_connected_layers": [
        {
            "node_count": 16,
            "weights": [
                [
                    0.15390133292395153,
                    0.05418616023660253,
                    0.009407801839048482,
                    -0.1915056515166938,
                    -0.14113250409303366,
                    -0.24465585448291924,
                    0.030096209007337893,
                    -0.10618978016894527,
                    -0.20094722972199275,
                    0.25824364336333583,
                    -0.09135013490622024,
                    0.21835680141453456,
                    -0.11277413447690031,
                    0.23202207984661302,
                    0.11036938630939597,
                    0.03592667879740544
                ],
                [
                    0.26609496560535784,
                    0.0021015303036554744,
                    0.17534195710511824,
                    -0.1716259266284174,
                    0.20017118584979948,
                    -0.16497461025122548,
                    0.01984162628091409,
                    -0.10502232947194856,
                    -0.39195127381826317,
                    -0.01685437201194681,
                    0.10665194852267494,
                    -0.22827594698675346,
                    0.04918042282565748,
                    -0.14085904283682327,
                    0.2561128220170261,
                    0.04718274374085274
                ],
                [
                    0.18541515918269627,
                    -0.28834201126761166,
                    -0.05034333758318454,
                    0.003343183712405582,
                    0.14787118763190116,
                    0.28094968394611886,
                    -0.14287817587215118,
                    -0.04555288063803596,
                    -0.42771959994632364,
                    -0.09604573197990296,
                    0.09477923656703545,
                    0.11029904574897885,
                    0.3117103248372637,
                    0.09987233196110488,
                    0.1671752329115291,
                    -0.05078477277461386
                ],
                [
                    0.22101053764692877,
                    -0.7852360737561629,
                    0.05431535518190446,
                    -0.36537659261069366,
                    0.013035487310010961,
                    0.5836180251647014,
                    -0.13872009148515854,
                    -0.018491452952173772,
                    -0.499516455395167,
                    -0.39073356459938974,
                    0.6815340873858622,
                    0.45322616868851,
                    0.04936216847718145,
                    0.24416291887196886,
                    -0.26615745244138983,
                    -0.25598622627838324
                ],
                [
                    -0.292076420850941,
                    -0.23885114809713465,
                    0.18003600602713601,
                    0.10933769154476254,
                    0.08276956548351606,
                    0.28487194900598667,
                    -0.11567410222176062,
                    0.09423451139829546,
                    -0.34222507314409584,
                    0.08995899822506204,
                    0.03242664199103169,
                    -0.06681038320886722,
                    -0.09245010486184388,
                    -0.2022893568486129,
                    0.243933718233543,
                    -0.10236531190721547
                ],
                [
                    -0.39076146285939484,
                    0.0673448364050165,
                    0.1968169418159053,
                    0.40506868886911124,
                    -0.6102253488690216,
                    0.5775365855372606,
                    -0.06487134349650549,
                    -0.21899552911952228,
                    -0.1956973652976709,
                    -0.13332899201831228,
                    0.2812114304445353,
                    0.06124107318714234,
                    0.185336540396278,
                    -0.4758620414049431,
                    0.20168404475354224,
                    0.5649375332713593
                ],
                [
                    0.1270238483310911,
                    0.02352140818367649,
                    0.09357839664404018,
                    -0.14656619200287857,
                    -0.19228078546526842,
                    0.056689386309578135,
                    -0.18564791461323185,
                    -0.245774823548954,
                    -0.43197465359757264,
                    -0.16899699867009588,
                    0.2597890287225821,
                    0.16399046900264236,
                    -0.0010781075279261054,
                    -0.06508039025329387,
                    -0.2761953113137913,
                    0.19988567446444894
                ],
                [
                    0.7554354559953366,
                    -0.35395240283358503,
                    -0.12060802683643249,
                    -0.571549443065106,
                    -0.15167567685237499,
                    0.4236690203754497,
                    -0.2728203132035882,
                    -0.002473571167230821,
                    0.2581391106046192,
                    -0.13777787217643747,
                    -0.026218054740315508,
                    -0.14893108420193332,
                    0.17741069139664425,
                    0.043538596445809,
                    -0.6558595346247273,
                    0.17066858508734045
                ],
                [
                    -0.24245941980233554,
                    0.2745208167628987,
                    -0.06224386496337028,
                    0.3538207102464861,
                    0.40189162409385404,
                    -0.16116634562472487,
                    0.07976919942316463,
                    0.40283833763065097,
                    0.3028675787019203,
                    0.04501491159523701,
                    0.12121052431675777,
                    -0.16337945618860927,
                    -0.5522305613395943,
                    -0.38583542354998107,
                    0.32909087329401787,
                    0.028107129796987616
                ],
                [
                    0.010286560401025695,
                    -0.012910912158836848,
                    -0.08025818106567147,
                    -0.6471759228088627,
                    0.30895165390887047,
                    -0.3404040620023253,
                    0.21034550555470294,
                    0.3963888938380569,
                    -0.0033330247214487657,
                    0.44003067028974613,
                    -0.10400254053827447,
                    -0.12445730414490243,
                    -0.14077314467314359,
                    -0.18421579541019428,
                    0.12945751347836207,
                    0.26416165766930344
                ],
                [
                    0.4605550694843549,
                    0.10182549180228215,
                    -0.48045871004080554,
                    0.029531397235401942,
                    -0.39710765539670384,
                    -0.019193937205818048,
                    -0.42554260279617356,
                    -0.2632882909017879,
                    0.12970359495698247,
                    0.322636800585847,
                    -0.0671801904679884,
                    -0.06842042102961124,
                    0.024450878396106848,
                    0.040130627371519505,
                    -0.557662197712602,
                    0.3425628745238004
                ],
                [
                    0.40427471108223284,
                    0.49983609741404067,
                    0.23007322251257126,
                    0.7185271226742628,
                    -0.4395863554181912,
                    0.301266799267852,
                    0.22048092176689807,
                    -0.32935556679684747,
                    -0.05103197428348936,
                    0.6300155248584839,
                    -0.08956951378284772,
                    -0.7342059777578426,
                    -0.08642022473938428,
                    0.14475742200951033,
                    -0.10648878990159744,
                    0.48550977832170145
                ],
                [
                    0.08958290873393912,
                    0.36122865031699014,
                    0.24911716938442913,
                    0.026632078118275802,
                    0.18700242573248338,
                    -0.34893408451353886,
                    0.8902063053732857,
                    -0.0502084970066781,
                    -0.5657979580302976,
                    0.3086074836198368,
                    0.11315233178758777,
                    0.33958837561139776,
                    -0.2579420433640348,
                    -0.28346942170462525,
                    0.2531414239436425,
                    0.3482755908492902
                ],
                [
                    0.257080273350577,
                    0.08379690022249893,
                    0.6640533238727083,
                    0.16489589130239868,
                    -0.02597394730194716,
                    0.06365893951393725,
                    0.6218434065750066,
                    -0.13314331826611076,
                    -0.5515663653635066,
                    -0.2329273897801822,
                    -0.15567984864565418,
                    -0.053799689455357305,
                    0.34091968134289685,
                    0.0028599596306710944,
                    0.303593120913451,
                    -0.18475579640248857
                ],
                [
                    0.20218157483046575,
                    -0.22092526592838266,
                    0.1726074561873097,
                    0.2060995617249083,
                    0.3085774449069368,
                    -0.19120596497428627,
                    -0.031982849299102285,
                    0.040669490220947284,
                    -0.08557632009360021,
                    -0.24329901023578254,
                    -0.19695611040710204,
                    0.1341634371879484,
                    -0.007668363943182026,
                    0.12325246490904185,
                    -0.16203673316350944,
                    -0.04486710253397384
                ],
                [
                    -0.10920095326992021,
                    0.12905344059091278,
                    0.13465104211267193,
                    -0.3786253323763689,
                    0.5858728808951172,
                    -0.4470062347125188,
                    0.12299525401652048,
                    0.14946057178630343,
                    -0.07899562016195169,
                    -0.17841548775490176,
                    -0.011291312646620252,
                    0.20121498895927978,
                    -0.04907455829902112,
                    0.20628115934507807,
                    0.05614837636590513,
                    -0.22962046721450688
                ],
                [
                    0.27720801392235905,
                    -0.10153456731808987,
                    0.1391180695140241,
                    -0.30018799952799036,
                    0.2955420289053852,
                    -0.34858373428872536,
                    -0.17864126689647808,
                    0.40212077897099374,
                    0.13528863265775912,
                    0.4550983374124658,
                    -0.3117608695452685,
                    -0.1312657573657286,
                    -0.24609804495300422,
                    0.10881391189111768,
                    0.029903512514862545,
                    -0.14124918194655806
                ],
                [
                    0.1271117326200106,
                    -0.14402829520597898,
                    0.1333337680743309,
                    -0.03017833298107125,
                    -0.04627626647262825,
                    -0.21460253390067563,
                    -0.05672683952399258,
                    0.07150920801367397,
                    -0.24070614414862104,
                    0.3521936633185248,
                    -0.6110275916657901,
                    -0.20957069367728087,
                    0.4573699005900778,
                    -0.11056742005672665,
                    0.09626388039909198,
                    -0.10800957986600233
                ],
                [
                    0.4990176853799634,
                    0.08545798007507137,
                    0.15134313493261553,
                    -0.06970078097753166,
                    0.04207674479173129,
                    -0.34114976207480135,
                    -0.023565116728842192,
                    -0.1553768868362065,
                    -0.19777685646279558,
                    0.1394348164531942,
                    -0.3199069131734732,
                    -0.1598471276882998,
                    0.5876431026570574,
                    -0.056173208187740624,
                    0.013638057553260285,
                    0.03364749587368929
                ],
                [
                    0.44143229413040674,
                    0.0262963433598509,
                    0.07992123350208707,
                    0.10133623252930798,
                    -0.032007378941921454,
                    -0.38812380310484185,
                    0.5023113487881461,
                    -0.07974346215512815,
                    0.258072255878312,
                    0.06581137195802911,
                    -0.2082779528827001,
                    -0.15464822765449876,
                    0.1162134473924795,
                    -0.022812447308877156,
                    0.30740042748683305,
                    0.01408247881771646
                ],
                [
                    0.08861049186591698,
                    -0.08522959038728026,
                    0.2693149220918218,
                    -0.1700763546268198,
                    -0.38526800724446675,
                    0.13708612433315637,
                    0.3824381162353338,
                    0.39436432225716805,
                    -0.3066385553894673,
                    0.20619276812202444,
                    -0.11744405824498283,
                    -0.5540128848088482,
                    -0.07272199199943348,
                    -0.20706533088562434,
                    0.09276388417442828,
                    -0.043174161675370464
                ],
                [
                    0.2363076121830075,
                    0.5332598444232057,
                    0.03694241463569791,
                    0.005274884879183582,
                    -0.731903160623853,
                    0.4298941159408527,
                    0.12630223212722144,
                    -0.11914111072288235,
                    -0.13596578983319446,
                    -0.36922371260579356,
                    0.06524975934223151,
                    -0.7938530651661939,
                    -0.4069088918965585,
                    -0.40691259339716385,
                    0.01663662606198601,
                    -0.15405118046435226
                ],
                [
                    0.024073938255200534,
                    0.21822425641547627,
                    0.09055379451097291,
                    0.13727475887158327,
                    -0.007202272613247972,
                    -0.0680572641521235,
                    -0.10229864218593733,
                    0.2613955132628446,
                    0.13434575423623893,
                    0.21199586597189962,
                    -0.2728769259749021,
                    -0.11586097945370631,
                    -0.12529710484139506,
                    0.17729017399597782,
                    -0.0010999035503841733,
                    0.3653545341621715
                ],
                [
                    -0.5864439079666551,
                    0.7231416438319196,
                    -0.1174634518631498,
                    0.3006779647250546,
                    0.26541206967008824,
                    -0.7213237520709231,
                    0.18176766135959102,
                    0.17496574828867406,
                    0.01274657108463936,
                    0.4144787028260445,
                    -0.1079152969111118,
                    0.32894692317908414,
                    -0.06556634343291802,
                    -0.185159136465318,
                    0.03240101063690921,
                    0.5429891747687784
                ],
                [
                    -0.405771411397828,
                    0.2886043737028419,
                    0.4188657870831299,
                    -0.17192290410059866,
                    -0.38388775966026556,
                    0.6570903424629402,
                    0.061334801541753074,
                    0.3419273374708012,
                    0.11037425057805056,
                    -0.23357466220619244,
                    0.6798373032856095,
                    -0.6911049706636364,
                    -0.9614554660737907,
                    -0.3268760382315058,
                    0.1939830666724109,
                    0.28405019942144943
                ],
                [
                    -0.03686785808828738,
                    0.3171964980038372,
                    -0.14251972616375652,
                    -0.15751088398152877,
                    -0.47862526794993093,
                    0.10156175441385654,
                    0.16785974964768247,
                    -0.0716530422787346,
                    0.18435010954601355,
                    0.027770159561054285,
                    0.1119396647670035,
                    -0.9823172542021427,
                    -0.29703019066079583,
                    -0.2047643157246413,
                    -0.21232767560303142,
                    0.11327628276163469
                ],
                [
                    -0.23013600006331641,
                    0.17572836351159166,
                    -0.34809355155841165,
                    -0.0006603505707845937,
                    -0.3884455026551128,
                    -0.09711665900971557,
                    0.24155084978131106,
                    0.16516909538718172,
                    0.29821954596882855,
                    0.12177812873188952,
                    0.0021429752929911505,
                    -0.28635088216827975,
                    0.12223667039100006,
                    0.003328271646659749,
                    0.3698717994035272,
                    -0.21386366447387642
                ],
                [
                    -0.061161009947804885,
                    -0.017090240078750207,
                    -0.22169843647800813,
                    -0.4728890786672033,
                    -0.1749573246956922,
                    -0.3591384195932299,
                    -0.2224073824487017,
                    0.42928701547765713,
                    0.06566515078496717,
                    0.2669964235417795,
                    -0.013900851145624839,
                    0.11424612811427279,
                    0.10885532122800956,
                    -0.049539855975595425,
                    -0.02961478575751305,
                    0.39015029861365336
                ],
                [
                    -0.07652311029935022,
                    0.0013573074508239334,
                    -0.3693550450102776,
                    -0.1974637665087445,
                    0.2406850843179187,
                    0.264821203435137,
                    -0.053099817610670515,
                    -0.14123990614815587,
                    -0.2608920811224912,
                    -0.3413686955232178,
                    0.6376507543292463,
                    0.46810530455011856,
                    -0.09126832322211986,
                    0.02034527392946609,
                    -0.5548304777761167,
                    0.2083941644546213
                ],
                [
                    0.2128469638776141,
                    -0.3220654533669154,
                    0.2564276813984724,
                    0.0811699149017196,
                    0.44553755542113477,
                    -0.025013527552802846,
                    0.019399443710184282,
                    -0.3554904094310538,
                    -0.17390438263815358,
                    -0.2209401543505706,
                    0.2792564687159703,
                    0.4320706407172646,
                    -0.12175966822147585,
                    0.027531423885636314,
                    -0.12044962253978121,
                    0.005663149614896708
                ],
                [
                    0.05212447332576183,
                    -0.33198254522657633,
                    0.1013532450474719,
                    -0.06723631947847516,
                    0.435761785733552,
                    -0.2981298406695142,
                    0.020396088196490008,
                    -0.10356012160687722,
                    0.04637633642227829,
                    -0.1854311128078493,
                    -0.23133095199160042,
                    0.35357476336058646,
                    0.2630885226938895,
                    0.1443415376782124,
                    0.39708445099002704,
                    -0.4534720416407655
                ],
                [
                    0.023689762677220262,
                    0.20691570977849924,
                    0.09287298741616978,
                    0.43473578401385116,
                    0.12123376469296922,
                    -0.12270412566098811,
                    -0.03173971527002529,
                    -0.2878419632905091,
                    -0.027677255745247858,
                    -0.213947083350527,
                    -0.13862938699409166,
                    0.441897435338719,
                    0.5882125157052284,
                    -0.09209540935179084,
                    0.3342210267487959,
                    -0.047003559002750106
                ],
                [
                    0.22624290246825557,
                    -0.03771719115263465,
                    -0.09649905076380576,
                    -0.35412855421649153,
                    0.2718971927399825,
                    0.48457681755567905,
                    0.20364131256449913,
                    0.39603028217372693,
                    -0.3215174145814326,
                    0.013095468767009833,
                    -0.0704718450099527,
                    0.005989285662692287,
                    0.2960337346930341,
                    -0.06975970720992676,
                    -0.15768774131244664,
                    -0.35476683637689393
                ],
                [
                    0.31947166947520905,
                    -0.032328907264644345,
                    -0.09737506793319863,
                    -0.4820852828200284,
                    -0.5203087419589179,
                    0.2531785167764603,
                    0.5372230796803669,
                    -0.027088668600128693,
                    0.3156343207054592,
                    -0.017998862403743963,
                    -0.19077115346783174,
                    0.13287667022881913,
                    0.31716900912058893,
                    -0.2570457184298745,
                    0.17939656472927226,
                    -0.2222044761180851
                ],
                [
                    0.7712236784220547,
                    0.03222509621059885,
                    -0.19038150798320008,
                    -0.8075419887389572,
                    -0.3351204328927809,
                    -0.2240630592918954,
                    0.7846722303346468,
                    0.13489186579092222,
                    0.09834757481468008,
                    0.2973710996420824,
                    -0.10797494249010951,
                    0.0677379816908583,
                    0.5878177566746297,
                    0.25205055945807225,
                    0.01960995618524637,
                    -0.38712271516786
                ],
                [
                    0.29839238139891083,
                    0.046403496539831716,
                    0.09863681860614669,
                    -0.06404667586078537,
                    -0.1419238630350216,
                    -0.1099876392752285,
                    0.10468386443638943,
                    -0.11252299505971501,
                    0.013904035129851548,
                    0.04197982053848672,
                    -0.4075475928943201,
                    -0.08733078041100038,
                    0.21302332492127352,
                    -0.16700100559137482,
                    0.060396163355370715,
                    0.009766800700654905
                ],
                [
                    0.16117153369321877,
                    0.40887514905040784,
                    0.22111141794416017,
                    0.12161911226566062,
                    0.016236207236677687,
                    0.26486489395415214,
                    -0.38770424951320887,
                    0.18342828820406,
                    -0.15231838742377468,
                    -0.2995659782000257,
                    0.41324093019292457,
                    -0.2899288992194192,
                    0.03350659445343197,
                    -0.12429550962870385,
                    0.010432086298735715,
                    0.36782411718244007
                ],
                [
                    0.04177647270202904,
                    0.13832117294147078,
                    0.03445779218463809,
                    0.36751327056819977,
                    -0.4000877299972733,
                    0.06594051292446411,
                    0.004250227505712896,
                    -0.12695118755884946,
                    -0.08628877153968134,
                    0.0035975235542807286,
                    -0.25553998700050445,
                    -0.4602844715105142,
                    -0.040420004627653744,
                    -0.1608395852093889,
                    -0.13666872228634183,
                    0.10972034063525489
                ],
                [
                    -0.05249306765857776,
                    0.4233301278647817,
                    -0.4505430455723828,
                    -0.32067426421432776,
                    0.04922024784825436,
                    -0.5201625376925088,
                    0.2202885161425578,
                    0.4000370925886936,
                    0.2978099011301572,
                    0.01647019700419903,
                    0.17126010800888175,
                    0.17955562212762216,
                    0.08188215290476476,
                    -0.09470699952136906,
                    0.5037822512363714,
                    -0.3665033566833204
                ],
                [
                    -0.4272407437595218,
                    0.560236681089614,
                    -0.20413676062927277,
                    0.18063727808977478,
                    0.10672486580278903,
                    -0.6294089559395722,
                    0.11620483751275225,
                    0.31030980252449786,
                    0.08540693790251488,
                    0.5200611290429019,
                    -0.05196241428882778,
                    0.42967742794135166,
                    -0.054492453812780145,
                    0.01253356034150938,
                    0.17532192817225167,
                    0.14617086578695912
                ],
                [
                    -0.24283078176945094,
                    0.019165438734933222,
                    0.08082325123273013,
                    0.19852501020561583,
                    0.07415333744664615,
                    -0.09489437419882912,
                    -0.3655915555150934,
                    0.08907841068108632,
                    0.12174042510323135,
                    -0.11324925925139613,
                    0.1275269944186463,
                    -0.22996547858133473,
                    -0.19989054348315577,
                    -0.18957832021330012,
                    0.013607440455581332,
                    0.14249614354213422
                ],
                [
                    0.023872152396377164,
                    -0.6444986789516283,
                    -0.04083876615284396,
                    0.05851037913562517,
                    -0.14780803850961605,
                    0.2574829921445669,
                    -0.20559711902838035,
                    -0.27816023199035955,
                    0.272382396822369,
                    0.22319684087264552,
                    -0.0480031617322371,
                    -0.3120754811846951,
                    0.010753854824105293,
                    0.030125498949777882,
                    -0.3324682091676876,
                    -0.11672023661708464
                ],
                [
                    -0.19685004345483176,
                    0.17874778483980044,
                    -0.5380313012856623,
                    -0.200567036087998,
                    0.009770313811358603,
                    -0.703863268235818,
                    -0.24239830136579213,
                    0.6240791963636433,
                    -0.12386585522485428,
                    0.1485436216532551,
                    0.2122289873560408,
                    0.14850946545697088,
                    0.09786905500282116,
                    0.12102073547209992,
                    0.08330314742302884,
                    -0.06251296005322662
                ],
                [
                    -0.5121735725716364,
                    0.023842705274650877,
                    -0.48207447653993496,
                    -0.08992261452925301,
                    0.2010863397017932,
                    -0.2192403429096252,
                    -0.3232931172945616,
                    0.43655403997680453,
                    0.08718202212324605,
                    -0.033552483821296344,
                    0.23204856098843785,
                    0.39910759072835594,
                    -0.12079643100156781,
                    -0.14880401681527394,
                    0.2862409948939789,
                    0.07312767712806799
                ],
                [
                    -0.1786743950240284,
                    0.02116582116395529,
                    0.5735425099400628,
                    0.147672355078746,
                    0.31204857029776617,
                    0.02990874470176773,
                    1.0564627713515549,
                    -0.22563141908533266,
                    -0.7607204722962037,
                    0.20143914439064475,
                    0.10496578532959518,
                    0.4278459740107503,
                    -0.583397626784891,
                    -0.31471255905084555,
                    -0.38303278238823757,
                    -0.006597053273441061
                ],
                [
                    0.1006913462835113,
                    -0.11473119136590232,
                    0.39060272305099913,
                    0.1892426749165905,
                    0.38753076583495205,
