{
    "seed": 555124141,
    "learning_rate": 0.01,
    "epochs": 1000,
    "output_filename": "CNN_B",
    "convolutional_layers": [
        {
            "kernel_count": 6,
            "kernel_dim": 5,
            "padding": 0,
            "pooling_dim": 2,
            "weights": [
                [
                    [
                        [
                            -0.13349906505614625,
                            -0.06960189141956914,
                            -0.26080573025811016,
                            -0.8127726918003461,
                            -1.340853247906614
                        ],
                        [
                            0.10086016453409845,
                            0.5092186644307962,
                            0.8376944763599439,
                            0.49079608616549236,
                            -0.3801228785262137
                        ],
                        [
                            -0.18522977704668794,
                            -0.11495982874195892,
                            0.4541338878139416,
                            0.9452026498422959,
                            -0.1780554518441262
                        ],
                        [
                            -0.41615496929546697,
                            -0.2657503312164065,
                            0.02296901612100759,
                            0.021737869006335446,
                            -0.06520443365746612
                        ],
                        [
                            -1.083348137033604,
                            -0.21573199207061602,
                            -0.2097120194167133,
                            0.28403433770611836,
                            -0.32703852010156453
                        ]
                    ]
                ],
                [
                    [
                        [
                            -0.0954112220740654,
                            0.18818320357241494,
                            0.38599869507642226,
                            0.45437180778468644,
                            0.31019844557175563
                        ],
                        [
                            0.04046500337692342,
                            0.21750257070576354,
                            0.04097601753600667,
                            -0.056763910419421616,
                            0.23788393399866353
                        ],
                        [
                            -0.49203600884948867,
                            0.11985676538214393,
                            0.27497437262212515,
                            0.0804885791940778,
                            0.14830254800042522
                        ],
                        [
                            -0.974939046469867,
                            -0.06638245218502735,
                            -0.02625238301219715,
                            -0.01620815621090502,
                            0.15557311140580973
                        ],
                        [
                            -0.801000046703271,
                            -1.070435233786327,
                            -0.9221460283096271,
                            -0.9464926814892448,
                            -0.4682474137414217
                        ]
                    ]
                ],
                [
                    [
                        [
                            -0.6153394511971793,
                            -0.44844621310693417,
                            -0.09899961635206153,
                            -0.001984600014156121,
                            0.0556225858076909
                        ],
                        [
                            0.12022889407966131,
                            -0.977550271717892,
                            -0.5906225467777143,
                            -0.5682911184083124,
                            -0.3676420858834524
                        ],
                        [
                            0.8123489355817402,
                            0.10281985915567843,
                            -0.3816868791966603,
                            -0.4315182359579963,
                            -0.8926105282788332
                        ],
                        [
                            0.15891910113750468,
                            0.29319375868359543,
                            -0.002395393227846139,
                            -0.07608713025702987,
                            -0.7939854579911314
                        ],
                        [
                            -0.19117548389362304,
                            0.4493156391518206,
                            0.5172638568318687,
                            0.201258262971682,
                            -0.2106963642698222
                        ]
                    ]
                ],
                [
                    [
                        [
                            -1.3831526319902723,
                            0.13421165976527613,
                            0.1745635797340719,
                            0.08976887171673074,
                            -0.19779892810868988
                        ],
                        [
                            -0.23394076901885208,
                            0.03942894685057349,
                            -0.01171656030890593,
                            -0.10506600234195262,
                            -0.50209390655399
                        ],
                        [
                            0.8018505931222576,
                            1.034000352001484,
                            0.3844893165562574,
                            -0.2827518607847286,
                            -0.48353013629127584
                        ],
                        [
                            0.0948436200457685,
                            -0.018023476340232318,
                            -0.8287010398975442,
                            -0.618849191142889,
                            -0.6207306259346019
                        ],
                        [
                            -1.0079155741425077,
                            -1.000866654605612,
                            -0.24279531984280497,
                            -0.3867591339557441,
                            -0.2428847791454038
                        ]
                    ]
                ],
                [
                    [
                        [
                            0.056390123570109876,
                            -0.26567113351586263,
                            -0.1930173737075745,
                            -0.18634490333931297,
                            -0.4589168246061708
                        ],
                        [
                            -0.41479684617750057,
                            -0.7496020600048293,
                            -0.4771242145502531,
                            0.09357117974468031,
                            0.26217244177128846
                        ],
                        [
                            -0.8593194111134927,
                            -0.5399607812327278,
                            0.2396305890154042,
                            0.7703861474305311,
                            0.3375742649807017
                        ],
                        [
                            -1.195474827942154,
                            -0.15037265237057107,
                            0.7813158986558825,
                            0.2962627437222648,
                            -0.08765556384502723
                        ],
                        [
                            -0.768625261785868,
                            -0.5891717710725358,
                            -0.14496339893956353,
                            0.4839055246191575,
                            -0.2646916394247858
                        ]
                    ]
                ],
                [
                    [
                        [
                            0.1322058256660618,
                            -0.357113899239961,
                            -0.21844684010502993,
                            0.06310901554113732,
                            -0.10149581129361222
                        ],
                        [
                            0.3026230730237833,
                            0.050584110188375005,
                            -0.22978620407210568,
                            -0.6110512660068279,
                            -0.49350105277097095
                        ],
                        [
                            0.43012869654701813,
                            -0.13046885936078204,
                            -0.0791891426647709,
                            -0.6592691386267064,
                            -0.05770980070155166
                        ],
                        [
                            0.15234549699932776,
                            0.10496957015543958,
                            -0.00829199730069786,
                            -0.5172968119500239,
                            -0.35560860451792947
                        ],
                        [
                            0.43529112656910773,
                            -0.16913554175961282,
                            -0.33918212250697055,
                            -0.8205644092576203,
                            -0.10935769048839906
                        ]
                    ]
                ]
            ],
            "biases": [
                -0.01082235727115522,
                -0.004467496056986085,
                0.0023212205757148514,
                -0.0002765209986024748,
                -0.01146760310577406,
                -0.004144669863136216
            ]
        },
        {
            "kernel_count": 6,
            "kernel_dim": 5,
            "padding": 0,
            "pooling_dim": 2,
            "weights": [
                [
                    [
                        [
                            0.008482524594579932,
                            0.15385776938225904,
                            0.20633198017698412,
                            0.010611617519116058,
                            -0.5689067187497071
                        ],
                        [
                            0.5905166603430476,
                            0.36499894764621865,
                            0.11579392865061866,
                            0.06151488399648093,
                            -0.5611528678754389
                        ],
                        [
                            -0.15917512063938524,
                            -0.2282327551864113,
                            -0.2681676437584401,
                            -0.4339642349732672,
                            -0.43893108244993456
                        ],
                        [
                            -0.5467984343160887,
                            -0.5695216172741525,
                            -0.19873314453188287,
                            -0.18664816253338198,
                            -0.6192194263534146
                        ],
                        [
                            -0.08608675656319635,
                            0.024910383181114423,
                            -0.2824981431380421,
                            0.10907877159713229,
                            -0.09943499247380133
                        ]
                    ],
                    [
                        [
                            0.3619378962748365,
                            0.29957988536334557,
                            0.30882546355217166,
                            -0.15040780152636973,
                            -0.4349189287195555
                        ],
                        [
                            -0.237073509597919,
                            -0.43344587344422436,
                            -0.4283987562111826,
                            0.02506734437987858,
                            -0.6169589206396714
                        ],
                        [
                            -0.9083852320382785,
                            -0.3444369925303666,
                            -0.1465177956325382,
                            0.11847469158911336,
                            -0.6461068465318565
                        ],
                        [
                            0.04719107999960705,
                            -0.08175880868542512,
                            0.22438236234251643,
                            0.03998651269123592,
                            -0.7041830493565611
                        ],
                        [
                            0.5470581282940873,
                            -0.1829540750125144,
                            -0.2572875320242789,
                            -0.5937987231269489,
                            -0.7543983857642317
                        ]
                    ],
                    [
                        [
                            0.004018597393222136,
                            0.09961782679093056,
                            0.2031139333256503,
                            0.4338315218936756,
                            0.07718580081372284
                        ],
                        [
                            -0.15517424122067056,
                            0.39399612329640504,
                            0.14570346195066078,
                            0.1983465429238691,
                            -0.4209489859618443
                        ],
                        [
                            -0.031087237335522985,
                            0.035873026652873466,
                            0.015338723401931254,
                            -0.4467316080875417,
                            -0.43674852420921806
                        ],
                        [
                            -0.09089851356196943,
                            -0.4011064761055286,
                            -0.3715821058152198,
                            -0.5174640047343902,
                            -0.2386138443266421
                        ],
                        [
                            -0.4460128311318866,
                            -0.21059706786844123,
                            -0.027195249369688663,
                            0.0849642247113715,
                            0.15950978032316335
                        ]
                    ],
                    [
                        [
                            0.07605946434579755,
                            0.15608248368415578,
                            0.1550353245281061,
                            -0.272474002509702,
                            0.012542052369967298
                        ],
                        [
                            -0.12365399081131867,
                            0.13706537364540394,
                            -0.09325979332199483,
                            -0.17412669928165117,
                            0.011930143833394065
                        ],
                        [
                            0.19438287993568615,
                            0.604057857672777,
                            0.0016075632004583457,
                            0.21689716431486497,
                            0.1939818799970646
                        ],
                        [
                            0.33709184004267234,
                            0.3372075386016145,
                            0.14955739762231327,
                            0.15748452748601052,
                            -0.03249472063733636
                        ],
                        [
                            0.03423177774152009,
                            0.4262604758744633,
                            -0.2891438076260551,
                            -0.24658519933054387,
                            -0.21602654624535972
                        ]
                    ],
                    [
                        [
                            -0.07732802544435886,
                            0.008988034164941584,
                            0.2925979073215231,
                            0.10351285331711262,
                            -0.6532093250290687
                        ],
                        [
                            -0.48146012568084756,
                            0.4113594584894035,
                            0.12468875028694294,
                            0.35078201746019166,
                            -0.32022222307725473
                        ],
                        [
                            -0.05726431340427516,
                            0.1673821620127752,
                            0.23459977303842286,
                            -0.15024499747540776,
                            -0.05972273682922522
                        ],
                        [
                            -0.35314322767992595,
                            -0.6620827654101192,
                            -0.14596664333721743,
                            -0.6456857749185562,
                            0.008681867611372514
                        ],
                        [
                            -0.13991692927143606,
                            0.03087813676094064,
                            -0.22310381245813274,
                            0.15742425605616586,
                            0.7949725540026134
                        ]
                    ],
                    [
                        [
                            -0.24074905887859882,
                            -0.24715232511753402,
                            -0.10117354205169504,
                            0.13192988266074993,
                            0.42019296571084047
                        ],
                        [
                            -0.32061065878610623,
                            -0.07075332103662543,
                            0.08698107168808909,
                            0.008045184516072978,
                            0.6648574924271192
                        ],
                        [
                            -0.232843126011599,
                            0.2534782561573574,
                            0.40620246255842957,
                            0.4229328376752981,
                            0.13450064205472043
                        ],
                        [
                            -0.03263795594599972,
                            -0.1381988558362832,
                            -0.27239568785882756,
                            0.035266915189504186,
                            -0.5073074381281208
                        ],
                        [
                            0.019817514351485963,
                            0.06497341550183455,
                            -0.15573885189812456,
                            -0.34812238021233616,
                            -0.4341418180348094
                        ]
                    ]
                ],
                [
                    [
                        [
                            -0.458026056027294,
                            -0.4557495737394242,
                            0.20915338051849697,
                            0.018629157050769465,
                            -0.28288654519006917
                        ],
                        [
                            -0.394754776196802,
                            -0.4717908376387751,
                            -0.009634366150413336,
                            -0.10305540834033886,
                            0.04080238970923804
                        ],
                        [
                            -0.33168852705124213,
                            -0.4463175757215666,
                            0.060995462566902185,
                            0.03482549548494845,
                            -0.07900192403877813
                        ],
                        [
                            -0.1557770795820126,
                            -0.08674631058356748,
                            -0.2571155177884554,
                            0.026720166325076056,
                            0.113630528829429
                        ],
                        [
                            -0.3149970457666913,
                            -0.24068025608089902,
                            -0.5088537741117204,
                            0.21357252729733267,
                            -0.0037184389772998154
                        ]
                    ],
                    [
                        [
                            -0.020484789507038876,
                            0.27513078765690263,
                            0.25324453278393044,
                            -0.25595482567639405,
                            -0.30124557619420966
                        ],
                        [
                            -0.29740178112765503,
                            -0.38023724264380093,
                            -0.20536399624236626,
                            -0.7648744535761479,
                            -0.7123074376867895
                        ],
                        [
                            -0.5209035827491153,
                            -0.12297311708675362,
                            -0.04664135404915464,
                            -0.8636969161241439,
                            0.02892754180787716
                        ],
                        [
                            -0.42989140038286444,
                            -0.25159659889575015,
                            -0.8561612869148462,
                            -0.45750307654521727,
                            0.12940053317822878
                        ],
                        [
                            -0.606453500106149,
                            -0.4570657700921463,
                            -0.17583897049317687,
                            -0.1519848909154358,
                            -0.9836310897300918
                        ]
                    ],
                    [
                        [
                            -0.06415445104260152,
                            -0.483940999853392,
                            -0.48625153768670004,
                            0.057925040531873584,
                            0.15167710079604801
                        ],
                        [
                            0.7829057405538926,
                            -0.16630000890749316,
                            -0.44340125733588526,
                            -0.4594871198987958,
                            -0.3258873955539932
                        ],
                        [
                            0.47453751405520406,
                            -0.1804007909431843,
                            -0.11735452958416243,
                            -0.2419289733883718,
                            -0.14500874706996153
                        ],
                        [
                            0.3974764105029623,
                            -0.14581073774187628,
                            -0.4505379860265021,
                            -0.4882983305534752,
                            -0.20964988854005612
                        ],
                        [
                            0.24244624832179007,
                            0.015901548566668644,
                            -0.3776795998658726,
                            -0.24477857112454235,
                            0.05488769766171536
                        ]
                    ],
                    [
                        [
                            -0.2600350497257911,
                            -0.14338138210810245,
                            -0.0454625007839827,
                            -0.0732288435352106,
                            -0.19200463991002886
                        ],
                        [
                            -0.21077573274789924,
                            -0.3767619550133569,
                            -0.3040328456339618,
                            -0.3106970342398505,
                            -0.05497615515456709
                        ],
                        [
                            -0.17606088486166205,
                            -0.18522134075612698,
                            -0.16042270941340572,
                            0.1945870404667472,
                            0.38269833729361186
                        ],
                        [
                            0.042962688974776286,
                            -0.2592653472342073,
                            -0.03475203132332982,
                            0.19245423967142475,
                            0.2182599421174364
                        ],
                        [
                            0.004350216299009484,
                            -0.00849450169819012,
                            0.2718722173567422,
                            -0.08278637361523952,
                            -0.4021847035123351
                        ]
                    ],
                    [
                        [
                            -0.8862696468584728,
                            -0.15622943802912087,
                            0.19026210670808008,
                            -0.34099544263436005,
                            0.04075988483819475
                        ],
                        [
                            -0.8723742867157097,
                            0.30435962762238966,
                            -0.023207567426703116,
                            0.32819134800069577,
                            0.024286822147864498
                        ],
                        [
                            -0.6607605784002853,
                            0.059344871713599284,
                            0.11111139553146453,
                            0.16866787349180606,
                            0.045126790959605846
                        ],
                        [
                            0.05878034802962811,
                            0.33372109698514707,
                            0.28790522073898733,
                            0.40978656733170926,
                            -0.4243643653858977
                        ],
                        [
                            0.4028448305830918,
                            0.2605527635505476,
                            0.4796912115385306,
                            0.1104612653638819,
                            -0.40298548242921045
                        ]
                    ],
                    [
                        [
                            0.2867864387535231,
                            -0.02259077443679429,
                            -0.17654275850072662,
                            0.25426865301422646,
                            0.07813750522074696
                        ],
                        [
                            0.716261667254409,
                            0.010528150763146872,
                            -0.0005641589724819547,
                            0.4815567342908684,
                            -0.1656846124782193
                        ],
                        [
                            0.6551990025985417,
                            -0.3738842300682161,
                            -0.03938323995888945,
                            -0.020896386068419013,
                            0.03317617558689634
                        ],
                        [
                            0.38477876416405676,
                            -0.32860647127235426,
                            0.11392880085578383,
                            0.19622934656186053,
                            0.2853551941525898
                        ],
                        [
                            -0.031723452061999086,
                            -0.24199968280430087,
                            0.4331085765322516,
                            0.05395766140097892,
                            0.34124654416371064
                        ]
                    ]
                ],
                [
                    [
                        [
                            -0.27166592631173014,
                            -0.0014413875481035223,
                            -0.11041099154154725,
                            -0.0647593480040831,
                            -0.1454360164022884
                        ],
                        [
                            -0.4192105644052013,
                            0.20485140341759195,
                            0.45075596292059406,
                            0.5369771707287866,
                            -0.37386707351429366
                        ],
                        [
                            -0.13121186741528512,
                            0.4537211354035796,
                            0.28757724969046405,
                            -0.03971342717831789,
                            -0.19353780510126922
                        ],
                        [
                            -0.09800857807906647,
                            0.0044257984286144355,
                            0.0800611633804578,
                            -0.25170048908613973,
                            -0.1530286915122835
                        ],
                        [
                            0.08063107051481586,
                            0.01736561020899599,
                            0.12266445125187772,
                            0.16893083505143938,
                            0.3450229265278386
                        ]
                    ],
                    [
                        [
                            -0.23848277544103813,
                            0.0420666978200833,
                            -0.04312865571096277,
                            -0.4088407678050077,
                            -0.4771687253419988
                        ],
                        [
                            0.08803630978664316,
                            0.1864297951410192,
                            0.10660028755143326,
                            -0.0883439323647509,
                            -0.30034054882279776
                        ],
                        [
                            -0.09481236646314127,
                            0.32002118543550556,
                            0.37319076666104145,
                            0.12995356736544195,
                            -0.00982287291071125
                        ],
                        [
                            -0.20062199600325886,
                            0.06402602238082834,
                            0.21645910042500735,
                            0.3600812235878322,
                            0.05242547814076409
                        ],
                        [
                            -0.07914387787912631,
                            -0.1983813496067975,
                            -0.028023185213739376,
                            -0.2980685013216662,
                            -0.3128534259630561
                        ]
                    ],
                    [
                        [
                            0.24302951145969903,
                            0.4484951099245637,
                            0.5312351830696614,
                            0.3744806426159079,
                            -0.03388484114623595
                        ],
                        [
                            0.1290387368759594,
                            -0.12044685365713435,
                            0.41140878392338603,
                            -0.3157036320309433,
                            -0.700124794772614
                        ],
                        [
                            -0.23735407705779735,
                            -0.2523055814334484,
                            -0.09492373550380025,
                            -0.36527863032453955,
                            -0.3662635223093946
                        ],
                        [
                            -0.3320997625452892,
                            -0.18503498851689326,
                            0.017147003823483557,
                            -0.13925786825292263,
                            -0.2713440948010715
                        ],
                        [
                            -0.2291635288216533,
                            -0.1948203423655988,
                            0.18296289500589874,
                            -0.2070110246882799,
                            -0.20775658223146853
                        ]
                    ],
                    [
                        [
                            -0.4179340377046889,
                            -0.2163203259307564,
                            -0.051971867585316016,
                            0.3585729480910497,
                            0.33136199772619834
                        ],
                        [
                            -0.12500733853160434,
                            -0.30973825595900434,
                            0.19336210726274264,
                            0.3122098986113871,
                            0.132369380521203
                        ],
                        [
                            -0.12993866349657576,
                            -0.3504187358408603,
                            0.03089582050379262,
                            0.014950607366643165,
                            0.022399838864952896
                        ],
                        [
                            0.14727906915853473,
                            -0.31593942462997576,
                            -0.02070838636794858,
                            0.033278646085469384,
                            -0.3295847156429689
                        ],
                        [
                            0.11492065424503838,
                            -0.10029407476352126,
                            -0.0756300725276787,
                            -0.060747230741486705,
                            -0.16528031925851974
                        ]
                    ],
                    [
                        [
                            0.18925964755050548,
                            -0.07766138677978521,
                            -0.24363821300895264,
                            -0.23690285952576523,
                            0.26393260179560574
                        ],
                        [
                            -0.5004067074363814,
                            -0.28849980600825814,
                            -0.4950370168635617,
                            -0.4394438979658025,
                            -0.4171473226803584
                        ],
                        [
                            -0.39693210614915525,
                            -0.21638932500330244,
                            -0.11149842636111942,
                            -0.2773309511480907,
                            -0.3481551901388501
                        ],
                        [
                            -0.10285849617156412,
                            -0.34429350617864996,
                            0.23215208397998408,
                            0.07154403610780724,
                            0.2725170011146432
                        ],
                        [
                            -0.12758806636921316,
                            0.15719731772641723,
                            0.3026784318991076,
                            -0.08723181571029567,
                            0.10606162404680688
                        ]
                    ],
                    [
                        [
                            -0.2091190963873981,
                            -0.1873565003120618,
                            0.0993487483262839,
                            -0.3331508689138765,
                            -0.48209983640088094
                        ],
                        [
                            -0.18694173785407525,
                            -0.34021083566894966,
                            -0.3773564029459719,
                            -0.3575431209509382,
                            -0.32914704898648744
                        ],
                        [
                            0.08463738488274358,
                            -0.11130746954048171,
                            0.04296807167088463,
                            -0.5328905589857315,
                            0.02271215324172313
                        ],
                        [
                            0.3348197860960703,
                            0.2113051208521155,
                            0.0009574307431788726,
                            -0.2983832900406751,
                            0.2930552854982405
                        ],
                        [
                            0.827492384307142,
                            0.6040622953152778,
                            -0.15603554640989295,
                            0.016838929814417238,
                            0.02693415471529092
                        ]
                    ]
                ],
                [
                    [
                        [
                            0.056431313437267816,
                            0.04587681742272515,
                            0.12779287028275535,
                            0.21360284599820922,
                            0.6982092851496726
                        ],
                        [
                            -0.027186556579802346,
                            0.09869999686439006,
                            -0.04093562662619741,
                            -0.25602038812193,
                            -0.020089324589073056
                        ],
                        [
                            -0.3707390483716638,
                            -0.4187352054968238,
                            -0.695418801967006,
                            -0.8317044262178784,
                            -0.3854750887298745
                        ],
                        [
                            -0.5930039495026146,
                            -0.5423256218195106,
                            -0.10586503996830483,
                            -0.07328789027442736,
                            0.06000685446205184
                        ],
                        [
                            -0.6450855813435746,
                            -0.017140963401404995,
                            -0.059518300699827796,
                            -0.07983459626873951,
                            0.14271447386328862
                        ]
                    ],
                    [
                        [
                            -0.1265632503947749,
                            -0.18262000624770666,
                            0.19730480688580654,
                            0.32909466284747374,
                            0.4079665514397416
                        ],
                        [
                            -0.018148530313680255,
                            0.13839232442668215,
                            0.42146214871457705,
                            0.3951221092489814,
                            -0.44864553821732406
                        ],
                        [
                            0.43438418246422017,
                            0.09107228825424583,
                            -0.2588248122935714,
                            -0.3015598538779608,
                            -0.42454253296173383
                        ],
                        [
                            0.19830580754062027,
                            -0.38560801867427363,
                            -0.5339620755897672,
                            0.1067108493416449,
                            0.3043905592332196
                        ],
                        [
                            -0.5147778095529767,
                            -0.24852847165631275,
                            0.30077239017157675,
                            -0.24889100200426006,
                            -0.23057381594905213
                        ]
                    ],
                    [
                        [
                            0.02997597856972133,
                            -0.26271000134340367,
                            -0.25376956900830083,
                            -0.027441422712165358,
                            0.13370320047683038
                        ],
                        [
                            -0.02438985524066574,
                            -0.2206404028264274,
                            -0.4408170669115737,
                            -0.5127981234836281,
                            -0.7075354201080458
                        ],
                        [
                            -0.08819683090140817,
                            -0.22216665552007867,
                            -0.590742846222058,
                            -0.15298776948538934,
                            -0.3872055062263838
                        ],
                        [
                            -0.44339762467594585,
                            -0.05662497964126018,
                            -0.10639942396003961,
                            0.13529109734913977,
                            -0.33247406355841397
                        ],
                        [
                            -0.31215949326885084,
                            -0.20061156475960248,
                            -0.13969541385521494,
                            0.060674517192986964,
                            -0.3753280975659105
                        ]
                    ],
                    [
                        [
                            -0.0690128565566647,
                            0.33954351359151785,
                            0.07607044554882458,
                            0.17626381395219443,
                            -0.19615609958928368
                        ],
                        [
                            0.05511525314194909,
                            -0.13201785492903031,
                            -0.1521110939320116,
                            0.2908602860723693,
                            0.005686790913408597
                        ],
                        [
                            0.17034100205009553,
                            0.39947286281926725,
                            -0.12442430531900674,
                            0.0617820357407187,
                            0.5462672689855597
                        ],
                        [
                            0.19523467533807892,
                            -0.017287910091061644,
                            0.2139891048506757,
                            0.0926439408622358,
                            0.3099300673478645
                        ],
                        [
                            0.08942341626113458,
                            0.16346152646482326,
                            0.06691575936698146,
                            0.03243258832783236,
                            0.0887444379182413
                        ]
                    ],
                    [
                        [
                            0.0907175883579729,
                            0.005109022709583211,
                            0.29420416511597947,
                            -0.05837239400714764,
                            -0.2472309132381403
                        ],
                        [
                            0.17647231146833617,
                            0.15452255524680042,
                            -0.23402925024425883,
                            -0.5344992053021941,
                            -0.4113514164058969
                        ],
                        [
                            -0.23329217912555844,
                            -0.8018818343468475,
                            -0.456341868564333,
                            0.37260545494874386,
                            0.616998544658358
                        ],
                        [
                            -0.5032673669649415,
                            0.42765463082124816,
                            0.8047438132995364,
                            0.34139591058283314,
                            -0.1631053869801044
                        ],
                        [
                            -0.17426908136393537,
                            0.08908666910333508,
                            -0.2802614303770159,
                            -0.19464450923984764,
                            0.06385094477864807
                        ]
                    ],
                    [
                        [
                            0.009321040961959712,
                            -0.32042767630296753,
                            0.16279204850189524,
                            -0.11806673040849469,
                            0.15385395991347883
                        ],
                        [
                            0.10498264861087157,
                            0.31837617061205536,
                            -0.03976780415557,
                            -0.2040574501194646,
                            -0.29749017455699617
                        ],
                        [
                            -0.16328848468824506,
                            -0.06161102534781322,
                            -0.06369885029938495,
                            -0.507753614874838,
                            -0.320597526521581
                        ],
                        [
                            -0.38478042104128135,
                            0.09662959692012567,
                            -0.13489271516719736,
                            -0.18794960885647247,
                            0.022410034512508243
                        ],
                        [
                            0.24913256477041487,
                            0.2700759072461592,
                            -0.3506093491717315,
                            -0.20873054907062705,
                            0.09664558783440585
                        ]
                    ]
                ],
                [
                    [
                        [
                            -0.6770387492011786,
                            -0.16542607067637868,
                            -0.03775564306098519,
                            -0.107355479169784,
                            -0.35829734631784016
                        ],
                        [
                            -0.07791035178193728,
                            -0.03679765835716341,
                            -0.2681290770690139,
                            -0.33441570950054955,
                            -0.3648499438464499
                        ],
                        [
                            -0.14924531444780328,
                            0.40967470195196926,
                            0.0499539091030329,
                            0.17374733754340776,
                            0.31124920440115533
                        ],
                        [
                            0.0006935223464930381,
                            0.07962506037115732,
                            0.20180336627753792,
                            0.3153884030331679,
                            0.10635170943129303
                        ],
                        [
                            0.2620110995303754,
                            -0.07695684628988979,
                            0.19938444344781583,
                            0.080195914651741,
                            -0.14164963216083837
                        ]
                    ],
                    [
                        [
                            -0.005506516519010158,
                            0.1726211699498786,
                            0.45458352774554817,
                            0.037928020426532386,
                            0.6212418657443909
                        ],
                        [
                            -0.37490990500517457,
                            -0.4448755522090423,
                            -0.1618077333770967,
                            0.18947267676571036,
                            0.14821014836589233
                        ],
                        [
                            -0.3131754962540312,
                            -0.15515195489736328,
                            -0.42241667045779263,
                            -0.278808102311951,
                            -0.7972791770402166
                        ],
                        [
                            -0.018714121902696057,
                            0.042950260401789446,
                            -0.16108240280478384,
                            -0.31944746727451034,
                            0.15775010128488415
                        ],
                        [
                            0.20746313022726523,
                            -0.05373208827822721,
                            -0.06257646667661557,
                            0.21166818264046078,
                            0.018787371746616727
                        ]
                    ],
                    [
                        [
                            0.38815729593294934,
                            0.15389592429047033,
                            0.08792131244110471,
                            -0.14644317732227222,
                            -0.24945639360362623
                        ],
                        [
                            0.14635974802273277,
                            0.34517921249851635,
                            0.9206336999870434,
                            0.3589570797973389,
                            0.2495119111461822
                        ],
                        [
                            -0.1800556574797419,
                            0.35387954730670834,
                            0.29371356766443124,
                            0.20488507580309898,
                            0.46363423601241277
                        ],
                        [
                            -0.04817060513075298,
                            0.140635427506187,
                            0.10620691647241791,
                            0.216111422628973,
                            0.18163231828441337
                        ],
                        [
                            -0.02569160717516361,
                            -0.3273124083931089,
                            -0.25982328264789045,
                            0.03342477491101601,
                            -0.17170086472318627
                        ]
                    ],
                    [
                        [
                            -0.04245215606797087,
                            0.4133221090702505,
                            0.19122051514959923,
                            0.2044042068846564,
                            0.20679554736952688
                        ],
                        [
                            -0.22843401708417502,
                            -0.24600424640321347,
                            -0.2670147555803962,
                            -0.07890851991657746,
                            -0.08707546612066211
                        ],
                        [
                            0.1734549731395136,
                            -0.29537473188803215,
                            -0.574538210192458,
                            -0.29080309025987705,
                            -0.012376790898989678
                        ],
                        [
                            0.38496100904563224,
                            0.0572118670569864,
                            -0.014896171236521016,
                            -0.275700984055068,
                            -0.31655279395006675
                        ],
                        [
                            0.23241585433307738,
                            0.5071628653334975,
                            -0.010201497180746045,
                            0.20899597637033254,
                            0.05957348596060849
                        ]
                    ],
                    [
                        [
                            -1.3808340619265407,
                            -0.5971227886792713,
                            -0.1173846836223463,
                            0.5896748104305942,
                            0.3825033677124094
                        ],
                        [
                            -0.19221860753955264,
                            -0.9004559930281342,
                            -1.0011676137925962,
                            -1.1506631142108348,
                            -0.7138012220129453
                        ],
                        [
                            0.09121128596605559,
                            0.2606119270972849,
                            0.10581557777882244,
                            -0.17893044280586515,
                            -0.2279785875840346
                        ],
                        [
                            0.3620994510966591,
                            0.2680208249253568,
                            0.5019899537874061,
                            0.4529011801988192,
                            -0.08185916918009391
                        ],
                        [
                            -0.053032093063185584,
                            -0.07240324213118537,
                            -0.1968800658523456,
                            -0.20021327883178539,
                            -0.22075882840176483
                        ]
                    ],
                    [
                        [
                            0.10113812143417114,
                            -0.06789236634532883,
                            -0.20536278113308223,
                            -0.19291309393661255,
                            -0.03678091167848229
                        ],
                        [
                            -0.01422689245527082,
                            -0.21394497354994294,
                            -0.4558924941056496,
                            -0.3738945251436169,
                            -0.6138213641174591
                        ],
                        [
                            -0.2007464899542841,
                            0.17520999237498106,
                            0.0019000392844422025,
                            0.23109013754359964,
                            -0.24618149099199607
                        ],
                        [
                            0.2377284939243633,
                            -0.11897809179321735,
                            0.2665760153506627,
                            0.11630094560419449,
                            -0.030910846525069802
                        ],
                        [
                            -0.17739152444482242,
                            -0.3055841475588656,
                            0.01164138476661532,
                            -0.31215407094700104,
                            -0.07983256067818
                        ]
                    ]
                ],
                [
                    [
                        [
                            0.14438758974595345,
                            0.2130095104004784,
                            -0.1505299538757326,
                            -0.059671440247852384,
                            -0.44147768830372236
                        ],
                        [
                            0.32199911461738095,
                            -0.15622928422240753,
                            -0.1669164163918997,
                            -0.04091139943428343,
                            0.268446064803518
                        ],
                        [
                            -0.11207431146677749,
                            -0.37708497271043806,
                            0.08539652954283802,
                            -0.09108940374312463,
                            0.7175317928290733
                        ],
                        [
                            -0.38032285953649936,
                            0.36947084276139597,
                            0.22631785659643563,
                            -0.13221784217072824,
                            -0.14252463376918487
                        ],
                        [
                            0.5537116994727176,
                            0.5512855056897734,
                            0.06464669187946867,
                            -0.23123421585241952,
                            -0.11510918763422343
                        ]
                    ],
                    [
                        [
                            -0.2039980822277485,
                            -0.3013475571373418,
                            -0.6156438504265308,
                            -0.44356788187086627,
                            -0.42041824919527476
                        ],
                        [
                            0.01489484837271974,
                            -0.13826056202519632,
                            -0.28833525097359963,
                            -0.3768631522319042,
                            -0.1911557053837953
                        ],
                        [
                            -0.2267090844321991,
                            0.04363794792416034,
                            0.22851264963273082,
                            -0.09995866200119172,
                            0.19291867473151814
                        ],
                        [
                            0.23451401124557056,
                            0.7913013310898632,
                            0.34583135257137293,
                            0.0744138301962367,
                            0.259673491726323
                        ],
                        [
                            -0.03556197339566415,
                            0.13127109706415044,
                            -0.0792199084012749,
                            -0.18627357355238075,
                            -0.32556823053469847
                        ]
                    ],
                    [
                        [
                            0.19238689829906735,
                            -0.4265848415549493,
                            -0.0710575925317976,
                            -0.3059268183732318,
                            -0.06487209999281901
                        ],
                        [
                            0.1181708840318828,
                            -0.2734752138106702,
                            -0.024210188719541406,
                            0.17724322938818535,
                            0.23927330195908064
                        ],
                        [
                            -0.3172677253146362,
                            -0.2404501459182705,
                            0.13351871977829938,
                            0.23213597376941,
                            0.29469728010498375
                        ],
                        [
                            -0.35506950638368295,
                            -0.5373434209487233,
                            -0.06607562472143129,
                            -0.15340477523590146,
                            -0.34787397061226755
                        ],
                        [
                            -0.0787574339490156,
                            -0.011276247991257383,
                            0.49406857636469353,
                            0.09286091480792688,
                            0.042267726518400994
                        ]
                    ],
                    [
                        [
                            0.23697097674558368,
                            0.2527575971946095,
                            -0.07463096572180548,
                            0.28208559694361834,
                            0.2665311011041606
                        ],
                        [
                            -0.02643298599632623,
                            0.5311359605664531,
                            0.24016447081475922,
                            0.19338122315901124,
                            0.424269101781988
                        ],
                        [
                            -0.08136870399161569,
                            -0.17650747143127402,
                            0.10401071851877787,
                            0.40866662164072776,
                            0.7059417875975807
                        ],
                        [
                            -0.33201564558770685,
                            -0.05280999033370719,
                            -0.1525262883317924,
                            0.4729361357854711,
                            0.546122313404918
                        ],
                        [
                            -0.3967944526316943,
                            -0.4337315303204921,
                            0.009602679824557002,
                            -0.0830714355191943,
                            0.01159570156150338
                        ]
                    ],
                    [
                        [
                            -0.39348467838063494,
                            -0.06446546678024152,
                            0.004541910395338789,
                            -0.16495515723851334,
                            -0.30832238178935184
                        ],
                        [
                            -0.020699709043130017,
                            -0.038617237077569845,
                            -0.28473917198451704,
                            -0.35508583030311575,
                            -0.5122081029114368
                        ],
                        [
                            0.3843981957706856,
                            0.12796020067404698,
                            -0.41878596515498456,
                            -0.2697520836043655,
                            -0.35607125397780093
                        ],
                        [
                            -0.24876785364890772,
                            -0.3490401149179452,
                            -0.20645819348072536,
                            -0.5273380254842941,
                            -0.6986797391503109
                        ],
                        [
                            -0.6392240620496642,
                            -0.14105053607400178,
                            -0.28723676547417487,
                            -0.47307978362271963,
                            -0.9694437546841176
                        ]
                    ],
                    [
                        [
                            0.47047839893962423,
                            -0.08117624981608874,
                            0.20152555422035556,
                            -0.09841276405644599,
                            -0.4811248590407085
                        ],
                        [
                            -0.37268496728105077,
                            -0.6869270911794616,
                            -0.1752245973380835,
                            0.19767800638928354,
                            -0.2562760638856742
                        ],
                        [
                            -0.3424885043397578,
                            0.06281685336192265,
                            -0.007635292796557728,
                            0.051664663504965805,
                            0.09591729276325359
                        ],
                        [
                            0.1490136420451665,
                            -0.029095974002043834,
                            -0.41032014727732025,
                            -0.20047736857958381,
                            -0.12281338369026097
                        ],
                        [
                            0.10896844396576773,
                            -0.17294627091100345,
                            -0.08941751301189799,
                            -0.12990996928161797,
                            0.040488812572662645
                        ]
                    ]
                ]
            ],
            "biases": [
                -0.013827146334433974,
                0.010252810135403065,
                0.0029892708685613873,
                -0.004670054570040016,
                -0.017282639633982654,
                -0.00987584183037002
            ]
        }
    ],
    "fully_connected_layers": [],
    "trained_epochs": 3,
    "output_layer": {
        "weights": [
            [
                -0.23627073342516725,
                0.18459935887152878,
                -0.19765044314303423,
                -0.24380986882849784,
                0.32296170280797665,
                0.1308986774753516,
                0.5689211129098922,
                -0.387792859191364,
                -0.16373162067267458,
                0.10388823350042971
            ],
            [
                -0.769514961896543,
                0.2826647271706449,
                -0.14570220829596284,
                0.05344437839553309,
                0.4621218664880849,
                -0.15192936382631153,
                0.6245907910126994,
                -0.1634600624648913,
                -0.25682917916278203,
                -0.278192246743893
            ],
            [
                -0.5005606404689251,
                0.3737548346774283,
                -0.24055916072464842,
                0.27585758423365697,
                0.3515825606014704,
                -0.07460988970043923,
                0.19725144208996848,
                -0.09045372465119542,
                -0.16270709085273238,
                -0.09087769562035908
            ],
            [
                -0.4682648429198718,
                0.2799754424205754,
                -0.31249049995370287,
                0.24785353150613323,
                0.12379257463874323,
                -0.4056956034148195,
                0.052401739146321236,
                0.0764310725298588,
                0.07368833742444147,
                0.12889902580803841
            ],
            [
                0.06822337422227932,
                0.1643994427572182,
                0.17386614130495892,
                0.025456597734845,
                0.2853174562926017,
                0.12646398293575964,
                0.25842590137343524,
                0.2941808517981042,
                -0.7705149331730763,
                -0.10240045903937049
            ],
            [
                0.17111463382778605,
                -0.29331716277618936,
                0.04754223064106708,
                -0.22152867437466808,
                0.23936332499466972,
                -0.2322891848687725,
                0.12361108865639533,
                0.55972352678181,
                -0.30301977559100157,
                -0.4457534130419703
            ],
            [
                -0.2304427214930224,
                0.1303106099231599,
                0.23688067905818633,
                0.26415172594923136,
                -0.008638248846193531,
                -0.3676963901173172,
                -0.6889123314379612,
                0.04379898635784476,
                -0.09046815611109105,
                0.6634891591089274
            ],
            [
                -0.41561146894873796,
                -0.0979246356689934,
                0.3451604368484711,
                0.7867622982089596,
                -0.08405716292696866,
                -0.8803251702629133,
                -0.9086439339556327,
                0.0433290434700367,
                0.9183936484928866,
                0.23409788142605326
            ],
            [
                0.18434743015911154,
                0.02035290528598223,
                0.7734670496856154,
                -0.056645569510143656,
                -0.09975166743684219,
                -0.13507157126737585,
                -0.19866146512638191,
                0.4472590322438857,
                -0.08407937873779792,
                -0.6027313999522771
            ],
            [
                0.185610995263343,
                -0.03162954620350764,
                0.06973213681568807,
                -0.16113320365894318,
                -0.22257226156294296,
                0.24324618672173653,
                -0.26476640858336825,
                0.12341281552582828,
                -0.20828746158961386,
                -0.09241215032444429
            ],
            [
                0.13164056760787451,
                -0.21785508367052772,
                0.21508780752592843,
                -0.20874675064262632,
                -0.20585560929682084,
                0.21347481452121175,
                -0.18952678879005894,
                0.07315472799158493,
                -0.3127282955901356,
                0.4068039228498459
            ],
            [
                0.23304727789892457,
                -0.31837927217204315,
                -0.06614129229943216,
                0.2874492876972303,
                -0.09514884450660425,
                -0.11522759200252315,
                0.25490006439882473,
                0.1296633554857174,
                -0.014005515218205348,
                0.06187348036217423
            ],
            [
                -0.45878704881233295,
                0.2926528545177934,
                -0.38779966400793375,
                -0.18019469293487675,
                0.08691751481227593,
                0.4427886397318009,
                -0.19627015055255623,
                0.4017423322035683,
                -0.46680814104471047,
                -0.2115311619362778
            ],
            [
                -0.31750083939264645,
                0.30496150882936546,
                -0.6624776499108075,
                0.024452451876189232,
                0.15102579337604163,
                0.07614084798494918,
                -0.44707544007752537,
                0.4497423138794146,
                -0.2788292568220248,
                0.19483288461982856
            ],
            [
                0.11884843143946679,
                -0.43872896550396184,
                -0.45235965760580343,
                0.24931068386139071,
                -0.27092821102429404,
                0.45356684435811767,
                0.018746514299638188,
                -0.3328758811103802,
                0.11446936323483416,
                0.138866892526856
            ],
            [
                0.5609303005710835,
                -0.7186110190305746,
                -0.6526916913536782,
                0.5412076358106116,
                -0.6472100749821448,
                0.38413790972673617,
                0.30700464162234786,
                -0.25905769052860406,
                0.5925941412030649,
                -0.7480483745489316
            ],
            [
                0.05798543373596045,
                -0.7205979168304092,
                -0.49063634552134977,
                -0.5971464805329503,
                0.299732062085687,
                0.3813062405157688,
                0.5791036648088316,
                -0.23703207032135762,
                0.5140041107029534,
                0.7152067490255775
            ],
            [
                -0.15596384468128738,
                0.3508656877585789,
                -0.2759541802305515,
                -0.747567279047806,
                0.30738148776556035,
                0.4480284110390819,
                0.5729405840212934,
                -0.3764515331323618,
                -0.042414642484594034,
                0.2813128114552239
            ],
            [
                -0.07271660089585782,
                0.5253303632527856,
                -0.12444161012419015,
                -0.4863293622586803,
                0.7193292514273573,
                0.19739913306397977,
                0.6590704843044212,
                -0.4838836195328851,
                -0.2790482462120243,
                -0.40667044413536363
            ],
            [
                -0.24988122203672872,
                0.8706588414754632,
                -0.1515884792158495,
                0.11326039059126419,
                0.8240091206319964,
                -0.9626268015601961,
                -0.22547142312293947,
                -0.24992981286272217,
                0.07538409368052598,
                -0.07953825446958618
            ],
            [
                0.5518208694470405,
                -0.4867201911998013,
                -0.3651500678898826,
                -0.6774302642371268,
                0.6708146501222925,
                -0.20608351413533982,
                0.17914135605235776,
                0.049890383267759235,
                -0.31943352778445017,
                0.5981581806971917
            ],
            [
                0.3312890284034888,
                0.15409186097910227,
                -0.12582894452010127,
                -0.11337132902851484,
                0.08139112869562926,
                0.22749767250424163,
                0.14753904113820274,
                -0.07534733990532681,
                -0.018733840511148563,
                -0.07278347587711127
            ],
            [
                -0.35748441518119956,
                -0.041707757037182255,
                0.36275151879288,
                -0.18847431704628076,
                0.15512758460938098,
                -0.05369459237066971,
                0.05295695219895611,
                0.12266584750199531,
                -0.016405267246384275,
                -0.40735752558950733
            ],
            [
                0.4871403339694005,
                0.1990308582059713,
                0.36624885975552723,
                -0.3199360614228102,
                0.1864777002262947,
                -0.41205970694220806,
                -0.174060568398955,
                -0.025351179946902103,
                0.10854477554683441,
                0.17351505565886305
            ],
            [
                0.6064768760668845,
                0.21603627331470038,
                0.8196304015038918,
                -0.8702229133896369,
                -0.14545253387342327,
                -0.4919102142346847,
                0.09696491546331282,
                -0.15589360801894625,
                0.8352833146917008,
                -0.5755063501438632
            ],
            [
                0.14087927849616624,
                0.607855146806188,
                0.16448292195344763,
                -0.19047219602864685,
                -0.30254061113364994,
                0.18589316027518551,
                -0.06603945586026277,
                -0.3991371394972046,
                0.4269920749237412,
                -0.21237864230174777
            ],
            [
                0.3408507637492446,
                0.0896848957261422,
                0.06389450759850643,
                -0.3199899327032179,
                -0.39390291884542983,
                0.07432762915182406,
                -0.2854449533958924,
                0.5030728518623483,
                0.030191358564553024,
                -0.09882678702204123
            ],
            [
                0.21807780217343428,
                0.18045017935771113,
                0.0870838326768824,
                -0.1876668418900697,
                -0.10539735571232223,
                -0.10792652053680842,
                -0.15860001258006554,
                0.0634157401757723,
                -0.5428821564041789,
                0.13144443934726624
            ],
            [
                -0.24810827610948044,
                0.3672896873652627,
                -0.5490677891811684,
                -0.3645011350509636,
                0.2084992108595309,
                -0.15685917919973338,
                -0.2282681438891193,
                0.8764669697055775,
                -0.42417058709659544,
                0.49798703390393717
            ],
            [
                -0.1836254007675653,
                0.03119081572795383,
                -0.02683031303179406,
                0.43025856846603694,
                0.37969547123401365,
                0.05474919574934738,
                -0.42540421253979915,
                0.5091769572088808,
                -0.4475326197142063,
                0.4089904605313453
            ],
            [
                0.014769493437226413,
                0.21819083333688497,
                -0.4816454465357734,
                0.10445995379188534,
                0.2647956990621277,
                -0.11384985860905096,
                -0.3449410858162395,
                0.4892091942898706,
                -0.4918045837772647,
                0.30307425223261475
            ],
            [
                -0.010972008991208045,
                0.17508183359758786,
                -0.6246743454752327,
                0.17650176031967468,
                -0.44078785272643833,
                0.24004499886441596,
                -0.08521167162214704,
                0.11978182075582182,
                0.46586267413308025,
                0.07795837041996727
            ],
            [
                0.10302902215516967,
                0.14754333953897533,
                -0.17283514898061275,
                0.30202492882736387,
                0.0024441656947920623,
                -0.04637869464568068,
                -0.10056800703377713,
                0.2152337260292106,
                -0.08920172389310202,
                0.21379734382601806
            ],
            [
                -0.012680072577311451,
                -0.16442377049400264,
                -0.17052556157831752,
                0.09828812276928586,
                -0.2275360168665069,
                -0.013964434988571108,
                0.35083674755371635,
                0.35294107855551893,
                -0.1511157957317161,
                -0.008856871264583854
            ],
            [
                0.24264472460960237,
                -0.5731881747387456,
                0.22506493677150943,
                -0.028152271585067383,
                -0.42424436286702805,
                0.3515073566362303,
                0.21968721909932665,
                -0.1355381424219306,
                -0.1912519234814934,
                0.1960240123214849
            ],
            [
                0.13468436473414896,
                0.4223797850094752,
                0.02814156549200455,
                -0.16941975835000103,
                -0.5761977677880115,
                0.09074689709319723,
                0.020773132544702352,
                -0.02648765587079071,
                0.17044120830101173,
                0.2451938436106996
            ],
            [
                0.2088371731098642,
                0.37848047316442573,
                0.10062591264641632,
                -0.13194474079222504,
                -0.27848763375067054,
                -0.1889043122556364,
                -0.0018365310434131556,
                0.20592381080205757,
                -0.019836850802335326,
                -0.12220386448507778
            ],
            [
                0.05108510754703362,
                -0.2114921870950496,
                -0.3956953850338335,
                -0.09699240430579738,
                0.1110501257663959,
                -0.4143853637615689,
                -0.32655965859996855,
                0.45238494952308467,
                0.14228583641868583,
                0.44706258026093676
            ],
            [
                0.16975650695256156,
                -0.19332754701775715,
                0.2640773311845523,
                -0.22715352801561667,
                -0.374042187790254,
                0.11636090972793006,
                -0.04927804812081926,
                0.636907991123807,
                -0.1575755112552321,
                -0.48944239138620704
            ],
            [
                0.02244163930265905,
                0.3683441197020645,
                -0.3054694189013816,
                -0.2406222127331969,
                0.11165809616605026,
                0.3626313208190548,
                -0.14806310111580154,
                -0.3075987945084954,
                -0.027666203231604812,
                -0.029515492121850784
            ],
            [
                -0.2944346770775932,
                -0.21468810290789442,
                -0.21456625155653705,
                -0.26572984625232493,
                0.3926977306199533,
                0.015488264920747292,
                -0.13015060221255378,
                0.029781570634076743,
                0.5681130225181482,
                0.6234259668462104
            ],
            [
                -0.31767761295296737,
                -0.4208973155901296,
                -0.20057035415594499,
                -0.35513961808783595,
                0.6243387750978663,
                -0.16046182817213475,
                -0.2959288578225682,
                0.0629424750080593,
                0.5176730013641716,
                0.23766691237423238
            ],
            [
                -0.4813276991081196,
                -0.036131214003044185,
                0.14871515894638393,
                0.027430852597651514,
                0.22476333932762296,
                0.2096206286818928,
                0.23932693984352604,
                0.1924279819078226,
                0.21798835828319,
                -0.47140121115524025
            ],
            [
                -0.08716067688831482,
                0.09758084373187285,
                0.12207607166614298,
                -0.312270173133054,
                0.4223690683400889,
                -0.406624702836544,
                0.06307312255130494,
                0.05181361636573352,
                0.1493696726378927,
                0.09041567062318054
            ],
            [
                0.07934886249934592,
                -0.02622938275580693,
                -0.5854958192724944,
                0.23279039406950106,
                0.18465050337126165,
                0.23411032180097774,
                0.18176414723747822,
                -0.4195122908591123,
                0.15980325197265977,
                0.6758650228803603
            ],
            [
                0.021046260624326834,
                -0.20035209537026374,
                -0.2703316615351095,
                -0.21787916412271063,
                0.35998436933934785,
                0.09898440614933922,
                0.30146540577709796,
                -0.13089961606931497,
                -0.2998453579183982,
                0.3723096561169622
            ],
            [
                0.06348069416966667,
                0.049846650684035834,
                0.15704358551263398,
                -0.101289255107562,
                0.026854304202616065,
                -0.18173276913699285,
                0.1951426835526517,
                0.10157016650889228,
                -0.0002672400126747985,
                -0.2678345618340182
            ],
            [
                -0.12411549211963771,
                -0.08081485014978607,
                0.013378742202766254,
                -0.5538411658816083,
                0.3786795403672808,
                -0.28622080318125437,
                -0.221210477677615,
                0.8657868190398191,
                -0.3699283988658347,
                -0.33706426897474817
            ],
            [
                0.22852007937578017,
                -0.07062705933398568,
                0.4787060593582636,
                0.445223952944957,
                -0.29008627391396685,
                -0.6162383648141029,
                -0.05867324567750072,
                -0.47207582473729864,
                0.17298153449898723,
                0.6697058505183053
            ],
            [
                0.0031096287646958675,
                -0.2096712340344756,
                0.3233549062830062,
                0.20087681892780274,
                -0.7336551162874777,
                -0.27639987186290704,
                0.2671829167285247,
                -0.028793756639198368,
                -0.16404207325457273,
                0.3354436574458284
            ],
            [
                0.003609414341924312,
                0.19507961134787752,
                0.1146165275991564,
                -0.10931213069942003,
                -0.16105569834985708,
                -0.13660538653290796,
                0.11165085813313506,
                -0.033540179657465,
                -0.2483381040305349,
                -0.12072156979424338
            ],
            [
                -0.07672239919042176,
                -0.22016692646442435,
                -0.06670961842557084,
                -0.4200918412455175,
                0.2396431125426179,
                -0.26675234875663156,
                0.2375883631408562,
                -0.13189667221835108,
                0.030660362208935206,
                -0.39133107038898635
            ],
            [
                -0.17041527163726178,
                0.30792659070075673,
                0.273161383724505,
                0.6910762639461051,
                0.08283118054365991,
                -0.3313135354715513,
                -0.6617540774394672,
                0.2595942914008791,
                -0.05026060444181313,
                -0.8443404297258172
            ],
            [
                -0.37596816964533164,
                0.3396181418351476,
                0.5966367294982485,
                0.6777147736818492,
                -0.7823401090496841,
                -0.24694100016448473,
                -0.17765995238064655,
                0.7910135257184508,
                -0.7194055269253826,
                -0.1634292917471622
            ],
            [
                0.37886295275487664,
                -0.21022334782074018,
                0.3107238638788896,
                -0.05386535934510186,
                -0.295299765868999,
                -0.3386571151769464,
                0.10538272604565192,
                0.5362139882659652,
                -0.15322728722343956,
                0.25560920220086725
            ],
            [
                0.3019646214195423,
                -0.17488777751931575,
                -0.19882271616869038,
                -0.7899459985505238,
                -0.11939888552650428,
                0.4404860025357865,
                0.17723204943395854,
                -0.2757515275712547,
                0.43901170104261683,
                -0.13301705650798107
            ],
            [
                -0.717731150046907,
                0.27686966264272317,
                0.2969072208403796,
                -0.1556387516415211,
                0.276617288366143,
                -0.12841815698756925,
                -0.8900655993833477,
                0.31652237927376803,
                0.5765171469609418,
                -0.1734914933858003
            ],
            [
                -0.25314938722044233,
                0.07978990249157722,
                0.15134427922836022,
                0.1923845349149645,
                0.2768635426211101,
                -0.015579506256934434,
                -0.6389430036468327,
                -0.17843960036423695,
                -0.37838427965137417,
                0.10790245165072146
            ],
            [
                0.18924230984747814,
                0.03960895658636736,
                -0.24828478146441416,
                -0.0020431118764561913,
                -0.32323817251984327,
                0.204871130015437,
                0.03601235534980706,
                0.47016115742724784,
                -0.10527402138496855,
                -0.0894589131458203
            ],
            [
                0.21768762095466382,
                0.24490480219520236,
                -0.3626347312958811,
                -0.2509451048414431,
                -0.19625625816575767,
                0.3156965238294454,
                0.30071857201846147,
                0.05045846536268213,
                0.31879257944653666,
                -0.2388418575648253
            ],
            [
                -0.7952568414672175,
                -0.11241801161527863,
                -0.4238065452452392,
                -0.3258824630498133,
                0.6277929143005619,
                0.3271982661880631,
                -0.4126998777735427,
                0.4568740779694346,
                0.3174836955284294,
                0.29977388330105864
            ],
            [
                -0.7922941858791568,
                0.1841407198670327,
                -0.06387252589666155,
                0.32355231409416324,
                0.6489698118583151,
                0.07916259600726974,
                -0.973477143354916,
                0.25707591453282785,
                -0.742724143891905,
                0.6283911411519131
            ],
            [
                0.04325840329821,
                -0.17294609732213903,
                0.17296740826816043,
                0.2306528398451188,
                0.2862665015338513,
                -0.05791247688873384,
                -0.45463843946297233,
                -0.32322124798291796,
                -0.3195029486997878,
                0.17705080183795788
            ],
            [
                0.590064272782664,
                -0.02001006684213188,
                0.646804894113846,
                -0.20494037954779262,
                -0.6033954777883969,
                -0.260263988908375,
                0.11395985241920774,
                -0.09434842873936122,
                -0.014087647398660065,
                -0.2887920859521861
            ],
            [
                0.1569058337868524,
                -0.23683247634310736,
                0.039785471254488315,
                0.20137677310323232,
                0.3778767418589788,
                -0.15774217344733485,
                -0.708920844870194,
                0.4386780930609694,
                0.021111973102718416,
                -0.10131052008774306
            ],
            [
                0.33335988326183313,
                -0.28500497473814895,
                0.0642199028496568,
                0.4283149350320947,
                -0.20220613706080243,
                0.40741744662967405,
                -0.7132321874880201,
                0.3151469094126546,
                0.3153697479591394,
                0.11376219229821828
            ],
            [
                0.11751779848036244,
                -0.2989901291762002,
                0.049502576781756735,
                0.045980557866770154,
                -0.10637189358933578,
                -0.4070260864371902,
                -0.16613815548278021,
                0.10269615095507803,
                -0.11835152420558913,
                0.4241107709584975
            ],
            [
                0.5794503714166362,
                -0.15393241454874437,
                0.220370644774561,
                -0.042529850247342633,
                0.18429173443085567,
                -0.8066069078442983,
                -0.06998084947858746,
                -0.01820443184774108,
                0.2733415690148088,
                -0.02190462062588614
            ],
            [
                -0.10563503149849028,
                -0.2637180137556622,
                0.6396442708534622,
                0.3066257511967707,
                -0.3808976579131534,
                -0.19424398078444463,
                -0.32862735117427233,
                0.644536599026817,
                -0.25084895175266864,
                -0.7777694868682234
            ],
            [
                -0.2922900220878905,
                0.12703501490454144,
                0.3696836356692027,
                0.2689143619594615,
                0.12214280511212668,
                0.13992475234709825,
                0.022377921522839978,
                0.16584634873779666,
                0.003155240024664721,
                -0.3846959358525183
            ],
            [
                0.08709339632316242,
                0.5095216076952788,
                0.024824790972082338,
                -0.3760404127496688,
                -0.48686797220896516,
                0.22651945377284452,
                0.3887378940924444,
                0.00527147902923545,
                -0.02715831701052089,
                -0.07758325586785814
            ],
            [
                0.022501221175029826,
                0.05417780118561215,
                0.10739828240399572,
                -0.3095777828592449,
                -0.40042580915632037,
                0.20543851600989405,
                0.9027377259639102,
                -0.15251554894976002,
                -0.4636324295719339,
                -0.03371162987915679
            ],
            [
                -1.3011069192689804,
                0.11385517737718831,
                0.7936894804003294,
                0.5157960049442608,
                -0.2867724842418813,
                0.659281943592747,
                -0.6389149348048427,
                0.614207227270201,
                -0.08445476947769297,
                -0.10566682216883254
            ],
            [
                -0.007130340001004332,
                -0.28948340561264807,
                0.06477770739020067,
                0.06590506723189449,
                0.07935167371328143,
                -0.007993438291800239,
                -0.3770057903751444,
                0.02392394090583091,
                -0.1849623549914459,
                0.10511118928345473
            ],
            [
                0.4362671166180474,
                -0.3119148405107926,
                0.3765626822748889,
                -0.24391576996419875,
                -0.28834314592960836,
                0.4566978149028092,
                0.4591317102011758,
                -0.10622390932542217,
                -0.2824891187890529,
                -0.4165040155842358
            ],
            [
                -0.7388436227688366,
                0.04101776254957603,
                0.18944810212174676,
                0.41481621387458245,
                -0.6321653648644905,
                0.5900928239842532,
                0.4162161711554329,
                -0.5379173644554244,
                0.5906571781515462,
                -0.07323287221750086
            ],
            [
                -0.7614707992701917,
                0.7157285729330888,
                -0.34600060274801075,
                0.948438577529073,
                0.16668582229628198,
                0.7491892582605347,
                -1.1065113187889029,
                -0.09188930017547021,
                -0.7023146906079247,
                0.3654109642078356
            ],
            [
                0.5733407086674159,
                -0.03146576520351,
                -0.10763159764521936,
                0.25654698212071037,
                -0.12902295371464478,
                0.09489210865369879,
                -0.46580501091919846,
                -0.4933757162129798,
                -0.5039678597117633,
                0.42540659447209117
            ],
            [
                0.3243208936138848,
                -0.3504956908647898,
                -0.006991784442066204,
                0.2514504495960708,
                -0.08168231453729113,
                0.48869624993734306,
                0.25982053645735503,
