{
    "seed": 98524352,
    "learning_rate": 0.01,
    "epochs": 1000,
    "output_filename": "CNN_F",
    "convolutional_layers": [
        {
            "kernel_count": 8,
            "kernel_dim": 3,
            "padding": 1,
            "pooling_dim": 3,
            "weights": [
                [
                    [
                        [
                            1.8620296513495345,
                            1.8176104118693877,
                            0.42568909478779915
                        ],
                        [
                            -3.85904227345881,
                            -0.8719585955417487,
                            -0.3482071922907216
                        ],
                        [
                            -1.0205546050608887,
                            -0.11601704389408547,
                            -0.22045546409095967
                        ]
                    ]
                ],
                [
                    [
                        [
                            0.46767928223906513,
                            1.6177751690069084,
                            -2.3827357321560636
                        ],
                        [
                            -0.8536231051463956,
                            -1.1471995839850344,
                            -2.222537697654384
                        ],
                        [
                            -0.27288657679569195,
                            -1.0282213318529838,
                            -0.5399017758549495
                        ]
                    ]
                ],
                [
                    [
                        [
                            -0.18036853838145578,
                            -0.9697158334023908,
                            -0.06087410435110006
                        ],
                        [
                            0.18833587978963834,
                            0.6140545644770096,
                            -0.5091529248797982
                        ],
                        [
                            -0.6240193347841513,
                            -0.6393580139236507,
                            -0.08999164858499768
                        ]
                    ]
                ],
                [
                    [
                        [
                            0.6027124761041999,
                            1.6365310231060157,
                            -1.019558685241632
                        ],
                        [
                            -0.7991028779382361,
                            -0.08698733812837253,
                            -1.9654143401682336
                        ],
                        [
                            -1.9666402159290919,
                            -1.3920895778805091,
                            -0.6439536511337121
                        ]
                    ]
                ],
                [
                    [
                        [
                            -0.1622232727019853,
                            -0.3805851218360197,
                            -0.6886043429337906
                        ],
                        [
                            -1.523716919073921,
                            0.760665502301367,
                            0.43670791352477295
                        ],
                        [
                            -0.5605050791647744,
                            -0.32082745287506503,
                            -0.2801032447937127
                        ]
                    ]
                ],
                [
                    [
                        [
                            1.995832562609393,
                            1.5953616548303473,
                            -1.5286877126044038
                        ],
                        [
                            1.3849831010390583,
                            -1.5281760889846614,
                            -1.0032746876336378
                        ],
                        [
                            0.3711530535571998,
                            -0.7080754256797479,
                            0.14334611280707013
                        ]
                    ]
                ],
                [
                    [
                        [
                            -0.5378113317877324,
                            0.18392417870360592,
                            -0.16317586701123993
                        ],
                        [
                            -1.1784604152223126,
                            -1.3903663170737668,
                            -2.3925593177295696
                        ],
                        [
                            -1.5413788502758508,
                            0.9780946869173297,
                            1.7623614568512411
                        ]
                    ]
                ],
                [
                    [
                        [
                            -0.31271280621024267,
                            -1.8434298902717443,
                            -1.1481994362180221
                        ],
                        [
                            1.3471347229192003,
                            -0.2827180160546297,
                            -0.8223699055467233
                        ],
                        [
                            1.2166173609890618,
                            -1.0982750015177145,
                            -0.656625968714002
                        ]
                    ]
                ]
            ],
            "biases": [
                -0.012373429146790713,
                -0.0056612642409158585,
                -0.0014269589807985386,
                -0.005915279016896749,
                -0.0041030638012276716,
                -0.009088892874192183,
                -0.0046215744650712105,
                -0.005117820984444028
            ]
        },
        {
            "kernel_count": 8,
            "kernel_dim": 3,
            "padding": 1,
            "pooling_dim": 2,
            "weights": [
                [
                    [
                        [
                            0.3081798519167332,
                            -0.2747873971121583,
                            -0.42456118384195524
                        ],
                        [
                            -0.1511608641257537,
                            0.34918934796162965,
                            0.5162181232936678
                        ],
                        [
                            -0.012526224542068176,
                            0.632496672791514,
                            0.8901002580383791
                        ]
                    ],
                    [
                        [
                            -0.3416294532047496,
                            -0.08967894256360538,
                            0.6056371484646639
                        ],
                        [
                            -0.34653864806938145,
                            -1.4592809444280843,
                            -1.6244844774849718
                        ],
                        [
                            0.4366958534272079,
                            -0.4761899813470711,
                            -0.5809391911776168
                        ]
                    ],
                    [
                        [
                            -0.1076648155111596,
                            -0.23005335756759973,
                            0.04265407616735065
                        ],
                        [
                            -0.20476796974125974,
                            0.03986668858230547,
                            -0.12292363810774554
                        ],
                        [
                            0.11383813800084866,
                            0.2185097194504419,
                            0.21146896831495324
                        ]
                    ],
                    [
                        [
                            -0.49878551487039735,
                            -1.1820628678722613,
                            0.06535120809861258
                        ],
                        [
                            0.004916298953798853,
                            -1.0163570896338046,
                            -1.5320515932793672
                        ],
                        [
                            0.4206874311671231,
                            0.21464230480161495,
                            -0.5846570085751005
                        ]
                    ],
                    [
                        [
                            0.011029217885379474,
                            -0.29035029466074624,
                            -0.46379072482993444
                        ],
                        [
                            0.407841152022266,
                            0.8026535576809515,
                            0.15250478862193723
                        ],
                        [
                            -0.14459199535815734,
                            0.1374040184390283,
                            0.7593559429447545
                        ]
                    ],
                    [
                        [
                            0.10783463333259159,
                            0.6311041338401314,
                            0.6925614836526226
                        ],
                        [
                            -0.30171004522143313,
                            -0.2789737659318919,
                            0.5465764297539403
                        ],
                        [
                            -0.3934215754787483,
                            -0.7172457136515435,
                            -0.34019432349863626
                        ]
                    ],
                    [
                        [
                            0.10882634197665608,
                            -0.09742556838979549,
                            0.07537935120754068
                        ],
                        [
                            -0.5063506226018865,
                            -0.5982282112703755,
                            -0.26418070872266597
                        ],
                        [
                            0.20702360520885404,
                            0.20452370905313333,
                            -0.20494202714237908
                        ]
                    ],
                    [
                        [
                            -0.0032605888709144907,
                            0.3333648509939774,
                            -0.40435270190534855
                        ],
                        [
                            -0.3025135833159334,
                            0.07719374454412466,
                            0.7020130239316421
                        ],
                        [
                            0.126282553412059,
                            -0.6395112200666182,
                            -0.8593263271839529
                        ]
                    ]
                ],
                [
                    [
                        [
                            0.3490762739205978,
                            -0.05577733250692399,
                            -0.07594392614018355
                        ],
                        [
                            0.5089063196021968,
                            -0.16053406364653344,
                            -0.9876697905562423
                        ],
                        [
                            0.3597453827462709,
                            0.0005742372717294688,
                            0.020567282557925805
                        ]
                    ],
                    [
                        [
                            -0.860975464436835,
                            -1.2206170784491097,
                            -0.8232563745181055
                        ],
                        [
                            -0.4741973813522141,
                            -0.16014766059253785,
                            -0.20929493265122487
                        ],
                        [
                            -0.1521060107914173,
                            -0.14262941694792,
                            -0.15169804660069539
                        ]
                    ],
                    [
                        [
                            0.08867990687882402,
                            0.10532344940529725,
                            -0.1488565838409591
                        ],
                        [
                            -0.030067086764781547,
                            -0.30802931683301193,
                            -0.15038358197792248
                        ],
                        [
                            -0.08371595466866814,
                            -0.008667784263023698,
                            -0.0954128977384285
                        ]
                    ],
                    [
                        [
                            -0.009930693599544653,
                            -0.6464723970520261,
                            -0.2704657378282793
                        ],
                        [
                            -0.5157200186867961,
                            -0.7452364321202732,
                            -0.8293081585258142
                        ],
                        [
                            -0.2514287880145982,
                            -0.8502346255974375,
                            -0.04079951202420729
                        ]
                    ],
                    [
                        [
                            -0.09586881997066737,
                            -0.13004353735563995,
                            0.05770932883703081
                        ],
                        [
                            0.5624319474768881,
                            0.3600632725528346,
                            -0.6386578390740764
                        ],
                        [
                            0.3614915730577847,
                            0.2759828569906372,
                            0.05354209963718169
                        ]
                    ],
                    [
                        [
                            -0.22373169142575156,
                            -1.1248603835061655,
                            -0.757487991764135
                        ],
                        [
                            0.16525914598536157,
                            0.5914039818078087,
                            -0.4402872881220225
                        ],
                        [
                            -0.5000985901925381,
                            -0.06701332896137693,
                            0.5412141622973642
                        ]
                    ],
                    [
                        [
                            0.18982727260787885,
                            -0.6260814950540584,
                            -0.4641210720860654
                        ],
                        [
                            -0.06203218095863707,
                            0.4191955051941081,
                            -0.7185152203020527
                        ],
                        [
                            -0.4880642137136895,
                            0.18049408551395893,
                            -0.00835253377125377
                        ]
                    ],
                    [
                        [
                            0.42580266677076056,
                            0.45663330188726015,
                            -0.3212090025739149
                        ],
                        [
                            0.3629994826096654,
                            1.7445634337201377,
                            1.5444178406801259
                        ],
                        [
                            -0.4398617326087631,
                            0.281337605789245,
                            0.45380332909730065
                        ]
                    ]
                ],
                [
                    [
                        [
                            0.17754971438709632,
                            -0.12359593121557384,
                            0.3387428618165348
                        ],
                        [
                            -0.5172994936401805,
                            -0.45577576466383574,
                            -1.1395907480398206
                        ],
                        [
                            0.03789477412536141,
                            1.2725959583462851,
                            0.8864985524217331
                        ]
                    ],
                    [
                        [
                            0.34374082554980717,
                            -0.002832289350957077,
                            -0.4016039118304892
                        ],
                        [
                            -0.7795279939700915,
                            -1.207174261066011,
                            -0.5164624437708042
                        ],
                        [
                            -0.06069672009256972,
                            -0.39007293426344636,
                            -0.6226909014219353
                        ]
                    ],
                    [
                        [
                            0.4384482086600464,
                            -0.29575569952695135,
                            0.2436232611510805
                        ],
                        [
                            -0.16262194585816542,
                            0.2359716458960246,
                            -0.1683537884485739
                        ],
                        [
                            0.20758619184088808,
                            -0.1293210012611993,
                            -0.07044920280023474
                        ]
                    ],
                    [
                        [
                            0.5896940728004811,
                            0.22282345900811568,
                            0.5574713909381861
                        ],
                        [
                            -0.29034662920002036,
                            -0.5386643294840148,
                            0.22973058763107243
                        ],
                        [
                            -0.02882549604807605,
                            -0.015354252757854328,
                            0.10188291925987825
                        ]
                    ],
                    [
                        [
                            0.2177608882624921,
                            0.2782672389969102,
                            0.142870662576328
                        ],
                        [
                            -0.21345205764315775,
                            -0.02141708083213466,
                            -0.07358167344622742
                        ],
                        [
                            0.24364840432405804,
                            0.2768417541077214,
                            0.12477165155259698
                        ]
                    ],
                    [
                        [
                            0.15243788128995175,
                            -0.15895540653885026,
                            -0.8547427203468322
                        ],
                        [
                            -0.3150711663309383,
                            -0.9592515692498047,
                            -0.880889309228951
                        ],
                        [
                            0.2267441852233841,
                            0.42277355942334927,
                            -0.11498651766835573
                        ]
                    ],
                    [
                        [
                            0.7247634961137278,
                            0.5642967349805312,
                            0.2676687891595264
                        ],
                        [
                            -0.14119679305085886,
                            0.17433370725351788,
                            0.14796955203880763
                        ],
                        [
                            -0.251364877497283,
                            0.2833199831947133,
                            0.15926683779138134
                        ]
                    ],
                    [
                        [
                            0.130342169454027,
                            -0.22657291520788372,
                            -0.4268813411096428
                        ],
                        [
                            -0.4761247772911462,
                            -0.29343270404575333,
                            0.32150393505024
                        ],
                        [
                            0.18793366157519412,
                            -0.029929987019079892,
                            -0.08193081634816998
                        ]
                    ]
                ],
                [
                    [
                        [
                            -0.650041290602853,
                            -0.1968485600916024,
                            -0.04712270588613154
                        ],
                        [
                            0.18785239925766029,
                            0.481347185496819,
                            -0.09178506916524112
                        ],
                        [
                            0.23448339115292968,
                            0.6414031518233916,
                            0.005145327147764649
                        ]
                    ],
                    [
                        [
                            0.2389935856733802,
                            0.2097892236807801,
                            -0.3204976141291035
                        ],
                        [
                            -0.3297945285073904,
                            0.08232851868383503,
                            0.35092456256965776
                        ],
                        [
                            -0.24171148247242302,
                            0.3319189301432097,
                            0.6082703836489175
                        ]
                    ],
                    [
                        [
                            0.029402436502124644,
                            0.07392285909783403,
                            -0.26926869743849086
                        ],
                        [
                            -0.16242404320936585,
                            -0.09484567519576588,
                            0.4720338098841233
                        ],
                        [
                            0.13203553003231597,
                            0.21563629415912797,
                            -0.03817418958474218
                        ]
                    ],
                    [
                        [
                            -0.30158026165787194,
                            -0.17402577071386,
                            -0.5299795702735496
                        ],
                        [
                            -0.347354870604766,
                            0.6347245711058621,
                            1.4039006412848252
                        ],
                        [
                            0.3425985262366884,
                            1.2696205995835677,
                            1.0399087712961124
                        ]
                    ],
                    [
                        [
                            -0.5079035764761998,
                            0.023911349735578187,
                            -0.24010698447287707
                        ],
                        [
                            0.0005284391856501887,
                            0.32695941736726,
                            0.34124004498027505
                        ],
                        [
                            0.24482519804572886,
                            0.08865050751418956,
                            0.16838790660198644
                        ]
                    ],
                    [
                        [
                            0.24368888164081853,
                            0.37833814678805056,
                            -0.2118335694839023
                        ],
                        [
                            -0.12168764358954119,
                            0.2731026454980391,
                            0.4858087782216614
                        ],
                        [
                            -0.46132688383789844,
                            -0.766689092279052,
                            -0.4477323645993244
                        ]
                    ],
                    [
                        [
                            -0.6467990791252648,
                            0.07624162504936656,
                            0.012372724078658259
                        ],
                        [
                            -0.857936387504411,
                            -0.07345494938901674,
                            -0.12278915926849249
                        ],
                        [
                            0.4163672599788029,
                            0.8251889595898322,
                            0.633407823740072
                        ]
                    ],
                    [
                        [
                            0.33178097498622977,
                            0.16269300370878767,
                            -0.43166666598608633
                        ],
                        [
                            0.22458920965484996,
                            0.32161307757715246,
                            -0.6149202670710312
                        ],
                        [
                            0.2584015638938664,
                            -0.8060026002799041,
                            -0.9651125518068715
                        ]
                    ]
                ],
                [
                    [
                        [
                            0.5370861579251589,
                            0.18538231068556657,
                            0.23490844968473723
                        ],
                        [
                            0.6702419522193783,
                            0.4505875715821499,
                            0.6240033889278318
                        ],
                        [
                            -0.43523793801926186,
                            -0.6101273524503161,
                            -0.49071278508967164
                        ]
                    ],
                    [
                        [
                            -0.18498365538111086,
                            -0.32278492750185966,
                            -0.1814743841515826
                        ],
                        [
                            -0.3407741978431376,
                            0.05888971826371937,
                            0.3791654584128654
                        ],
                        [
                            -0.8129512999655039,
                            -1.0920835919798608,
                            -0.4064866959888789
                        ]
                    ],
                    [
                        [
                            0.31710037262247015,
                            0.16599301729285715,
                            0.004805153932669007
                        ],
                        [
                            -0.040592619967570166,
                            0.15103033446633563,
                            0.13980837828820591
                        ],
                        [
                            -0.11414957879199801,
                            -0.273074272431604,
                            0.04111154332961959
                        ]
                    ],
                    [
                        [
                            0.24602937999750102,
                            0.11930574860714442,
                            1.023295944371862
                        ],
                        [
                            0.5940042276959207,
                            0.6925012211406548,
                            1.1050631600593954
                        ],
                        [
                            -0.909573981407404,
                            -0.2814616248765997,
                            -0.39587942375960544
                        ]
                    ],
                    [
                        [
                            0.15570260066933642,
                            0.2539998648711214,
                            0.07717512410712579
                        ],
                        [
                            0.4494823668396253,
                            0.48503210564489074,
                            0.4939667806335966
                        ],
                        [
                            -0.3122990051220771,
                            -0.01755714276556696,
                            0.3215244914256061
                        ]
                    ],
                    [
                        [
                            -0.1113290673892275,
                            0.44101697745191004,
                            0.2721763457412425
                        ],
                        [
                            -1.0256730007356871,
                            -0.9031268265077301,
                            -0.18588664172394342
                        ],
                        [
                            -0.12672473412843627,
                            -0.6971608262169782,
                            -0.7134414784093812
                        ]
                    ],
                    [
                        [
                            0.12252280789202319,
                            0.06288143644877907,
                            0.16668124686287694
                        ],
                        [
                            0.782401558306294,
                            0.42591804261189603,
                            0.8022894974611521
                        ],
                        [
                            -0.547448519401812,
                            -0.5235169725721371,
                            -0.18216502237537086
                        ]
                    ],
                    [
                        [
                            0.03725757219267194,
                            0.3382413069096113,
                            -0.5438491867539096
                        ],
                        [
                            0.07452329998798668,
                            -0.9208743783565243,
                            -0.7946320420419765
                        ],
                        [
                            0.6942008717486265,
                            0.7413549489083981,
                            -0.4548843107081932
                        ]
                    ]
                ],
                [
                    [
                        [
                            -0.8455103352094392,
                            -1.1038166656659478,
                            -0.6259455529481949
                        ],
                        [
                            -1.5632605452184236,
                            -0.8492134991966032,
                            -0.31599879412572
                        ],
                        [
                            -1.1026214375761865,
                            -0.47168161408654474,
                            -0.3007648446645585
                        ]
                    ],
                    [
                        [
                            0.7652048405194095,
                            0.22734321833533871,
                            0.025967917892133742
                        ],
                        [
                            0.6017872965801079,
                            -0.014256416734258755,
                            0.33342000473407857
                        ],
                        [
                            -0.058838723480425785,
                            -0.17391506324286374,
                            0.05418629331348701
                        ]
                    ],
                    [
                        [
                            0.13646045477495777,
                            -0.014890876817291185,
                            -0.2787365117178232
                        ],
                        [
                            0.07214262169133713,
                            -0.11188863175096954,
                            -0.4508823772563403
                        ],
                        [
                            0.29143336709229867,
                            -0.045071628184078324,
                            -0.08514848498069404
                        ]
                    ],
                    [
                        [
                            -0.6280109957667362,
                            -0.637582035392553,
                            -0.28591604971801926
                        ],
                        [
                            -0.3022194479778562,
                            -0.5673514680871047,
                            -0.3829803997443975
                        ],
                        [
                            -0.6288797553128965,
                            -0.3545499322133014,
                            -0.04905240166317736
                        ]
                    ],
                    [
                        [
                            0.005843008857964266,
                            -0.33504071713494715,
                            -0.40017813157343485
                        ],
                        [
                            -0.172059608413476,
                            -0.2806467339378377,
                            -0.313061883148935
                        ],
                        [
                            -0.10829161624341503,
                            -0.12001050304386048,
                            -0.03880184338320113
                        ]
                    ],
                    [
                        [
                            0.398539670933473,
                            -0.25533269054207436,
                            -0.29161488573655475
                        ],
                        [
                            0.21768807195546377,
                            -0.739721461923958,
                            1.0287383850174858
                        ],
                        [
                            -0.5067244090205325,
                            -0.043855602808234195,
                            0.8377466714609364
                        ]
                    ],
                    [
                        [
                            -0.2985021006502853,
                            -0.12189245561682789,
                            0.01845333107729167
                        ],
                        [
                            -0.525754623931091,
                            -0.3534693195417141,
                            -0.4507885788657468
                        ],
                        [
                            0.27770971699966834,
                            -0.589433553204325,
                            -0.5069311761106314
                        ]
                    ],
                    [
                        [
                            1.5835901978835443,
                            0.09812480726786821,
                            -0.19265610830034566
                        ],
                        [
                            0.6438610943551567,
                            -0.6277500509189982,
                            0.07798306513481985
                        ],
                        [
                            0.22617550807450404,
                            0.27450987891276946,
                            0.04053351183375645
                        ]
                    ]
                ],
                [
                    [
                        [
                            0.3085378988877332,
                            0.5851200503409923,
                            0.5893444820987517
                        ],
                        [
                            -0.49274211043363464,
                            -0.4015739802028101,
                            -0.4620597805783541
                        ],
                        [
                            -1.0591173878890112,
                            -1.097215496904534,
                            -0.8124702800351711
                        ]
                    ],
                    [
                        [
                            0.36751534861140533,
                            0.25538580474193373,
                            -0.39907833494588363
                        ],
                        [
                            -0.1143115827643194,
                            -0.32004803771457674,
                            0.2262888576803855
                        ],
                        [
                            -0.2094601242708891,
                            -0.65833276911483,
                            0.5727520654289554
                        ]
                    ],
                    [
                        [
                            -0.3202050994855063,
                            -0.19225282763360851,
                            0.036998802071205095
                        ],
                        [
                            -0.047861707382719554,
                            0.06693130817470673,
                            -0.34760343452069675
                        ],
                        [
                            0.28728038306898657,
                            0.043283823985228766,
                            0.18039509832648584
                        ]
                    ],
                    [
                        [
                            0.6235303353507474,
                            0.49137451273416693,
                            -0.3308220543588767
                        ],
                        [
                            0.11810443739721521,
                            -0.07571515471847398,
                            -0.029477737397336043
                        ],
                        [
                            -0.22649953033472914,
                            -0.3640806547204934,
                            0.14411652711606288
                        ]
                    ],
                    [
                        [
                            0.31098038778906834,
                            0.1355372817424372,
                            0.006675623513881634
                        ],
                        [
                            -0.19408735752540116,
                            -0.29326466771870885,
                            -0.11501527350505088
                        ],
                        [
                            -0.45989669292312846,
                            -0.40130119297710387,
                            -0.03283183690912067
                        ]
                    ],
                    [
                        [
                            0.28750068809207374,
                            0.19613682019646345,
                            0.04396374098177589
                        ],
                        [
                            -0.37129564554651834,
                            -0.7930780968382363,
                            0.009394214794098667
                        ],
                        [
                            -0.15095829123607993,
                            -0.4832475695878286,
                            0.7966043776326343
                        ]
                    ],
                    [
                        [
                            0.41250589828067774,
                            0.2500114205647284,
                            0.0321512540401292
                        ],
                        [
                            -0.28090340425828947,
                            -0.27592925741754615,
                            0.1833545115629641
                        ],
                        [
                            -0.5522761707387991,
                            -0.2532103061183689,
                            0.09759926523843944
                        ]
                    ],
                    [
                        [
                            0.13858079092267234,
                            -0.16019768600924456,
                            -0.08770038479890299
                        ],
                        [
                            -0.3200758780631668,
                            -0.4887318037369992,
                            0.20860019363384835
                        ],
                        [
                            0.010226701836876788,
                            -0.20378899804467335,
                            0.6166385111872945
                        ]
                    ]
                ],
                [
                    [
                        [
                            -0.4227820164975854,
                            -0.2658265356627251,
                            -0.4219108536479295
                        ],
                        [
                            -0.18433065858252112,
                            -0.4730473271414183,
                            -1.0413776525275251
                        ],
                        [
                            -0.42764783104080917,
                            -0.8079026051479314,
                            -0.22234341552943707
                        ]
                    ],
                    [
                        [
                            0.25911841609534836,
                            0.5861882047435002,
                            0.11423871998077322
                        ],
                        [
                            1.0236196815076608,
                            0.09964326096572969,
                            0.09373216614417171
                        ],
                        [
                            0.11203193822822394,
                            -0.32845885765566,
                            -0.050043284651342376
                        ]
                    ],
                    [
                        [
                            -0.07007114801056848,
                            0.16935619850028039,
                            0.030357504055305764
                        ],
                        [
                            0.2075008915702528,
                            -0.19561196345459542,
                            0.10811514529387395
                        ],
                        [
                            -0.03507361459676578,
                            0.0602540800304863,
                            -0.1089425302667239
                        ]
                    ],
                    [
                        [
                            -0.2677627783325891,
                            0.5175209281781359,
                            -0.15429493349013906
                        ],
                        [
                            0.9925803578660463,
                            0.818413821053944,
                            -0.1542632515895407
                        ],
                        [
                            0.44925163750656133,
                            -0.2776846812593265,
                            0.11309992564685613
                        ]
                    ],
                    [
                        [
                            -0.15212118003122047,
                            -0.15258893377312854,
                            -0.037947936256502474
                        ],
                        [
                            0.2708998759649104,
                            0.14267814338008133,
                            -0.30318290798898206
                        ],
                        [
                            0.16933538522290079,
                            0.07388809241594348,
                            -0.1050898948507554
                        ]
                    ],
                    [
                        [
                            -0.6600467426137417,
                            1.037545289371729,
                            -0.15919293449583333
                        ],
                        [
                            0.6965933465874258,
                            -0.17005576943931822,
                            -0.24248710848723876
                        ],
                        [
                            -0.177035797779937,
                            -0.5102440713267576,
                            -0.04638010163217769
                        ]
                    ],
                    [
                        [
                            -0.12423624786054746,
                            -0.22189772604033695,
                            -0.19722598970960398
                        ],
                        [
                            0.2906270791638741,
                            0.23747669329983204,
                            -0.22897520791223477
                        ],
                        [
                            0.4015598445664157,
                            0.16114307753486695,
                            -0.2516724575382894
                        ]
                    ],
                    [
                        [
                            0.3480371205568035,
                            0.19699369137866277,
                            -0.4915154076601118
                        ],
                        [
                            -0.0625249219819591,
                            -0.7161970523938755,
                            -0.6387983146452955
                        ],
                        [
                            -0.6915350254435195,
                            -0.15458421813380527,
                            0.2179297868982383
                        ]
                    ]
                ]
            ],
            "biases": [
                -0.025432515083068676,
                -0.003340296824802081,
                -0.019113005529043946,
                -0.017074279052297935,
                -0.00950022082852104,
                -0.0008969867048206106,
                0.013580794341227874,
                -0.002200595093392011
            ]
        }
    ],
    "fully_connected_layers": [
        {
            "node_count": 20,
            "weights": [
                [
                    -0.2382596462308306,
                    -0.14771047083273925,
                    0.009784693803758113,
                    -0.09168208984583431,
                    0.23920587621933256,
                    -0.3514971795620427,
                    0.1477919608627513,
                    -0.15641578507949383,
                    0.14386448049273148,
                    0.13142854831953532,
                    -0.04015163722260941,
                    0.1056929589180861,
                    0.016718684162086807,
                    0.1084534534117787,
                    -0.023374697953255797,
                    0.17011055898755706,
                    -0.24566974573998346,
                    -0.2513358566163671,
                    -0.015134937114946848,
                    0.1838045684672011
                ],
                [
                    0.26752383097975857,
                    0.2250168903659194,
                    -0.06532348543778645,
                    0.2519726794102191,
                    0.04787126931839826,
                    -0.564710118115307,
                    -0.3220727638313484,
                    -0.6258239902828829,
                    0.364148919806395,
                    0.22755643040655288,
                    0.40472729111044126,
                    -0.31262236031306917,
                    0.02461030745611479,
                    0.2625898973087324,
                    0.10172810984637179,
                    0.22020885147661914,
                    -0.08924233433571092,
                    -0.2576531281515014,
                    -0.07020874497213955,
                    0.005243593226577558
                ],
                [
                    0.25757962040998045,
                    0.016567395125930903,
                    0.05021271100262733,
                    0.16398488976358697,
                    0.15960683484412344,
                    -0.6421031186500877,
                    -0.1769296225122434,
                    -0.6375919408895644,
                    0.16303023015140622,
                    0.1578742856452391,
                    -0.06308956818274117,
                    -0.1262671923105206,
                    -0.12585510191870278,
                    0.32737504938438516,
                    0.16587546602370107,
                    0.1255335042847432,
                    -0.2135929960150871,
                    0.311207084289151,
                    0.08877762407740317,
                    0.22968493086735933
                ],
                [
                    -0.19359328890984281,
                    0.25151581557174696,
                    -0.13174406182772913,
                    -0.05252641608034865,
                    0.0036760679387245923,
                    0.16980959781555205,
                    -0.0013574640422503205,
                    0.03980946560427561,
                    0.026424316601329944,
                    0.16951551529171494,
                    -0.2573580506783407,
                    -0.08703759794532677,
                    0.055534616679825385,
                    -0.14852475252475808,
                    0.054196321688448346,
                    0.030366522407142358,
                    0.12699350934660308,
                    -0.12567769729753478,
                    -0.010044957668308008,
                    -0.12642380580816617
                ],
                [
                    0.1481160341380695,
                    0.15435291969201734,
                    0.3120319027661789,
                    -0.054564938896202765,
                    -0.2510291203003211,
                    0.7930153124969196,
                    0.21271140455888712,
                    -0.24343157928587936,
                    0.27033436755993323,
                    -0.17829699476547095,
                    -0.4489115172419035,
                    0.005542589679070077,
                    -0.14667980676945439,
                    -0.4125479059647481,
                    0.3107663026188988,
                    -0.08853343957092419,
                    -0.09186395650800028,
                    -0.6229499420025852,
                    0.1354311478531013,
                    0.1867242691550807
                ],
                [
                    0.9589329800908998,
                    0.4148422527254083,
                    -0.5371154144093601,
                    -0.21090622999233571,
                    -0.34231093297367976,
                    0.5728267264844514,
                    0.4773934464884645,
                    1.2155486269418385,
                    -0.031263266257564565,
                    -1.2379317732782238,
                    -0.8183872245612721,
                    -0.06543916444057576,
                    -0.2892183868316903,
                    -0.33814157690724456,
                    -0.15347431128837924,
                    -0.09044713559111608,
                    -0.047586123837541044,
                    -0.11549486170675904,
                    0.23751854075070924,
                    0.2604672021465372
                ],
                [
                    0.09534431790205286,
                    0.6369533416422164,
                    0.12768162726843155,
                    0.18107251906254643,
                    -0.7891829706194916,
                    0.19037979957490525,
                    0.15652883909045615,
                    -0.08225574588245256,
                    0.4661913400514908,
                    0.038573490134888325,
                    0.15607065441168694,
                    0.2671997415242343,
                    -0.21239277782670982,
                    0.1256030799403005,
                    0.2087152690963087,
                    -0.2805520595769057,
                    -0.21723884753103867,
                    0.15910931298634423,
                    -0.14032860994887658,
                    -0.4461015497564559
                ],
                [
                    -0.4195514248128,
                    -0.05031885954410252,
                    0.3013257656235506,
                    -0.2244238851891895,
                    -0.03980269587864498,
                    0.3659215041596494,
                    0.027897293842927523,
                    0.26949537547675173,
                    0.321685910902433,
                    0.36945104283942337,
                    -0.012786947239095372,
                    0.35549299618448815,
                    -0.11679657010800724,
                    -0.2548114332824092,
                    0.23920559099817532,
                    -0.6236540799314216,
                    0.1803936724619184,
                    0.42486352225314594,
                    0.02927626645089202,
                    -0.504057640448814
                ],
                [
                    -0.3464698669493075,
                    -0.6721377895703113,
                    -0.012452113796338269,
                    -0.34298431000571006,
                    0.3150065962541167,
                    0.9026887887863294,
                    0.02205512967766316,
                    0.5789453168746278,
                    0.24247481485048847,
                    0.40937432026901444,
                    -0.36469546951518284,
                    0.2297107685031007,
                    -0.1935703950497223,
                    -0.21374993857527239,
                    -0.37884462042253686,
                    -0.1402529213510322,
                    -0.5374823831804454,
                    0.4157673401201849,
                    -0.20198564181952824,
                    -0.20199139312924663
                ],
                [
                    -0.5406110292668951,
                    -1.2478991413901368,
                    -0.9439656590721478,
                    -0.04124855614316269,
                    0.21770425741145266,
                    0.7023892197072066,
                    -0.2833834067184555,
                    0.7458460148963433,
                    -1.3057271104814256,
                    -0.8106273202333504,
                    -0.5208796235283952,
                    0.11678089836194457,
                    -0.8001253154145993,
                    0.05252776433664693,
                    -0.37160223069358767,
                    -0.264912134806436,
                    0.0014967754966231206,
                    0.3661371368027936,
                    -0.5275218483478858,
                    0.5217478604664703
                ],
                [
                    0.3774058597086338,
                    -0.4840543719587631,
                    -0.14218420300136628,
                    0.47716020249062724,
                    -0.16339080712279655,
                    -0.3391219268373159,
                    -0.33597492672995954,
                    -0.4549959186127553,
                    -0.5850134038234355,
                    -0.4805869740690672,
                    0.014099626924955581,
                    0.015786024186166883,
                    -0.26051891830887075,
                    0.46006438866804905,
                    0.47071716537400854,
                    0.6927749419758026,
                    0.8650422424100469,
                    -0.3695135967670171,
                    0.2899741436278097,
                    -0.25493747867088196
                ],
                [
                    0.07542461732781433,
                    0.07367208046531636,
                    0.32884784565798464,
                    -0.5582841582979031,
                    0.03953656617019163,
                    0.13659672492867242,
                    0.05760257748330772,
                    0.24035199058366666,
                    0.09352130551169333,
                    0.11416974769238507,
                    0.2908046180507188,
                    -0.0658823744078563,
                    0.14823296803298522,
                    -0.5921373769009308,
                    0.4214725922067474,
                    0.08411592073985223,
                    0.5898835815011823,
                    0.09069287605281616,
                    0.42732919941620895,
                    -0.24467857700602794
                ],
                [
                    -0.03289172663315492,
                    -0.6128559445289401,
                    -0.130003522335534,
                    -0.36763092921540175,
                    0.09005007958354092,
                    -0.16310091629452397,
                    0.06747912138031648,
                    -0.06741446001632749,
                    0.426141196696585,
                    -0.0594680454591989,
                    0.2928473026325373,
                    -0.0451655873564742,
                    -0.03688005052898396,
                    0.0989245073458172,
                    -0.08788665803351203,
                    0.13115757944733916,
                    0.40207791797386694,
                    0.3974817944405913,
                    0.5263257494749091,
                    0.012597047090760911
                ],
                [
                    0.03513558797260688,
                    -0.36562345418972275,
                    0.3166505420722228,
                    -0.448856763610425,
                    0.0029959417957819232,
                    0.6853627554695526,
                    0.7169898514310448,
                    0.004536654827097553,
                    0.12701463366497248,
                    0.385687779675018,
                    -0.07257314494248342,
                    -0.47949156977519364,
                    -0.24992436699054843,
                    -0.32294291039445583,
                    0.05078196773672896,
                    -0.06816507619624862,
                    0.2943364310467281,
                    0.3914761022992203,
                    0.596729867711437,
                    0.054198227234862374
                ],
                [
                    0.06635585892311711,
                    0.45287139808479127,
                    0.2489076306800287,
                    -0.11109924627882248,
                    0.5074446404461158,
                    -0.3610229137910718,
                    -0.05150140841991769,
                    -0.2113822022831669,
                    0.19663235788054595,
                    0.23438814295433444,
                    -0.3763766536283185,
                    -0.29401852046366495,
                    0.09644691790161065,
                    0.315134176125617,
                    -0.15461231553320878,
                    -0.1934165944005914,
                    -0.426818901309416,
                    -0.07116294257008303,
                    0.19963755096565908,
                    0.06736501033143379
                ],
                [
                    0.3825014425337569,
                    0.29597840001833753,
                    -0.01620502100643387,
                    -0.3669151359875219,
                    -0.31266277490213545,
                    -0.057392099895378586,
                    -0.3477733711606937,
                    0.6024122190222752,
                    0.4820741762731254,
                    0.6423999865673805,
                    0.21489171249583702,
                    0.12717980033103385,
                    -0.03182477128052235,
                    0.06987991994792098,
                    -0.6096577025651857,
                    -0.43047258540679195,
                    -0.6052386822884996,
                    0.4497274170744915,
                    -0.4681285377092287,
                    0.5197489368726491
                ],
                [
                    0.04373463701721426,
                    0.032875252177003295,
                    -0.06966462353556502,
                    -0.07260528998636571,
                    0.15477041826782806,
                    0.0584377495227729,
                    -0.24610416029541987,
                    -0.059581414588274886,
                    0.03208963506316628,
                    0.10414651552943603,
                    0.16701430876777895,
                    -0.17290795378529444,
                    0.13563908975169173,
                    0.002768337139090958,
                    0.10968957558006304,
                    0.27465651937753294,
                    0.14258834599712517,
                    -0.13080806738561315,
                    0.06355764552430572,
                    -0.14018788357369782
                ],
                [
                    -0.3342403182394666,
                    0.23486469794547535,
                    -0.04189809578378367,
                    -0.17973577619993666,
                    0.8305859160424177,
                    -0.14889095150589846,
                    -0.3136810025138008,
                    -0.5142053835259149,
                    0.15199769405294652,
                    0.12236295368378601,
                    -0.10477528842221367,
                    0.03249152954945306,
                    -0.34466522764776397,
                    -0.1964484668131934,
                    0.13076416148048453,
                    0.2592740396251356,
                    -0.2332427685391605,
                    -0.812837128672863,
                    0.332585061911354,
                    0.43221818001770224
                ],
                [
                    0.5524456579552007,
                    -0.036620567453239494,
                    0.11222055798145644,
                    -0.5527384066742904,
                    0.6944288330683097,
                    -0.4068370828905141,
                    -0.9805626970309288,
                    -0.14122684592566795,
                    -0.25022197731918444,
                    -0.5257057465123967,
                    -0.07727930552972352,
                    -0.3580464842868979,
                    0.13495685661828716,
                    0.1653880502650172,
                    0.2689682754508306,
                    -0.02643206813758127,
                    -0.0030306373059441915,
                    0.011925653115783846,
                    0.34061046948500245,
                    0.43825895764676415
                ],
                [
                    0.33046692575300285,
                    -0.13232291870624957,
                    -0.11694497608176915,
                    -0.8506440577634112,
                    0.030323516323376567,
                    -0.18721236740793393,
                    -0.4825872233525523,
                    0.3730709859156967,
                    0.3287896121129783,
                    0.2880516927090318,
                    -0.027808151466791234,
                    -0.37139208023015396,
                    0.004037094735800379,
                    0.36947553951816614,
                    0.7466220043181317,
                    -0.1406356494015115,
                    0.07540440118534658,
                    0.08245948057357227,
                    0.21905610256280328,
                    0.27315404589843123
                ],
                [
                    -0.06057137806171872,
                    0.09521475784939908,
                    -0.11957721250443613,
                    0.3357595762869424,
                    0.09418833923377412,
                    0.17382823292267716,
                    -0.042350088055484666,
                    -0.3759460495993735,
                    0.3047425511728439,
                    -0.2619830232385458,
                    -0.10573552782834016,
                    -0.1995372901093257,
                    0.009541222563999419,
                    0.16295328394778083,
                    0.0701424347096035,
                    -0.20479867575722419,
                    0.06242115191631227,
                    -0.2537912277506947,
                    -0.037692131001919246,
                    -0.08425593295546055
                ],
                [
                    -0.5381617552245134,
                    -0.012128596784215087,
                    -0.41234409087190516,
                    -0.17881678085285774,
                    0.6617812316515391,
                    0.1811810443689575,
                    -0.5614333490801754,
                    -0.07223596490273437,
                    1.2655752033912127,
                    -0.18000171882892196,
                    -0.4371339422689832,
                    0.6323169842767595,
                    -0.28643892642915963,
                    0.20823980570987255,
                    0.9415204423273076,
                    -0.014147585786525271,
                    -0.6208243101205749,
                    -1.5632287345757443,
                    -0.6441655004927824,
                    -0.2194963298246718
                ],
                [
                    0.09268971325556714,
                    0.10215869453603062,
                    0.2369133988878079,
                    -0.16522947812522823,
                    -0.5387628519057803,
                    -0.22516885317571195,
                    0.12356769665198732,
                    -0.034283979850600554,
                    0.30775494423536787,
                    -0.05034731800919177,
                    -0.04037958414689847,
                    0.004677106122587201,
                    -0.17302256160912094,
                    0.6244478749989439,
                    0.5489061981536998,
                    -0.46433302194316795,
                    -0.2556532394931997,
                    0.3453922388986433,
                    0.007122012971252643,
                    0.35623006335836294
                ],
                [
                    -0.45626539577057773,
                    0.07711726019311271,
                    0.1545439547234289,
                    0.17984285621597962,
                    -1.0102688561376305,
                    0.32170775619294717,
                    0.48349422492324173,
                    0.05205614517091404,
                    0.4116163048907428,
                    0.022636163236811647,
                    -0.13914929621343056,
                    0.06544678724264107,
                    -0.5531327467440023,
                    0.11839351095807199,
                    -0.12106817709495245,
                    -0.5441803595456395,
                    -0.13165606491289863,
                    0.4912190697765946,
                    -0.12905362889787997,
                    -0.08223886229268743
                ],
                [
                    0.39226888662847414,
                    0.16031641365718338,
                    -0.5954212321265122,
                    0.14370995510861181,
                    0.00990250775642582,
                    -0.6569468183516691,
                    0.08738382888663088,
                    -0.6561872936237213,
                    -0.12013196140477479,
                    -0.225644420056037,
                    0.3482651903568896,
                    0.051390772646329325,
                    -0.12563493902661996,
                    0.0060816688773376905,
                    0.12334655931427171,
                    0.6862057139012024,
                    0.16067191586346227,
                    -0.1943818987620792,
                    0.36505589622176804,
                    -0.24109697349791734
                ],
                [
                    -0.16124054886103686,
                    -0.0912413208569731,
                    -0.4546828969340795,
                    0.02145367748521551,
                    -0.06714239497488002,
                    -0.32911765307423846,
                    -0.09560008347345926,
                    -0.57097299771708,
                    0.45786442179387055,
                    0.036863868774832456,
                    0.10667805346222968,
                    0.4555311281555616,
                    -0.08411534043098826,
                    0.1461322740271903,
                    0.10576201765740452,
                    0.6157226132477797,
                    0.0016934318570665662,
                    -0.3329725449294792,
                    -0.30286682667166687,
                    -0.2894863192933838
                ],
                [
                    -0.014166243015850153,
                    0.33822569996536705,
                    0.28275418904370575,
                    -0.4324120719913786,
                    0.4493326948613362,
                    -0.3487595491861639,
                    -0.2994731947771572,
                    0.13113928470314826,
                    0.14625005349977765,
                    0.07117061291940345,
                    0.35027391244757744,
                    -0.07318952254243231,
                    0.846283975489635,
                    -0.17407754763416236,
                    -0.45165250709078414,
                    -0.1382911817984434,
                    0.1501954691863319,
                    0.24528258691892668,
                    0.1636367672248781,
                    -0.672084645628287
                ],
                [
                    -0.5493871025727148,
                    -0.6539238250801311,
                    0.07201640685798576,
                    0.4126023846589314,
                    0.7092941218436697,
                    0.3930152603470471,
                    0.5820048606505562,
                    0.005586458086799841,
                    -0.21435462700036687,
                    0.050706174565200254,
                    0.10847497151713138,
                    0.4881756507780844,
                    -0.6932361169431991,
                    -0.714290445695989,
                    -0.5658090610880014,
                    0.5940144977020186,
                    -0.17620496790383827,
                    -0.28709927129905716,
                    0.3116183029140721,
                    -0.261992626255736
                ],
                [
                    0.14319243204198484,
                    -0.3338609186389044,
                    -0.2846768340118103,
                    0.3434203527479921,
                    -0.07444910722137082,
                    -0.30516383819998505,
                    -0.20624942782896047,
                    -0.42262152073888115,
                    -0.2666275705844902,
                    -0.09155917996422287,
                    -0.08140865857343917,
                    0.03698816534684624,
                    0.1610718651254697,
                    0.06887931271943008,
                    0.23278790993531523,
                    0.13090927454042428,
                    0.168473312268607,
                    -0.1439877975544121,
                    0.3607529417780033,
                    -0.08026321392678636
                ],
                [
                    -0.2873518480235182,
                    -0.4915772285912171,
                    -0.0078315655345848,
                    1.0564341804199,
                    0.05032232437280442,
                    -0.20404675685126444,
                    -0.15691589061006553,
                    -0.21460677701075714,
                    0.09878833144443835,
                    -0.07594488030182088,
                    0.5048458900911142,
                    0.6575323892213043,
                    0.12505207092080117,
                    0.3243029078017183,
                    -0.2873144665172941,
                    0.37170145752110517,
                    0.518247275495015,
                    0.05974624705422707,
                    0.3178261720543871,
                    -0.6920269324824094
                ],
                [
                    0.3824743530470577,
                    -0.02916931536069715,
                    0.4170193084519765,
                    0.2142287581197637,
                    0.07873436780343837,
                    0.08550351406887707,
                    0.13419388567901866,
                    0.02968676872702833,
                    -0.015416811892467398,
                    -0.06740970165973031,
                    0.2652535537987164,
                    0.6708870429732176,
                    0.4458269572541507,
                    -0.2588452567233174,
                    -0.4127292778004845,
                    0.15825399643304752,
                    0.9638805610314909,
                    0.03302652659140313,
                    0.18033406285222078,
                    -0.8382533836513967
                ],
                [
                    0.5577863518897733,
                    0.07051121752904141,
                    -0.3676610346261241,
                    -0.32381756198139944,
                    -0.23361138925128752,
                    -0.11349420235393046,
                    -0.012436222667045919,
                    0.4586266224804783,
                    -0.4882051727939138,
                    -0.45549308463899413,
                    0.1747272464107351,
                    -0.6636599183050458,
                    -0.047651284366919955,
                    -0.3052028888023744,
                    0.26114898255460395,
                    -0.009236156102760105,
                    -0.20831318445176925,
                    0.7274248261805814,
                    0.5403950325390989,
                    0.45592084991502885
                ],
                [
                    -0.17875629417555805,
                    -0.021626989215471685,
                    0.09785375448415712,
                    0.05229605665137998,
                    -0.19362717772541915,
                    -0.1855635223730835,
                    0.2549130490427671,
                    -0.19743803391062356,
                    -0.11138238857433856,
                    -0.04016658904493295,
                    0.1663012215823011,
                    -0.11657775009556977,
                    -0.2534203237655392,
                    -0.0006097980408413538,
                    0.10703680724916485,
                    -0.12897598972493343,
                    0.20790613191962232,
                    -0.17648476542686262,
                    0.1211120333174835,
                    0.3474754324284425
                ],
                [
                    0.18522385417224124,
                    0.0802499366024614,
                    -0.0897905912736779,
                    -0.052522122437966806,
                    -0.41175276174414704,
                    0.08614773960845,
                    0.555772274496837,
                    -0.23356261991928687,
                    0.010507253811719814,
                    -0.13189735509313122,
                    -0.2694872049166005,
                    0.2239859901543952,
                    -0.46264902457243584,
                    0.07610611328544017,
                    0.17974231814008787,
                    0.04642045164764474,
                    -0.29355561932292634,
                    -0.09625454383250563,
                    0.30332126811321775,
                    0.32772268918127856
                ],
                [
                    0.5619919059209689,
                    -0.04396130899865868,
                    -0.4548439922327291,
                    0.2080735753208299,
                    -0.48077800258555936,
                    0.030880766829412192,
                    1.1139249029089648,
                    0.31302913968494145,
                    -0.29499378296508244,
                    -0.2435293457975763,
                    -0.23420465475987684,
                    -0.2586727480564464,
                    -0.38495534270696513,
                    0.28262439061703526,
                    -0.2226366326287292,
                    0.2635789788390204,
                    0.24142963314790514,
                    0.3126847046933096,
                    0.009451790963187434,
                    0.20446960588383611
                ],
                [
                    -0.0031873876142030767,
                    -0.3869092599942476,
                    -0.037695905186513626,
                    0.008405893823728142,
                    -0.1844771945989152,
                    0.4771859341085438,
                    -0.029802839030660788,
                    0.4266272060411134,
                    -0.09357337716775811,
                    -0.1989151085755008,
                    -0.35526265445921146,
                    0.18906698262627747,
                    0.08250062834856275,
                    -0.2864131650824866,
                    0.13182002127987047,
                    -0.22180712786882992,
                    0.21401101049490373,
                    0.02635341518541646,
                    0.0016645936570531688,
                    0.0670622063497763
                ],
                [
                    0.3234746500178511,
                    0.21445351891831843,
                    -0.15082696413255825,
                    0.09974167458344295,
                    -0.23991608083720803,
                    0.027881533751274615,
                    0.15166718711231644,
                    -0.20735062000312798,
                    0.4706272612355358,
                    0.26585896517557384,
                    -0.46328367096324696,
                    -0.05211007727151597,
                    -0.19365484483170883,
                    0.08299506965327678,
                    0.6274334596780204,
                    -0.03514020318245058,
                    -0.03562566412690926,
                    0.10623771515317564,
                    0.10916701494916069,
                    -0.17007423351594173
                ],
                [
                    0.11384820033551327,
                    -0.06943505696607365,
                    -0.22056020756383501,
                    0.4253689146876871,
                    -0.6788018242341002,
                    -0.329187013020983,
                    0.2974447163132028,
                    0.030179432555313898,
                    0.2621141837475037,
                    -0.15528136977577478,
                    0.039752518766401485,
                    -0.035008113787609825,
                    -0.0780696100870797,
                    0.09548465155065262,
                    0.5732910472046469,
                    0.02606337055486135,
                    -0.18810625782572207,
                    0.1177591103612144,
                    -0.004044841593899796,
                    0.21724084880670128
                ],
                [
                    -0.39677274050703404,
                    0.20700043452436648,
                    -0.6506389378354904,
                    0.13415928573160185,
                    -0.1303982033584549,
                    0.19946198083635186,
                    0.8216391564278669,
                    -0.15156194168777518,
                    0.13790551291506908,
                    -0.25042227235350706,
                    -0.49814896927256697,
                    -0.02891249364641766,
                    0.01285467159333198,
                    -0.26158518207685616,
                    -0.19711403251422632,
                    -0.0044910113906657485,
                    0.04610414634471902,
                    0.18634969344246222,
                    0.04478863987022194,
                    -0.024788088788376114
                ],
                [
                    -0.28446551588267655,
                    -0.15367790406178786,
                    0.30809298366163457,
                    -0.16134811211990988,
                    0.5004539210640356,
                    0.4289620320712887,
                    0.9046809403537031,
                    0.1728488411815311,
                    -0.44732022984735054,
                    -0.26251150920703054,
                    -0.044970075204489375,
                    -0.16907591234808184,
                    -0.24589779633318137,
                    -0.9788377595970132,
                    -0.7529256114176965,
                    0.25296550054780775,
                    -0.01423091516429478,
                    -0.4028889623146613,
                    0.3539659293271416,
                    -0.48243391627206306
                ],
                [
                    0.24131062528533756,
                    -0.006205069882879484,
                    -0.20052969055516584,
                    -0.33429863028200807,
                    0.7444512113795799,
                    -0.34917188605182836,
                    -0.5219639961687664,
                    0.5698858836674935,
                    0.10817209023628582,
                    0.11803107925876752,
                    -0.06368105879203255,
                    0.019471846236432368,
                    -0.08608793421191915,
                    -0.023204017570598732,
                    0.39233013539249983,
                    0.30474305299166005,
                    0.019515214592456157,
                    -0.43630246865607936,
                    0.11799869681500585,
                    -0.11026473330999513
                ],
                [
                    0.696470781425842,
                    0.2635163375963834,
                    -0.36269186298982403,
                    0.406394704157832,
                    0.009229970675207219,
                    -0.5166083690456046,
                    0.17699452654817902,
                    -0.09459294978599617,
                    0.042321825653324166,
                    -0.10814325449291862,
                    0.10456774670215159,
                    -0.11549785025823753,
                    -0.23369545825510046,
                    0.19964550329037462,
                    -0.2160850523001422,
                    0.09207339035460736,
                    -0.34334291421349167,
                    -0.4438997160178151,
                    -0.017033703938600556,
                    0.30671395302149534
                ],
                [
                    0.0016049487209525979,
                    -0.21896331704049962,
                    0.2455866602398976,
                    -0.21451927982504482,
                    -0.08158172735844203,
                    0.1268794843275942,
                    -0.05920348542537921,
                    0.22499039849834732,
                    -0.2189778970714359,
                    0.10790369626462698,
                    0.3541142036889367,
                    0.20651793279639435,
                    -0.43898444991208607,
                    -0.00970672164813753,
                    -0.1047279460252472,
                    -0.07452617346341563,
                    -0.2732611853096702,
                    -0.09586320098622689,
                    -0.14621909869139033,
                    0.22092238540500864
                ],
                [
                    0.36572072201102723,
                    0.22254518231473316,
                    0.11075664838983812,
                    -0.053845183102826204,
                    0.013838779024287099,
                    -0.29680917189282163,
                    0.038800866945382526,
                    0.04047204472773485,
                    0.35655172517845884,
                    0.02659664878008002,
                    0.18387154966478372,
                    -0.4118599567761402,
                    -0.19474447379320417,
                    -0.24237030545029822,
                    0.40233096275317765,
                    0.021043879103840896,
                    -0.53766634420939,
                    -0.7783203385669129,
                    -0.010658566279295246,
                    0.30355479502953486
                ],
                [
                    0.19546043068689234,
                    -0.031012798518065748,
                    -0.2198550119335211,
                    0.3715377069709102,
                    -0.25810901751890963,
                    -0.2335943718968566,
                    0.04459980078455478,
                    -0.12050570922892079,
                    -0.01914247672335569,
                    -0.14101817994356242,
                    -0.398803564883327,
                    -0.3209665329446871,
                    0.3589836773162558,
                    0.08638917062437963,
                    0.012864746827456218,
                    0.16983890057281348,
                    0.062148207234247486,
                    -0.24661552881438326,
                    0.11901741396956389,
                    0.11731462451409526
                ],
                [
                    -0.1458421049095046,
                    -0.029106298808739196,
                    -0.1720727594147228,
                    0.5811150967164856,
                    -0.047453540959722235,
                    -0.20607417607391432,
                    -0.3218412407294813,
                    -0.23815036216293517,
                    -0.5793150454751026,
                    -0.23091670286239138,
                    1.0894401285859314,
                    0.6473325616316664,
                    0.5118259105324321,
                    0.22306077721213277,
                    -0.33394434042414334,
                    0.0607148157785105,
                    0.5782129278351057,
                    -0.14960759736802884,
                    0.4273817803332799,
                    0.11622067250872357
                ],
                [
                    -0.04788694837845653,
                    -0.1154077278550651,
                    0.3886476713408993,
                    0.30495507415181305,
                    -0.4026623405249661,
                    0.11994239343812474,
                    0.2152326697147129,
                    -0.11872898736925212,
                    -0.3543337309270772,
                    -0.31106171319274095,
                    0.8977911190557334,
                    -0.0004130707529834307,
                    -0.04144260664321683,
                    -0.6825209566585863,
                    0.04249896631835648,
                    0.35377195221209157,
                    0.3120911714655242,
                    0.12942797691289099,
                    0.7110320477790165,
                    -0.2476588559390912
                ],
                [
                    0.055995654795596074,
                    0.7686810692837118,
                    0.5554305964571643,
                    -0.4607278127991247,
                    -0.01293221644430878,
                    -0.31134512468805703,
                    -0.24630548708962824,
                    0.09465403592890284,
                    0.7311225663147175,
                    0.027657959868808424,
                    0.2541764669537116,
                    -0.16758498699721328,
                    0.2863468122141123,
                    0.02631218985950379,
                    -0.17226178991685262,
                    -0.5375641714252369,
                    -0.4302615978307439,
                    0.019256401070161414,
                    -0.294416028601162,
                    0.20668380305046394
                ],
                [
                    -0.2093915376537179,
                    0.035914414724289724,
                    0.2032650835910284,
                    0.1335147529454306,
                    0.10359652453028664,
                    -0.0805788517344154,
                    0.3046173283748455,
                    0.10372381509652417,
                    0.018079694460571928,
                    -0.09300684318493575,
                    -0.0042713768814916925,
                    0.013972432569427914,
                    0.0891124412447437,
                    -0.005699844534857847,
                    -0.09692135762816236,
                    -0.029976453027273055,
                    0.04431601193305714,
                    0.050512393751318725,
                    0.0722302052400729,
                    0.13081458558300382
                ],
                [
                    -0.13027158629967833,
                    0.09612578769600556,
                    -0.17316987311511645,
                    0.12152991199183888,
                    -0.5083479419221093,
                    0.07221189277470444,
                    0.23833931416399332,
                    0.2993720410978214,
                    0.028045046669602752,
                    -0.12461564708241957,
                    -0.08341253164435283,
                    0.1382693127309623,
                    -0.10732478914010334,
                    0.0792657899178602,
                    0.012167818428210084,
                    -0.3095203578372668,
                    0.057330780241439554,
                    0.5650229712909858,
                    0.09000138573329931,
                    0.20200654816330893
                ],
                [
                    0.20443454511862474,
                    0.19725510482542313,
                    -0.051130166608663076,
                    -0.059526419628894656,
                    -0.007471341318209764,
                    0.19319648982867588,
                    0.20429466815104624,
                    -0.2577310441308578,
                    -0.015932443464886033,
                    -0.01454486354617401,
                    -0.07094904141379912,
                    -0.16137443590049735,
                    0.15871042594646817,
                    -0.20141746196338056,
                    -0.4117939162487199,
                    0.07550724713177642,
                    -0.16213412939369498,
                    0.019816202641339056,
                    -0.05556058250710699,
                    -0.05274551324273294
                ],
                [
                    -0.24568323012876297,
                    0.055880518749789394,
                    -0.0670071744285652,
                    0.12802637906237926,
                    0.29583310966916465,
                    -0.105131309333353,
                    0.13825640489771227,
                    -0.31008030436954825,
                    -0.4903411560611537,
                    0.012886754194768152,
                    0.19506334461168917,
                    -0.12559064878400591,
                    -0.2652889528463331,
                    -0.39961521002394723,
                    -0.4244309519420694,
                    1.4118560415774062e-05,
                    0.009726840852598095,
                    -0.00836076228828584,
                    0.1145847968262197,
                    0.3062817419715382
                ],
                [
                    0.13678448656765527,
                    -0.2625282450665978,
                    0.0664095134927949,
                    0.3363256197280056,
                    -0.22919227078561194,
                    -0.42932579972372564,
                    0.1823141585892825,
                    -0.40538765961735973,
                    -0.09598897061802629,
                    0.08127559869422048,
                    0.030636001563256396,
                    -0.0240339097272214,
                    -0.048745644933301614,
                    0.2622263686548879,
                    0.09078644758231817,
                    0.09388474312114885,
                    -0.14430419448138798,
                    0.05547501535144821,
                    -0.2241599046578126,
                    -0.14821228279026452
                ],
                [
                    0.6862396116437651,
                    0.24598757871715007,
                    -0.15759757061701812,
                    0.3094510184490001,
                    -0.3092132875120276,
                    -1.2014096237112197,
                    -0.06149488599300256,
                    -0.750558194881301,
                    -0.0843167087442385,
                    0.42085974574573887,
                    0.19787335087782343,
                    -0.29983937636773195,
                    0.01110885053026763,
                    0.5887785981154199,
                    0.12730060032111132,
                    0.22999082706766527,
                    -0.40666891069298056,
                    0.07901780325659197,
                    -0.06345892667991784,
                    0.908933494613386
                ],
                [
                    -0.16959702528319728,
                    0.09177447332141898,
                    -0.30443825815898795,
                    0.15681393145215697,
                    -0.17658546195450908,
                    -0.15548555759692712,
                    0.6821426162684746,
                    0.10554943785052241,
                    -0.1539909725473107,
                    0.07096015839121099,
                    0.32875461548948065,
                    -0.024826144769647444,
                    -0.33968095453984226,
                    -0.2774985916410946,
                    0.04302296374357783,
                    -0.11455782395977654,
                    -0.1770513311808411,
                    0.0076575181424113565,
                    0.2977867847489673,
                    -0.1420906173844124
                ],
                [
                    -0.043518592775958875,
                    -0.03867734549297042,
                    -0.45834346748146554,
                    0.12069414599345529,
                    0.8326669271750349,
                    0.42511604262204133,
                    0.2611745929456651,
                    0.22868756118475592,
                    -0.3931198286156044,
                    -0.5527030843596838,
                    -0.2219759375295957,
                    0.20418027089008983,
                    0.2946644137566014,
                    -0.8337154506331743,
                    -0.653826408301457,
                    0.3395788126137402,
                    0.6155068434062236,
                    -0.6358934218468465,
                    0.27522119420785246,
                    -0.0931114076395173
                ],
                [
                    0.3847429904981377,
                    0.3708963590958042,
                    -0.07371459836317727,
                    -0.0516705370732354,
                    0.1897045568100486,
                    -0.3419954965803243,
                    -0.03773420211957905,
                    0.4293762652287554,
                    0.1821577056640651,
                    -0.13616969101632315,
                    -0.2403653310265244,
                    -0.2893894974335094,
                    0.00411304867001771,
                    0.03641005485314791,
                    0.2580700178717484,
                    0.2831446625114502,
                    -0.12934958810254277,
                    -0.33296064192520586,
                    -0.07727155494958658,
                    -0.22109273463145665
                ],
                [
                    -0.16348376312045115,
                    0.0804007332844265,
                    -0.9031548476253999,
                    0.8061577620909514,
                    -0.0705806903843936,
                    -0.22778189277747318,
                    0.4184964043196083,
                    0.41877624940267283,
                    -0.12050083095938048,
